{"nb_inputs":900,"nb_hiddens":22,"nb_outputs":62,"h_biases":[0.4042540542701113,0.2611694298764109,0.18128865135792063,-0.0095070175290179835,0.46258578337951595,-0.062086827097651558,0.062565906152124817,-0.32556461306206974,0.12746878774318693,0.22193953482905671,0.38750516008606117,0.29947235151096918,-0.22740468289589957,0.5536778286708719,0.69248326543163941,0.030877596302807696,-0.068722668393163266,0.36939918507984809,0.36857689909206803,0.20638952999475751,0.55738688472473896,0.12955547482244675],"o_biases":[-0.62432796019611503,-0.26874301100863346,-0.25575602539688069,-0.54729993142961841,-0.29353736283835835,-0.59054381152414548,-0.48990388958611436,-0.48652229676348568,-0.49606253977252091,-0.56670314158406276,-0.41270406870361365,-0.49040012118285725,-0.36338238129730294,-0.54170202199811124,-0.71142848653882584,-0.5511512778281239,-0.37113753425764179,-0.10687098990580723,-0.19722501305051393,-0.19500985801508955,-0.45534037114456133,-0.40652615148890403,-0.24325860171276667,-0.75531247271211843,-0.44535724099242185,-0.35612262687553559,-0.34754409323099311,-0.28060564401214744,-0.41905674929517273,-0.40572140452401423,-0.67074899263561694,-0.26067611719372624,-0.34053553953996368,-0.1618806378282866,-0.37003794329605744,-0.46766921604725886,-0.42554997317217119,-0.59505625942958695,-0.22475043301221476,-0.57098874585016024,-0.57591268203212576,-0.17889080387530637,-0.59445945044866189,-0.68167078501137446,-0.22238865312839984,-0.083859770528531385,-0.3024762527110133,-0.32281919878332438,-0.4313522692630215,-0.41092974590660025,-0.42900470841679345,-0.54033975949853874,-0.33122932560538221,-0.67186543161907408,-0.89573528554706605,-0.68617110685352223,-0.22237881546522581,-0.33349712442866397,-0.25789612628481268,-0.32139924223988725,-0.32261322891621724,-0.57673500300323988],"h_weights":[[-0.00014716219613864628,0.064543114246527755,-0.1021556004726821,-0.033483587544425077,-0.046763651772628,0.067062134812030244,0.03588937558100818,-0.061207857406738647,-0.098653413004856971,0.021977937716543688,-0.032609546486867209,-0.12747155803150031,-0.065786685370460091,0.035434332739601511,-0.10439103518624998,-0.051049674349656529,-0.036904197901440519,0.064122639204990339,-0.053016383162043018,-0.060267485844849672,0.030195021518232924,-0.019515395800980162],[-0.042452281433806902,-0.096054981371974296,-0.095111390418620004,0.030309529617843077,-0.02226881361755137,-0.10861551558246502,0.063045668381208758,0.0037473377623308962,-0.11827564893965642,0.023742535499887141,-0.086896583550811007,-0.074247622957237164,-0.065961794360767878,-0.16310763612384421,0.015891725505645833,-0.084849396160826929,-0.077243738386944705,-0.068646592009410673,-0.077746855014999117,-0.038258309909419634,-0.054658620681941453,-0.037806727674186268],[-0.028294948810037218,-0.061673515174522547,-0.027380361238810789,-0.096113240401923011,-0.088653548234027074,-0.017552058298390846,-0.0062346627382408697,-0.093799055643939463,-0.051841888007275634,-0.17027228543520442,0.0037754349366288034,-0.13850624499875294,0.012925420514127782,0.0076638115641995616,-0.1159533882510565,-0.068625141300781026,-0.093816020185696763,-0.080352853615822423,-0.077562829562032212,-0.087945421911647031,-0.1733661106678222,0.021787699223037603],[-0.06790997733528524,-0.11211297159140435,-0.088578453324970524,-0.045172784058399418,0.014921167790193743,-0.06527676735584817,-0.19969198658310869,-0.036893906037758842,-0.06186144663923078,-0.08293305988206473,0.0038162277183760099,0.013188919448877984,-0.099087995730859663,-0.079036270408569448,-0.0058557094166097265,-0.037376088981135543,0.036495200676708216,-0.047432771710045854,-0.04769465433248913,-0.0089646067188055532,-0.12448172060191404,-0.098530002770636921],[-0.020835592777978737,-0.0068409951663406451,-0.11009668806293404,-0.056538133966103736,0.051977337482134435,0.067444536423624052,0.0090445413423979326,-0.068226480947033541,0.0023977051835520763,-0.093625294411503593,-0.066597533139355486,-0.026342477637623783,-0.04350126828580457,-0.045415834702963731,-0.17345616697457059,0.0050028736288711614,-0.099552726099410266,-0.0066311481080358822,-0.025660241218251743,-0.064454296454354493,-0.084181560242529319,0.019474591393198272],[0.029117427735218554,-0.099293832394754394,0.074707727783228317,-0.10828229632396924,0.012381725154393307,-0.14790104755251726,0.0055435162428430981,-0.023392161399970354,-0.028867052752599223,-0.035352787520009595,0.0082466360129548194,-0.0025251356547668496,-0.10232741979061624,-0.047445513049209936,-0.013553303766392251,0.074184652899829923,-0.079117290137838331,-0.0066663750815302639,-0.052437908516627094,0.072493240292994809,-0.049476947040302213,-0.086959504641693025],[-0.095170100575430433,0.043376248707789826,-0.067419591427082315,-0.093103615870585799,-0.088829741026108688,-0.0070603019387332037,-0.085998525670966469,-0.036078222598353506,-0.16679066533997863,-0.0074188325641376916,0.066158648473378073,-0.07974255367395032,-0.023744163650057781,-0.05857648337287763,-0.13881634284817626,-0.1408763498277345,-0.1598161064965419,-0.082526434110378355,-0.014214668431983393,0.11821388276185624,0.010005866513153612,0.080074960145598645],[-0.11547515175951747,-0.061102816755321539,-0.14808486846327176,-0.051722601486164962,-0.014939427947243095,-0.054499752764564563,-0.086485903629032496,-0.10099793343524377,-0.034686340938316601,0.081489043525517751,-0.018431120262325115,0.039419127961169385,-0.068932191124434078,-0.047329618712829778,0.0037304301691919659,-0.10649902985894724,-0.052591170448620467,-0.00026105463344810315,0.015551341919597714,-0.057978026802680271,-0.0065971778798702453,-0.086162729684887363],[-0.05008202786088807,-0.04101766170597887,-0.038442424095875061,0.012176854180594533,0.047331853490441327,0.0082733917859571862,-0.011641535962970902,0.01700841762872278,-0.024666362548024002,-0.0017934037331710159,-0.0435488700665322,0.00059262774689136655,0.068015856186368018,0.01812390166901387,0.088641123615777084,0.018881392206562889,-0.05830644002145785,-0.033995436831588642,-0.039510348323918122,-0.005752163120033859,-0.11141852878309569,0.077947907413877221],[-0.059810554871541584,-0.038522022246689012,-0.053675443721582547,0.055475245383152343,0.0094579058806495281,0.053890975141515161,-0.047987186339692803,0.12846899436751205,-0.070417666122578243,-0.067228080436768284,-0.13909058101507435,-0.050178893121430486,-0.00093905678189890734,-0.091459453151278319,-0.088949308544975292,-0.05055456613894091,-0.096892423421649998,0.16612722485018711,0.016083173728860714,-0.04619577614298663,-0.055146873098564302,0.0098129298197868753],[-0.013076397838017732,0.010020080401935694,-0.049883111967167867,0.023613546025722847,-0.04002454789935906,0.052627937631152623,0.000767378145156275,0.037674193961642559,0.015775496908142186,-0.011472904331729886,0.015025072388621927,-0.016107178177149968,-0.026451493248504661,0.041994045844395624,-0.06075962748544679,0.026179469612703524,-0.10270351370556074,-0.05361063937531358,-0.14664413445158106,-0.066730132784742824,0.082584432264560026,0.011922007645552596],[-0.020814501781194809,-0.03558508757765811,-0.033981223901971128,0.062668692217154404,0.033975913260894282,-0.080959771389630203,0.06784774372506594,0.066171150403537632,0.072460104415216164,-0.025283098307903283,0.038310593236217182,-0.12833276833053842,-0.017012435222721767,-0.061939382710552243,-0.044935085463717245,-0.1345100587363878,-0.025410361557326892,-0.041704704661582957,-0.027942949379927765,-0.097404164522979592,-0.053062048151723967,0.058365039260240038],[-0.097763823011780604,-0.14207869409294788,0.023910270328439114,-0.012658143692943082,-0.10782250891935158,-0.10360194837103848,-0.052584019960388195,-0.012925296474184077,-0.0025132575203602389,-0.072018185495911075,-0.097596972112944519,-0.11270579126766728,0.077953043682685852,-0.021102149332395289,0.067127807000543938,-0.1090992520422735,-0.12670026509660209,-0.072642953138399025,-0.079106336875512273,-0.070485317203990705,0.032740943692245929,-0.035687160328443115],[0.083412222147806164,-0.039659239183250171,-0.17162832992152624,-0.12720199212132022,-0.036437188715063323,-0.018011683979953105,0.012976589499740003,0.074280660138099058,-0.062296102581388832,-0.034166408062211835,0.066012628565942921,-0.047911623979203191,-0.10838388756056136,-0.022318135113514381,-0.10248016966316242,-0.10477313107715311,-0.12358499772014814,-0.1349659064540652,-0.054386152222772814,-0.015076674275705249,0.033740501954197567,0.15737558357807216],[-0.042321811819349561,-0.044499403086873029,-0.066316655896251381,-0.01480824806880866,0.018360701189804852,0.031697735112498744,-0.0040556412563594497,-0.085961461669968098,0.018421168977823005,-0.2125284827895384,-0.0028970782827350411,-0.06995821219633723,-0.027566501062538714,0.050037290746073486,-0.091609926876757036,-0.0557751195966762,-0.00046395879315643679,-0.20778380140660091,0.043340845715573097,0.032562013704440916,0.0018488775048007486,0.0093310817637167684],[-0.088979714871080196,0.00014194871920460844,-0.065672340499050866,-0.021860928701086479,-0.0079393539333261556,-0.078901201310808772,-0.023769809821251001,-0.11291719747239995,-0.078766590094517835,-0.048033656317917624,0.068915932143031822,-0.050435847571624684,-0.03723475720852526,-0.081448831454421777,-0.095781514198387457,-0.0055635819951508937,-0.060866197935944472,-0.08418421146385284,0.15518726992247173,0.0050602869704623049,-0.16148949520183759,0.057887060994082827],[0.011931426041610009,-0.033708577038558216,-0.13364418377296411,-0.1018818675563182,-0.12479343875967422,0.0032449482854103665,-0.053360432030769706,-0.0068252928862668899,-0.21234900087688607,-0.015761137098501198,-0.055489711417735614,0.064900694835862416,0.029642053535171208,-0.078844858766183579,0.025229460803238561,0.039710099835911818,0.14173958364839245,-0.055030232694555745,-0.035408500054397933,-0.030621860804265804,0.05975588168322709,-0.01797901714519308],[-0.0099606436928205595,-0.07125793712065151,-0.12933734135550087,-0.028972210155574656,-0.061327001714430236,0.01327478797996641,0.036567902764232364,-0.026850928321218416,0.10125353739257711,0.013653845097262758,0.05944047159099989,-0.12391206912123459,0.013857836770611649,-0.0041200669202216093,0.040117847598967159,-0.07892609171266711,-0.042277098692421272,-0.097100670643466697,-0.048492648857943452,-0.0061529936007680731,-0.045955387889624111,-0.1066176596556489],[-0.07362919085848682,-0.049351695335872393,0.00053982797846393454,-0.026877167611678923,-0.030615479269370086,-0.1297199273695881,-0.13017478934914026,-0.085294099257372552,0.021221045938020135,-0.04803318235295638,0.011210611571621849,-0.047326839560043424,-0.080936131014791524,0.062541207281026523,-0.089801720169180588,0.023484730412010789,-0.023075705334349772,-0.053763504166618237,-0.14166023626052268,-0.034887721991543857,-0.048454805640751331,0.0060087690229176649],[-0.0081577664765377957,0.0063095480604822771,-0.059997840324534084,0.019142958268068236,-0.11192973238182968,0.006331348654537057,-0.03509966748467766,-0.062196232394897411,0.016142618025449508,0.079163180653539639,-0.012671917430427768,-0.010543251081213439,-0.0036216619431536611,0.050040921705739656,-0.037439422441655983,0.11308188587526719,-0.095791581363133052,-0.025952275157666429,-0.067451305794860861,0.012223687652954146,0.012687781025532002,-0.016355884118782419],[-0.081729830249405833,0.01020639282332346,-0.059147585344202863,-0.011373819664572859,-0.15040254598886243,-0.12888193792880803,-0.026675376801108448,-0.069051029880660628,-0.15243663715512532,-0.083659313957432174,-0.1576232120592902,-0.063209402154479816,-0.022701814989113011,-0.028051211639776478,-0.027284270125487592,-0.041823095633956128,-0.089039414013976803,-0.0079327759303522288,-0.052511169972798359,-0.016932055782079007,-0.042785822541408905,-0.066219901399983488],[0.030993325844672036,0.03933291773259643,0.0059145615331741216,-0.0068309458582950545,0.020912791673036647,-0.057408577110909187,-0.04625131102578043,0.041711724469355331,0.048772981091652214,0.025933024613150196,-0.0099703025017517551,-0.073449310530961764,-0.012003067850139455,-0.10001470989450242,0.022081466589027786,0.028013438591558477,-0.12462276867279776,0.016488964014981684,0.037140313517335134,-0.03311453364551898,-0.060334225626490309,-0.018757814053677262],[-0.064850119747148577,-0.05344430525182356,-0.11753089512686071,0.058023510375602987,-0.0085567620941311671,-0.010707931587607692,-0.025905899568285057,0.020049423731738174,-0.013922484581812042,-0.062604561215260646,-0.14014890977958153,-0.028015874563938743,0.020397462479639986,-0.19456339045917243,0.05680160546120442,-0.028085812537177079,0.049149667465365969,-0.0080790291646388387,0.03121277771813482,-0.019729170195984795,-0.16187207190819047,0.046348088793232524],[0.033431879602602153,0.078619392123302101,-0.069667111333055448,0.02536349571841516,-0.049260332001328684,-0.071821049406735782,0.026947626596238984,-0.031207197771953837,-0.012906127845971657,0.028649681951952506,-0.13530551097529575,0.0030796889939364164,0.02291134780862937,-0.04747176704281874,-0.097709938101457727,0.01139490327602663,0.012062860100205346,-0.026807800844127906,-0.13492877058654731,-0.018154250516226197,-0.018173437673640363,-0.057727167083180958],[-0.038984819601532751,0.032716525856224914,0.010438674235019284,0.14340634184982406,0.02599593818447786,-0.0022743888704565181,-0.034643953958793737,-0.023468753836100295,-0.14626170724784884,-0.17477731664861784,0.064316449409757781,-0.086318173684424016,0.062692330005316543,-0.048092245975339315,-0.14096524121449064,0.0062446467587114127,-0.036664061066669619,-0.034458234144797401,0.013848131157093921,-0.081044740155028466,-0.19999109709437118,0.035536539095051493],[-0.062946479871361441,-0.10372077980234126,-0.046804336713518684,-0.00018786859163814895,-0.14012519987576896,-0.11931693205759669,0.019039508798821998,-0.034450229332702809,-0.10704376760486323,-0.065050353940259736,0.051226430433531402,0.067677691529884454,0.0024873018397879726,0.046088830874172905,0.039099160889575248,-0.038030444048754629,0.076754391436884228,0.093558830262686632,0.053674380148961719,-0.073590707498696256,-0.020624885928176222,0.090470381242919035],[0.055839453755164005,-0.0096178831466521876,-0.045278837338799047,-0.12639312036673275,-0.087857585160080992,-0.11244670659196934,-0.0012193562537040487,0.054735669812918046,-0.027231979451959726,0.011852864326172816,0.037323591217333731,-0.057689443418911204,-0.045542026558418922,-0.062793868085099583,-0.032520114120598805,-0.04264523503247717,-0.005637546481266912,-0.16150551573390465,-0.055769687526777273,-0.17358480350072092,-0.17216711900296486,-0.038184873605438208],[-0.088679301646324524,0.00013353172561671178,-0.1023816592374539,0.057779852899388841,0.06011315987342946,0.0081278727380092175,-0.068043901040470867,-0.086953607524965199,-0.017886589169180615,-0.0059005806659098853,0.13226702908999716,0.031413273177908423,-0.048511453813356684,-0.1008247145736455,-0.13890010230724809,-0.086358487605948969,0.00064428697126403534,-0.073730243708861165,0.043071827115193466,0.017856949591251725,-0.025829822331639142,-0.03587525060041509],[-0.11402619095681255,-0.083902282788011207,0.0044900728518603439,-0.072042223644533748,0.08301884380329172,-0.056147449692365084,-0.0084771715508153399,0.071071002708243125,-0.12996187690452374,-0.018574362927272468,-0.11465397254267001,0.02245960624975453,0.051080253972840099,-0.068058751541649351,-0.02814676907373306,0.0014685728153864888,-0.076540529649489569,-0.1062694841503054,0.039365275598255763,-0.041739723255529687,-0.018099843043460385,-0.067677801369037324],[-0.037024446386193607,-0.046843751552248278,-0.11801560585795523,-0.047327694468430534,-0.015759042681852901,-0.063500066638702779,-0.15299372512693979,0.013227701493195874,-0.045523342445433851,-0.14694718257831496,-0.10590873012079485,-0.062247817568765074,-0.047644261217585054,-0.13121963307204595,-0.046097896930048052,-0.012663588851567948,0.050856424035237567,-0.10891891303551768,-0.12263385292865608,-0.024433954163432872,0.018051172215229443,0.010675352748175729],[-0.046855722551208859,-0.057808749715202397,0.12606786365003017,0.10933438997859171,0.036289818556143182,-0.0092811724402993082,0.0050803184569865809,-0.081725425369627291,0.037295045878005563,0.068940336678752517,-0.044066714748936198,-0.058357370655060907,-0.011025953069167913,-0.070783621487344461,0.073656161786006508,-0.10309869242732467,-0.053885315742282613,-0.12760247220395227,-0.076968790617114036,-0.030672000664851182,0.064445422886163922,-0.011501894439779659],[-0.039750343835534344,-0.11128626211358861,-0.013606988099986391,-0.056819542793035846,0.045106037586880025,0.097603557656939455,-0.14349605033875007,-0.041669418262202981,-0.05457946086723444,3.8106106167987153e-05,0.026609069702396446,-0.01930505268478536,0.05413453564583446,-0.069183938562479452,-0.23276045095206777,0.024258841887806595,0.036158528959538146,0.041664230874488416,-0.017615695374225679,0.0051826044646767003,-0.13438317795459373,-0.028168885169809497],[0.074212158032648357,0.028842859159142982,-0.095721231495432699,-0.02254818468680219,-0.11734585930073468,-0.0093654449270741819,-0.051645964269176066,-0.10562101759203549,-0.0040144598943217535,0.05606254897572014,0.0044681436723170431,-0.036543444842798388,-0.086542589336456185,-0.014975510133047116,-0.08318026524477759,-0.13638390456880986,-0.081194927507277137,0.042629710854773288,-0.030762605646496004,-0.12224527151131848,-0.00018406170204462308,0.046524393154234157],[-0.086026245251026284,0.023736455068953957,0.0048223120455650331,-0.0083594239538858188,-0.040849935943731507,-0.12331781953699125,0.011023996238831615,-0.098588523313840049,-0.054207553750650866,-0.035486181419337584,0.0040012137525265584,-0.031264843235272261,-0.15568145249577281,0.077467670275435468,-0.061826227025379099,-0.20636762014283613,-0.043299654861258849,0.0036782571531599889,-0.02553484280084601,-0.041265217242024796,-0.044474532260628086,-0.013434743132980032],[0.084898337044966327,-0.072990876820574813,-0.021373105175913235,-0.023865647122942871,-0.074407668002323485,-0.047514775277966256,0.0090149991332196741,0.039389953885900893,-0.05763437672647713,-0.06810520261473138,-0.0020790840516208692,-0.15562206906180875,0.058672196618392604,-0.013234540785685818,-0.11302051727999521,-0.1065590870947388,0.017840323191166199,0.072181173729843978,0.017716653271858798,-0.072938542133776194,0.027510784621444628,-0.046791941428680109],[0.077327986738735643,-0.11994235728331712,0.081409339270167219,-0.0053339665251579647,0.14613096556029179,-0.033498197398976463,-0.087619308935150048,-0.1110591008551963,-0.023382630144023711,-0.15569593372795432,-0.08860666075078738,-0.0030246321921726486,-0.081114911851972588,0.059525825802915371,-0.025852471694602388,0.03525690296628186,-0.0024737735108226779,0.039877949607333575,-0.040449398723584842,0.12338760884970112,-0.12647762619450076,-0.14767395200905276],[-0.061635054417425471,-0.033169838560100307,0.0094647083031805593,0.070550338846749466,-0.059370197117338083,-0.037329541404319849,0.070130422108938412,0.055840372779436508,-0.01093702572907131,-0.060532755307446479,-0.062606838282353611,-0.1261200920974688,-0.07875478879433323,0.040173843931213975,-0.052719230708014347,0.013155902620476098,-0.092653963076071988,-0.098791262658121298,-0.0019085399635587544,0.011494746774119755,-0.11182663079579885,-0.0076456760056553795],[-0.0077656008465330703,-0.029235619942576022,-0.042608944213198011,-0.047944381754389122,0.12054182033814451,-0.052524294797098026,-0.044499578318709564,-0.075363901919220933,-0.00094890702075923344,0.086634174562130767,-0.023389240942792572,-0.031269550151560715,-0.01565329549961228,-0.0043087556973106546,-0.044408506859161381,-0.019247102961874325,-0.087577427297879151,-0.056193904959820948,0.037252454957116869,-0.036642694198107992,0.029276670047398652,-0.15600543487670057],[-0.047763204226929375,-0.0052860711270963229,0.017713310040736979,-0.027292652135318497,-0.065444523754538103,-0.089023507619481884,-0.076791575971026149,-0.10990188750737057,-0.065125009115563154,0.016703732741996137,0.088863685992870811,-0.098424140051087017,-0.12092230915133759,-0.041287438057136763,0.026858114257095181,-0.063027297888118103,-0.020416163054361905,-0.1107014420808394,-0.064023548392514146,-0.02982780897430717,0.093030289366705765,0.05294003900674444],[-0.04897981806475523,-0.12475235171631316,0.10137074358249068,0.0031027915881982129,0.096893378828767279,-0.066410645484583419,-0.067312813886870632,0.019235185335079154,-0.072978309788789997,-0.073890287176638036,0.032481023574767863,-0.066696043253243575,-0.089656488599940631,-0.076848428239840116,-0.030287826010959789,-0.057045239121522172,-0.013243821072010536,0.011908435542096571,0.088996449907628034,0.028769676807861029,0.083903082701596521,-0.025668904568618464],[-0.0091735960427794978,-0.062300623092404146,-0.077955062010916523,0.054736174337424774,-0.0034019224528288178,-0.0036725169701076338,-0.082226838906234001,-0.061449164678844599,-0.083242913846550443,-0.047691151697061854,-0.11866225295148466,-0.080056410150881607,0.02758889814554609,-0.010285419634959568,-0.013509291540729235,-0.10328526588498871,-0.11845856581434308,-0.0060888081077184082,-0.00030431628793511911,-0.13058204199303042,-0.066183302537917821,0.0096511385811070272],[-0.14832660852575202,0.069650223465856892,-0.025848872243753922,-0.086453273826866336,-0.10216824196952198,-0.023688336478088132,-0.11785252165976545,-0.17591560715094903,-0.09265796679872873,-0.0083149923558216328,-0.030428119378574658,-0.025541611870485009,-0.024804033461718316,0.0068627391431084692,-0.017218410436406095,-0.0024068070136591332,0.057665244689392985,-0.12536933382624971,0.066497344464230085,-0.075169816206971163,-0.075620261096961225,-0.045469949637322309],[-0.024108158728831514,-0.018439954521923138,0.063328598844269474,-0.062075293759420211,-0.064865653102035958,-0.15879625696945585,-0.065460300847865791,-0.00075379053060044277,0.068436975767179137,-0.042109531405806269,-0.013159498340291634,0.11961235748883056,-0.018249662082507952,-0.0052049046684716875,-0.025918599185409903,-0.041401613126848293,-0.027302681887153204,-0.076635029078508332,-0.022108831387849418,-0.037629518574360026,-0.0093187713191701903,-0.11166537667093754],[-0.143305815277917,-0.11597282687533775,-0.098237762119625538,-0.1279150282951888,-0.038192396627964538,-0.12149985755367643,0.023642451595797143,-0.074000883803882811,-0.19442985740477031,0.059245798118758221,0.0003266529578678512,-0.12477417140696381,-0.01444389783052151,-0.050348710629606032,-0.063715574691411703,0.026683930993012632,-0.027687417801762072,-0.083414873128943384,0.067717890603667258,-0.04979790269376963,0.039307416305669814,-0.053737711652748717],[-0.03530776305369146,-0.0056798804054292162,-0.044268477038303208,-0.016040513554639087,-0.17364434157431691,0.073586018329703434,-0.10987503673976284,-0.070616763660716231,-0.013243912036838053,0.012825408016120109,-0.028431739174521346,0.050320298348644509,0.080325093718445623,-0.044963642499700286,0.059643162596872849,-0.017192909472768903,-0.096173105693318411,0.05516221905676514,-0.048916129422472449,-0.0024868744357139615,0.0090882152779181227,-0.034576110860920453],[-0.088466891365633682,-0.047720764457194143,-0.013090650344995295,-0.074850424081847541,-0.11136952252555851,-0.076414277666178337,-0.095876770634683361,-0.032584027040447293,-0.09094131931090102,-0.022579712046508355,-0.022145574405925364,-0.16525628287779595,-0.05966663267806703,-0.033537984497322024,-0.06330387056517775,0.044028706828080515,-0.024379491146872195,-0.032637960981337005,-0.11796162597698406,-0.042313014282999196,-0.035015809786124147,-0.090855069290225632],[-0.00068792178466884485,-0.12925764099563017,0.044319548470318985,-0.068450343063242935,-0.13901445095644702,-0.032352254348767352,-0.11596657856128537,0.084347533759378396,-0.088890521182200283,-0.051295110725347967,0.015729414029124887,0.053411475680184693,0.022541856326645952,-0.061900503576932581,0.099797381470424967,0.0252422516878585,-0.013931482504406144,-0.12734699084966455,-0.0062247773157058754,-0.0011522829223420197,-0.01091954152784879,-0.056653419445530984],[0.038861068832612373,0.023240613349165773,-0.074227239926143801,0.038060038043700596,0.054145132797351468,0.13026144370317727,-0.031780570343104296,0.074349395024096265,0.01501200382352768,-0.029435867122810981,-0.064133308392247165,-0.12589554109681009,0.0013055662122126027,-0.079711755857024599,-0.041222990240420629,0.022055379897155419,-0.025631252448014449,-0.10298714498838521,-0.1563506563694812,-0.088610083949445501,-0.040159854676190321,-0.11371889840291663],[-0.056534303238674491,-0.027580143385120045,-0.088563267369684867,-0.14541416498435336,-0.072657705801703248,-0.0065322707948055579,-0.096151802108399076,-0.087461822101441822,0.092959083480889271,-0.061933745968536069,-0.012108037045287012,-0.065831092686997383,-0.038647349633559147,0.081219534062854593,-0.079657769086025787,0.052753570233009688,0.025564461463120018,0.085032535824876909,-0.041473604804682741,0.05313117118444146,-0.053766728253925533,-0.057446854043876228],[-0.055168314130026666,-0.006846467977576081,-0.083098415525515223,0.026610756195978212,-0.043136058268349542,-0.01538529112860372,0.12972328818155726,-0.075404967208965862,-0.02887883724521139,0.0304061908470784,-0.11475952090022221,-0.12922161001034937,-0.060884826772994519,-0.10794801690235034,-0.075778669385285005,-0.050862225134279723,-0.050659558490125059,-0.077197559651443717,-0.0065928081409029581,-0.018186471058127832,-0.092508932489973827,0.022527845853639678],[-0.077759917467224576,-0.10213899565703619,0.022930447687368849,-0.017886747424401616,-0.020138181195087038,-0.14388129542640044,-0.11953945024145127,0.067367955212211922,0.11911824091421422,-0.016141662494028194,-0.058569565750353367,-0.0040463281642054635,-0.11693613813653991,-0.024132810906469612,-0.1226497888843987,0.044142207676077898,0.043093081507247395,-0.038883649823051973,-0.053785911872035436,-0.10881179248377457,-0.082996693005173705,-0.16204646284436935],[-0.026234527732787935,-0.081062010439217652,-0.059634657046319997,0.039510391011389999,-0.081907729089801637,-0.031832723755795933,0.13329730346744545,-0.04760485744265875,-0.017857070627122749,-0.074723967098371633,0.063799135614984681,0.026222114441583289,0.03776342905712677,-0.10779304021720806,-0.092931801312636508,0.12161863105688292,-0.091687727503488942,0.066453448063449855,-0.018436723040447286,-0.053901001581286093,0.072649569572695333,-0.011178294263540913],[0.051038005533724166,-0.026133536972686524,0.055430804739269625,-0.098613514896817051,0.022319725195359977,-0.062297810757534558,-0.072255560778340708,-0.10314644249510291,-0.11891451399087738,-0.059751821328724156,-0.068153962221527975,-0.057252661898033408,-0.11555029270045641,-0.16442043798535894,-0.060862529746760263,-0.015421057095216323,-0.075811575250314095,-0.004102161592924123,0.056857683281652908,-0.12046550825678665,-0.071784988572679884,-0.1176393784211788],[-0.13113970703579181,-0.01824841447348368,-0.032029007403318911,-0.0095157075125547157,-0.079650959116020104,0.023433185205996562,-0.11969646383349494,-0.046064477119793515,-0.041568790967428,-0.10603363064637325,0.0083446636364880519,0.034604838497947467,-0.17330093129451415,0.012707029817522017,-0.012155219148108069,0.04171976734569751,-0.086201704690285694,-0.072005262732479647,0.011948535017298527,-0.10619791685889857,0.048873968710761696,-0.090170889476361454],[-0.036259670625633185,-0.047844609234844238,-0.066685045406881055,-0.13379409287855068,-0.081657380647121719,0.014650132867335172,-0.041209918088556369,-0.0023521360197543591,-0.079606516993000254,-0.0079233604900509,0.007154778350077079,-0.072119221001196859,-0.057479798729899674,-0.032166334893467582,-0.077812878887498549,-0.015859498949237612,-0.02580753935394417,-0.05435576942253327,0.026321395069260137,-0.030577828793537491,-0.10073214283185386,-0.18393371249321461],[-0.0050442063550742433,-0.02149439959502214,-0.050116445359840084,0.060712202617916218,0.015818082206228289,0.015676707541612413,-0.079832739431534655,0.059971444740374504,0.067745228276861025,-0.010227675343688302,-0.010343410034944833,-0.041878504306514235,-0.0080562258461324109,0.019782066982127235,-0.12651938657165565,0.016475570431455103,-0.0087807198235347675,-0.088158728589302765,-0.045945152657342322,-0.055098086628643697,-0.037529168000298985,-0.1179481328031376],[-0.023386912798923847,-0.014128504595854647,-0.044399297618911981,-0.074348551273057437,-0.028863880626890114,-0.019857881030694774,-0.20891104230314128,-0.15072858867152311,-0.21486008980945426,-0.10674797360183047,0.056580834585263827,-0.045692511238241668,-0.023680605539942067,-0.10175775404512552,0.13095892874567036,0.17234672314857563,-0.075814125363065699,-0.1018682849423708,-0.13010996266854566,0.060074113913475426,-0.041331125024018631,0.038016169216872335],[-0.015983924358612643,-0.051147805270595884,-0.059586862002366861,-0.0018451766465725425,-0.036061230336186315,0.024733448736468759,-0.15570629942789216,0.013735955171684577,-0.039965309022761866,-0.19689499365805996,-0.0040033162373578832,-0.15658753985493565,-0.073589263717662196,-0.084255253937940547,-0.059061519925222017,-0.10806855198331969,-0.047975655990507932,-0.15522356336319321,-0.083424329646031803,0.069150626588947772,-0.057437986459120093,-0.12821902181756026],[-0.018118510055941249,-0.083492383797324099,-0.037595172266914549,0.039661416972989173,-0.019348702146724548,-0.026799395031019919,-0.048262239468139234,-0.061199260479293291,0.038828534721768164,-0.034804393321184422,0.027519001975237309,0.017641135891861892,0.074979852520922513,-0.013526071614248219,0.072467863517984038,-0.01641495526894212,-0.018599717736147502,-0.077986956963892823,-0.022297350803582139,0.03903539404170172,-0.053586534027780811,-0.096265089759473094],[0.078090172211532,-0.06247886425937893,-0.056841910471495644,-0.067591083308792488,-0.098721762018768755,-0.03216978581077283,-0.066884942096465283,0.005361129054974878,0.051432165449400567,-0.0012669419476079233,0.03331772639988901,-0.0093248846765841761,0.024581970663427447,-0.14771970555167785,-0.067411624519644692,-0.059012369361768617,0.021717231108140063,-0.098827929955619842,-0.018263787834263804,0.090288767298272316,-0.071594363740869221,-0.064115990222443936],[-0.059398768100764249,-0.032474370974291553,-0.053445994134081826,-0.026095366817982628,0.045209769792376654,-0.024281466618737188,0.10664628287999703,-0.10439005119872177,-0.08076177966415149,-0.1114427745878242,-0.073469076655972604,0.067203941848976795,-0.013267332471153324,-0.084585158780436889,0.018005483360088115,-0.13795878308060691,-0.050116883316422063,-0.0016376056163041192,-0.075183204348033925,-0.043590531326870352,-0.072034574846579769,-0.090863312636556892],[0.026211845116997229,-0.1005283886983292,-0.10275511374084415,-0.0079698503255381387,-0.028025797095880805,0.064600940079485497,-0.06068189229498331,-0.067818578319391476,-0.028161043270252328,0.069613626841908721,0.05061541192484726,-0.036611163214766478,-0.047988577076709241,0.064454493970419524,0.031097557310369499,0.027566789069053459,-0.015701727113372036,-0.11567584046728269,0.032114492240781688,-0.10047299864458725,-0.0042629357417039784,-0.009413614428334275],[-0.027858371556224372,0.045057950405714454,-0.070777917028679319,0.10323666405902454,-0.0075239186767131379,-0.084156960216494991,0.0087119587724045558,-0.010097638546156563,-0.00047198267024964324,-0.049143482610110686,-0.051480963867146359,-0.0087059882565844113,-0.030072310841141557,-0.055106863667482887,-0.035319671452470044,0.0058027692571173198,0.038373100681991269,-0.14740708057098934,-0.064024093530271664,-0.10390381575656613,-0.0088269114399387553,-0.033780899108035223],[-0.12100759843654552,0.039904398025325007,-0.048645813251314216,-0.049931603070202737,0.05686794768600794,0.00062750827790601649,-0.034495883135641045,-0.065186685832198082,-0.076577826515294933,0.035626049009001536,0.01020506248349639,0.037976948368342679,0.092223297096274859,-0.10316864321742628,-0.13616398395739013,-0.070985522971068665,-0.046000759805032307,-0.03370508103973862,-0.12513358539721703,-0.091647504689218617,0.053315845040767633,0.035922862068184021],[-0.12258286173531063,0.019426401283911036,0.013116177765210631,0.0011914534398441284,-0.058193096112718209,-0.022235783440796963,-0.12144117262887325,-0.0763637337523487,-0.059338540434684631,-0.061667950087572504,-0.073219060522266982,-0.035276155593407424,-0.053629613751597777,-0.032555715451216112,-0.049388388040575715,0.072726465135532992,-0.066195725687932722,0.0033121540597131974,-0.053540869310603742,-0.045017841225984859,0.12848995147339867,-0.10048757591310045],[0.021502328640792295,-0.10623786742037886,-0.0044681111520801127,-0.048268099325083663,0.010079746335861443,-0.033007771997339751,0.016624601704522707,0.056859901752464366,-0.040428712355547611,0.095840104879479693,-0.023218837042367678,-0.038369492205503467,0.013479734179116555,-0.058342791372674965,-0.0095774088016180037,-0.066144082779653862,-0.030948932876781916,-0.094120674199590942,-0.071833480640766612,-0.030442966115766384,-0.010440261204190806,-0.033364108379375167],[-0.011003524890653323,-0.014702075118503848,-0.12596588979169471,-0.040158770339187806,-0.063855298390183696,-0.032178882903544613,-0.051304635002328201,-0.055567827651269719,0.074834593753232065,-0.0031304895297010332,-0.08915299936206296,-0.025156717169979539,-0.21303118714685898,-0.069399310381314458,0.063404105248578035,-0.037568177863595308,-0.18948985046261901,-0.080127264864115949,-0.02597907418916006,-0.10153678787398057,-0.1021265651106211,0.0064914528666414478],[-0.045211057367069665,0.041588168246461117,-0.033995110126855105,0.052892924633427631,0.015032887925254576,-0.054919885071759454,0.043993639897627827,-0.02992744964205574,-0.04352073802483427,0.12044102397109482,0.0050844933208838844,-0.069821670088080712,-0.026946372576924414,-0.14647158185061801,0.058959234009943649,-0.029936102931294912,0.0057759432302168234,-0.1434825531713875,-0.11441740957221608,0.031548764094008037,-0.13625546475732928,-0.052101366293329898],[0.047009570748520628,-0.088647993404371545,-0.14283967169146727,0.067455534582576637,-0.093484592879958847,-0.079975788540925768,0.045611445971371518,-0.03121246115540981,-0.041615155008386549,-0.038898627074857181,-0.03273898972723327,-0.0004337198092664446,-0.047717312619071868,0.084469397953410519,-0.0017032669765638733,-0.061388331920221882,0.0022676800192855812,0.1369365353069511,-0.069669033211199258,-0.035622990538693215,-0.052396284733474838,-0.037367848107500913],[0.039137466283306534,-0.21214183685082236,0.023847026496456328,-0.18753993749511857,0.025720538252091536,0.013993385323787473,-0.0015801267729513985,-0.0083436499973853322,-0.082618498608029722,-0.079564132811095784,-0.010948550365003938,-0.074186626121545002,-0.14917384932213854,0.028531947433717793,-0.18435577534410957,-0.10299064408900385,-0.082529967017814898,0.046507748185462404,0.021781939643452375,-0.072810022891172443,-0.12216775230728247,-0.0027016687507674768],[-0.12683489069983317,0.062023207593262762,0.1390024686516208,-0.049685260218121349,0.0013574564407587558,0.12771293765668637,-0.083793990224761361,-0.17733054380975866,-0.15319872521271569,-0.13999866556717805,-0.022735046601185568,-0.0042840975180979263,-0.12269714387934841,-0.054996207499994454,-0.053210116415136718,-0.024301317943472393,-0.0042081345958506385,0.012790410760971267,0.016454890401167994,0.03422184750935859,-0.070467812724783099,-0.025137836690129988],[0.0012127783912041293,-0.068536472665155806,0.011121654246982984,-0.045880374591888248,-0.042922729667215796,-0.10179813386063885,-0.097790553014948628,0.096405345033700268,0.024442114080116914,-0.14184968909691975,-0.16721403292657194,-0.07035951668041697,0.017537899717762054,0.0087904120534617602,-0.12015674503653001,-0.081685910550927721,-0.0018592656922568548,-0.099691634145200853,0.14236385475493343,0.0068890405586508052,-0.042261233165348334,0.030765810542102458],[-0.057638007061282644,-0.037407008864056714,-0.029476659261442984,-0.024719754003934634,0.0070737671670115521,0.056118521017612298,-0.059491659665114827,-0.090074285236783513,-0.035108655435847076,-0.18961318957324585,-0.0027728507552431184,-0.012068087984078484,-0.1271681047209387,-0.0047619709966764921,-0.051920424652476573,-0.085925382479997356,-0.074585635183970905,0.0037935337883501369,-0.051506720964903066,-0.046526048511896165,-0.005929949280597379,-0.058225843379618163],[0.013425690825484331,-0.032861219366330657,-0.0050187453902126936,-0.020659250235459663,0.040024317242812878,0.016358732148731688,-0.017589670550222525,-0.067689003045037943,-0.1228470377142982,-0.040318409380775418,0.0093061275784573419,0.0052201483370087481,-0.10313308219187506,-0.011090768689980785,-0.065489731751283975,-0.078764438122429919,-0.030315011936788414,-0.020816915796998011,-0.063217673016302128,-0.028599331754583217,-0.077219868373620548,0.0060673818267183086],[-0.12367178128772907,-0.13121565044357086,-0.070904619051006063,-0.12282926457675739,0.054820676699672645,-0.10564539079117249,-0.11133058819507727,-0.089919799464276778,-0.18202736144624329,0.13981724193725797,0.0045186080240283699,0.016847028701126525,-0.084546500398486268,0.010031709759661146,-0.085762388975031884,-0.018552111845205166,0.012448123547011261,-0.10097581272813227,-0.11247315551610215,-0.075132964231488047,-0.050211151776285184,-0.11609657060973438],[-0.0013466456162749899,-0.045105618297621233,0.018313842875500586,-0.08534661006678454,-0.049115579446027027,-0.097346373128701313,-0.050349346267909351,-0.13105822238995296,-0.020818725642371909,0.056714198668431935,-0.094983264246134014,0.022062341051794054,0.0072578203910030822,-0.11384366708449137,-0.099756053837446734,0.048750951424873491,-0.070671546834591037,-0.032505022782193409,-0.1068077087404547,-0.13011286977950906,0.10635805309474095,-0.019275536183444526],[-0.011445096709594094,0.058663736467127782,-0.095383987721570321,-0.0016302988557157019,-0.12495580255358141,-0.087584087832497645,0.0020856835336801882,-0.035351582581346956,-0.00017472004266823327,0.023809017782545835,-0.043608357094789579,-0.003070126574315938,-0.02425837846277382,0.018794374276783168,-0.069834154436291568,-0.045398843232641747,0.043487861977719942,0.052019308358524342,-0.099489169366797137,0.0049909889879360056,-0.12981654061671191,0.041797026678949946],[-0.037304878724743404,0.022817964655326109,-0.11901635940328328,0.038160489220922585,-0.023964106215311795,-0.056755998616397296,-0.028843885717939641,-0.11105893047832879,0.0029046473271245668,0.0093417417102527461,0.040904666197279275,-0.031717572842456812,-0.060514334129655081,-0.038508406089073632,0.11938262030443506,-0.098785333747373111,-0.025151424181692458,-0.080368430510992225,0.068646317581354727,0.024838865675641628,-0.070280449380474397,-0.059495798450327486],[-0.046043207749482631,0.076887741351402777,0.050458419551422128,-0.14402703019598967,0.0821312590734114,-0.015742115728236573,0.015645486772751779,-0.0073257371397549356,-0.016742461895954564,0.038327617183875638,-0.0016550677398700295,-0.016547978537416512,0.031744410909586067,-0.038171743689788047,0.030867862154276164,-0.005943309912127312,0.044785074520857192,0.029765664677431282,-0.016264734372631311,-0.0067300267636441827,-0.0073677946819261757,-0.021760080330823224],[-0.078545632595360987,-0.037617758890902443,-0.015990495339994703,-0.070593938711539433,-0.13749119240628463,-0.033167830749087884,0.013813158978090927,-0.035825214133178587,-0.14894630536806885,-0.13692589708759811,-0.096886770050757631,-0.1173350719596695,-0.024177996641834253,0.011334559311150662,-0.026975895640008428,-0.14200929410401486,0.063218444151180164,0.080003273383007917,0.092435993322977722,-0.085491254927391389,0.018465288985143963,-0.044213282109800356],[0.063853429474373502,-0.066322259980028983,-0.00013802406788770288,0.0040251681302192061,0.0073840111909546716,0.0091326122798082096,-0.048220891778577572,-0.074728840461491419,0.043233108411827682,-0.062998507984505403,0.013448128562018574,0.049975208327397429,-0.035711489442115378,-0.13322212536698191,-0.011490744411996143,0.01982915757029572,-0.031950115592027158,-0.12734950937252795,0.0022887743808216038,-0.051004219866942563,0.015403263536345919,-0.12272661184769987],[0.036470936639719391,-0.035120115308880782,-0.023052233780730912,-0.13219982669858243,-0.081877813087367635,-0.063945379609125774,-0.021108077898517805,0.07584426267503766,-0.0043716331476228963,-0.14451396309012543,-0.18939919940772179,0.075136814717593065,-0.073720477066537504,0.023366941791756544,-0.078035530008297993,-0.072969890931135289,-0.097092305626766046,-0.12951648253832357,-0.034589281572135137,-0.015499824470435523,-0.083042285645294311,0.027802322975066539],[-0.018051371658424013,0.062478592856140526,-0.030972246444897801,-0.07972146185461837,-0.081451367464268204,-0.080375803150530889,0.015553708567524714,0.019039938704019078,-0.0038250783861558148,-0.058643621800012341,-0.062947852314886157,-0.027198576528440335,-0.087966755047867232,-0.05598065985951188,-0.14821938531840784,-0.079758563926049242,-0.13725176613112125,-0.027293950771816296,-0.072975926128603708,-0.10843292412770009,0.0096264042835611102,-0.043072793723157241],[-0.12116298720491039,0.043262450764062051,-0.087191551549454585,-0.039887097728835814,0.01037526976593553,-0.12867256770794902,-0.028442103611774856,-0.028574427088191502,0.093367932148576305,-0.093099386639204515,-0.049332432284442881,0.11746283535391377,-0.060956301855537701,0.041179610909632174,-0.064845935392273873,0.04978543731138204,-0.059363565340865926,-0.13364913677486748,-0.14475843676931865,-0.016850111702863886,0.0075411166779412869,-0.12482516981873704],[-0.0057842356544088452,0.004536148656264373,-0.026983557755050812,0.03729682783898209,-0.0034300543111177931,-0.14155898796501676,-0.077289015464660771,-0.083250778346602744,-0.017631348061593662,0.016433005800198977,-0.085122667337678315,-0.11524004212293354,-0.058989027880990821,0.058328521492252934,-0.15705937254876304,0.0020653697382262137,-0.12883919621480849,0.0071708744173556854,-0.044325845019349712,-0.010933843636427892,-0.063044626121225411,-0.088363330570011334],[0.052598593639741724,-0.012710947237973065,-0.15126182297870913,-0.060318709143808449,-0.15702899023138858,-0.056331718137314718,-0.09368095545157723,0.0072540682283126628,-0.042833556353586807,-0.068551197451403173,-0.0067721671733638779,-0.021935010659353556,-0.026367177322620519,-0.027298809726301283,-0.10720670912774979,-0.10583352580843672,-0.066877824155888999,-0.0036422743668124771,-0.073550057769683458,-0.030491585203049093,-0.079632341179251817,-0.1694299077304286],[-0.037144119072619941,0.051268583288628218,-0.018034958001212041,0.066457937637615899,-0.084021203779547596,0.024123160122363443,-0.069812392575134358,-0.021789537459720145,-0.036517322865809859,0.07557323780437511,-0.06087150567732847,-0.057166339709852868,-0.0075989875241192287,0.025680617340188915,0.00065109919291142515,-0.14655879450512135,-0.10684888040231416,-0.047069580190559041,-0.11056824719253416,-0.04426370700524903,0.035698406696328268,0.02361050589534678],[0.032939640561464013,0.0023508264583445848,0.01631362032402791,-0.0057487186302622,-0.015834545240671315,-0.119031861968102,-0.22752468205544438,-0.07888495813698175,-0.082000411459409228,0.082303483798110616,-0.15809143439102358,-0.036282604407392213,-0.14292172521785915,-0.096932070124573472,-0.025694870742709187,0.041491237144651964,0.0042652167369771898,-0.0063781584409922619,-0.048795367881946008,-0.14840284437392054,-0.10991511028533546,-0.042622686678384876],[-0.059625145898799255,-0.16779741068586118,-0.13339935794572705,0.038995283840590304,-0.024237918965263679,-0.015796329825248805,0.0088707314635525225,-0.046784080668778268,-0.030940247330258092,-0.090202720191765645,-0.10547004802306179,-0.0091490118167465162,-0.10011804823971679,-0.10097808557826882,-0.15056321868768316,-0.015548121584681954,-0.023896120977597274,0.045289906098078959,0.051755156226124414,-0.1644447677412465,-0.054925743090422779,-0.0090972487773144754],[-0.14911797346357486,-0.032759306958595448,-0.091714085980628343,0.091819636609542926,-0.034843033966444892,0.074653859808042899,-0.019179719696515309,-0.11759334351520798,-0.10372805023407272,-0.075667745004698972,0.043538467309736741,0.048758638463791019,-0.15627899355650995,0.060394146618266413,0.012434394463619873,0.086293981717854684,0.060649315738212591,0.023081146955521326,0.008887388190826899,-0.16733636663074328,-0.017067542712852515,0.068478147960784996],[-0.034803974874080199,-0.076143252732735839,0.0734263231397424,-0.081036690726366406,0.086915991614874649,-0.027710821926083495,-0.0018751601017693229,0.0020443729908300387,-0.048841508118208789,0.071410290859525188,-0.0024277306097247701,0.025562659104384898,-0.011305416630721873,-0.016757407440494126,-0.12179808722097629,-0.12148225344152908,0.0011568475940633358,-0.066723506512453346,-0.060217900520597112,-0.014702076227265791,-0.10866405743204996,0.06342748990933747],[-0.14177570955996083,0.095234054130984097,-0.04214403384108479,0.079706572719224406,-0.057253730746143094,-0.038091005432536483,0.018778389434165835,-0.018159834851441306,-0.010891026941540021,0.061333051368119264,-0.023706483639825117,0.053238933120611599,-0.025062223171244003,-0.019551667206155275,-0.04795814170862351,-0.0050952035594598669,0.010389330768383123,-0.051327774480823707,0.053979155138253694,-0.086623873131584497,-0.1160939493513003,0.021100836051098117],[0.011367241931499156,-0.07818950395391383,0.069318593234354881,-0.046096085584853008,-0.047025369203319081,-0.14545714398185344,-0.0091305278423077403,-0.12536719310471967,-0.053563949452943113,-0.017054917802192208,-0.11949226540829364,-0.050132711249914974,-0.10736923318235211,0.047450245804099338,-0.039532726646831169,-0.029967974749599245,-0.094132129821241139,-0.12338799380011628,-0.13201003952652865,-0.040238251266049144,0.11043085730066562,0.00840860256343752],[0.062972423970104746,-0.082154019448587051,0.030265348366130089,-0.037172077665984529,-0.089170901214042586,-0.0089902468709822797,-0.17112001194384163,0.0074046632319202874,-0.050047933700768682,-0.013273723512746107,0.023855138743177122,0.015039807135937409,-0.073025298269286193,-0.13057236128576366,0.018830145560693935,0.046100427857075861,0.064901333282321283,-0.097396782722522807,-0.085663283614966002,0.085849602288051524,-0.13131963999533297,-0.034007901433369694],[-0.16028110419492658,0.052368470635468324,-0.043938980867517304,-0.17368283694701167,0.0238340690252399,0.01632854486458557,-0.0580423361944198,-0.030909553034408552,0.0087667586254406085,-0.028256735103583498,-0.014824425304075031,-0.14846916489229373,-0.12027182705695824,-0.10651058269486566,-0.11933355080773728,-0.0069950624177713347,0.0054682928206120501,-0.15750912240307779,-0.0033301276082750714,-0.085381422786085237,-0.18919624784427566,-0.10104615068191131],[0.095662986820490237,-0.01345613371687461,0.0048087712681361555,-0.092104633009822939,-0.020654526684776173,0.089838092711966688,-0.14189401137142879,-0.022790700426000503,-0.032260591450261306,-0.067153248379204819,-0.13207284666781627,-0.066160884413417331,-0.0432680315089524,-0.027050829922827261,0.018375672852912243,0.035578051839225973,-0.015431997250918185,-0.022657508179369675,-0.055382459961880307,0.053390132545071488,-0.17226561088857012,-0.062751313962721378],[-0.035860629068934988,0.027556689527012887,-0.00032502724092664526,0.00152130907011859,0.014997462615751314,-0.010076338768495726,-0.054526219372277154,-0.015493943950292931,-0.010320877030803751,-0.0058589474125980076,-0.11655717174368574,-0.055183269585338611,-0.056226686802939747,-0.026781296073870781,-0.081425276924352336,-0.036926101785784073,-0.19642951445722184,0.011343288459556983,-0.018050432057741629,0.083093772241724428,0.098271626366562559,0.04751375961642338],[0.068425506815520426,-0.18470750271889458,-0.032178675331466594,-0.1007982886300258,-0.15796588467402256,-0.018514915119479683,-0.053644674805287909,-0.088421531458830582,-0.059793295713877079,0.010819331445098564,0.085529916347174495,-0.066985022332598704,-0.039903101036761777,-0.039733210010045372,-0.094199882884508396,0.0093893615992121371,-0.11902026248324574,-0.13683523176099924,0.025878623542277567,-0.18107249096845462,0.057325550728303469,-0.0070009832632110559],[0.035063047648097416,0.0054432239680545363,0.014219484567382333,-0.039910244773210569,-0.14281998290750111,-0.074388069706406629,0.038962821539585697,0.03569911757019769,0.053538099880907901,-0.01040785616927142,0.033323416923424616,-0.032381749845098555,-0.057624940501844607,-0.06265354611973524,-0.10843349959620055,-0.070420264533783736,-0.068559542589195846,-0.023729158272719712,-0.081895412741003704,-0.10531634339250423,0.036154808436017781,-0.059661299188389916],[-0.08416020402738339,0.005793907520057498,-0.10174640825948128,-0.028648811660703002,-0.096296613576288936,-0.075267308680812009,0.0038843795336808637,-0.01684775869165343,-0.0066439632927942222,-0.062633678283663771,-0.088444928964188055,0.056976895259013983,0.037530391315687979,-0.10772767274011183,-0.078863733676156289,-0.16467651493744428,-0.038749629261100912,-0.084356028128808727,-0.13110163662402238,-0.085725304117613643,0.033774356514999986,0.047137730795877693],[-0.0075260162785249496,-0.19283793962197879,-0.024098601517997312,-0.20574717512915547,-0.094816923160989164,-0.00024424870815129701,0.07305862185689227,0.063683622924247285,-0.12438637820949439,-0.044271552967243194,0.07181644201597065,-0.067661303983353294,0.016425879916025683,-0.035020916534285469,0.064749794215348044,-0.090851005710217453,-0.066190500949957098,-0.013631689327474373,0.022048395187302311,0.063097617682254109,-0.012634494464871599,-0.069060371879745064],[-0.01768975641891565,0.01295720468718909,0.025570310216172884,0.030369860133948677,0.098399998814240552,-0.012715068440510905,-0.0082290087304645633,-0.10579746797034345,0.069676972213552762,-0.0052514962769873337,-0.066486828961537348,-0.020573100604985295,-0.053620433528096284,0.020436116805432294,0.11758348613068312,0.012367303173925467,0.067491626522054177,-0.021082300587657546,-0.053606040377808389,0.015023059814478962,0.049563120103787071,-0.067769341651173362],[-0.049331062008653566,-0.1972713612262795,0.038390150835679766,0.025011104071155456,-0.095628441582865154,0.10887830897536782,-0.026492259471665648,-0.0031923688207586599,-0.04564114564375811,-0.076327770017820262,-0.022516916516333647,0.044897460440982577,0.069059515465459465,-0.14190342336083378,0.078540085890149408,-0.074902020898211394,-0.053556461552889345,-0.076556340150995189,-0.15162755120173582,-0.068019967100951567,-0.20922478219957361,0.0077037322849004969],[-0.064617851279995822,-0.0043092313329521001,-0.046840230700279435,0.040446918363706306,-0.066472061264122195,-0.13772249728364624,-0.053512144657360552,0.062145097058747316,-0.13222431974418472,-0.12005532490352397,0.024488450930639082,-0.013979524927449367,-0.034349901861248228,-0.10698669774366676,-0.046079269547925669,-0.10188376708038255,-0.031838983093941696,0.042669711158573674,-0.053577631386666283,-0.037865949223324126,-0.0048296397870481976,-0.010583608422800709],[0.031774790808307841,-0.042242025307051109,-0.013197408983412668,0.024061723526130778,0.081933311649039609,-0.14402573257003382,-0.14517630523770078,0.093664926105722329,-0.074362853013952457,-0.018052487456299733,-0.077727922073954903,-0.078014618475994321,-0.10569426157667652,-0.054072409067610239,-0.011065698601398912,-0.074879342020808204,-0.044333403538951169,-0.157289930669229,-0.03088522023831955,0.020174828048463586,-0.11721048170136864,-0.079480642708258747],[0.051146863012474848,0.060627022946984514,-0.074447737465065,0.011489092212197564,-0.12464965608672215,-0.09082257075756367,-0.1390819059313724,0.093525642443841372,-0.043251817903779258,-0.12615623654058361,-0.10091827689779556,-0.044214927109602759,-0.094729145316547775,0.013201649003143336,0.05672544363116281,-0.023135773161860031,-0.15676237884697436,-0.10833900216206907,0.066800234870713848,-0.10450896707719368,0.033098717566752471,-0.16841564419300292],[-0.0077868257997118426,-0.02658489149455984,-0.056207791896392918,-0.053385817930903939,-0.24346235011079304,-0.079094142388223376,-0.010960279416745548,0.048358773833830741,-0.042475193232920649,0.026655335714119134,-0.12514380513712925,-0.057613355917252376,0.045991863958984212,0.030915158087146587,-0.15682460851962077,0.013538813657690801,-0.073342356897385705,-0.18407094444428077,-0.054294725338914301,-0.043343387760742709,-0.10719831933964183,-0.018173191249389778],[-0.10419184987388269,-0.15721214895565316,-0.15763943835606045,-0.094651288468596065,-0.020067790413329876,-0.11267513692055528,-0.16850885658576351,0.0040680678682812887,-0.06493198365181474,-0.2086139089750807,0.071480172782659723,-0.06093533076276271,-0.053657570189568876,0.01790598569604842,-0.13196327762932653,-0.12569169946575626,-0.14138031925977532,-0.014838955460579291,-0.078042929610179917,-0.054074006955752499,-5.6182708212226817e-05,0.051168998104291395],[-0.051809100659022556,-0.01902314435342118,0.0071578948765271891,0.023897095428769659,-0.13734529995370964,0.047799415206717967,0.0073669766363562358,-0.038606010126203641,-0.011636849252100252,0.0080920535853879066,-0.10212357997435481,-0.090148474984527896,-0.083056531518663518,-0.031794900352834325,0.0351293666969563,0.013763355568729013,-0.064195612168633343,0.048639936474564681,-0.012551766118636204,0.078237118657736082,-0.10921188083743583,-0.045020818958659045],[-0.0080650560609109093,-0.19569429782572678,-0.035629910928910796,-0.11252521657697231,-0.13921049361115287,-0.064885662286928603,0.010015590776401136,-0.02060418298389402,-0.010033375222257442,-0.017596877505366419,-0.016836310635382708,-0.076183493317225182,-0.099916239516537136,0.078922074421023003,0.093010342705969751,-0.0033857526119263834,-0.036255049961074259,0.041216692325242575,0.049338118049437212,-0.059445438886374186,-0.032247461727657842,-0.078162335471439956],[-0.068311802280505915,0.040607276010308661,0.057165610071864124,-0.062944525022499032,-0.061507821826172045,-0.20247891058390458,-0.034893471212063501,0.035314873421239977,-0.047797077475400164,-0.042056721754827428,-0.16882748173938905,-0.13938445782572326,-0.089012387442427537,0.00016779203536897852,-0.027424547002229294,0.044159904162786694,0.042353326433737952,-0.05134373857910788,0.11119535118797444,0.060928852174382257,-0.096476075757294943,-0.10929313070861685],[0.019960866878261124,0.03639325706294811,-0.12741587659525969,-0.091762842384169985,-0.072774620050630207,-0.0013749635377507327,0.069610594726570468,-0.013609147313456138,-0.14537172955539879,-0.12481360074413134,0.05979459378126676,-0.13371875848134418,-0.13583467696230658,-0.11468695392160502,0.11911955233487889,-0.037233238465760529,-0.16691207555711191,-0.070647160156644434,0.083504908732495164,0.001817349714354495,-0.090512936057857707,0.16267432752493596],[0.039688423728366264,-0.1888109401992808,0.045466217438873628,-0.066566484692599778,-0.17739416723271093,0.072375396944133558,-0.11928550791595194,-0.04328664282644,-0.068578601884653478,-0.13445668483813783,0.0049903275551707871,-0.092241769011983138,-0.02422567578865506,-0.12987358847844974,0.0061995462726368439,-0.0084620553663244322,-0.17438272385942616,-0.11613717987893465,-0.074488486531085252,-0.069819078833287002,-0.069869814948249592,-0.066379654894050483],[-0.057815179617680582,-0.093690848313231628,-0.096908954611456127,-0.10206349147239291,-0.027699601343336717,-0.085756904370160675,0.05266347484986638,-0.17734008896610431,-0.21763645379582805,0.052915571672196994,-0.17692937975060374,-0.071809292776792544,-0.071568380570692133,-0.11331568443833095,-0.029465654316757739,0.0053316235640604032,-0.098404565294461926,-0.069752509763126455,-0.13275748869143497,-0.16903750322464073,-0.049337797597583583,0.11223039873170018],[0.039933724998540206,-0.13517957710371581,-0.10382552204521883,-0.080955271099309528,-0.0043222785453485534,-0.069562774421084161,-0.052225811505863133,0.012526229256393892,-0.077995202254750734,-0.065712583484894255,-0.034207381895585511,0.096142370406322869,-0.0049219799433256536,-0.03975563236757762,-0.038101582431995691,-0.049417521923466268,0.0085193016814942013,-0.057423531791811186,-0.12220820564499851,-0.053159072537252029,-0.023902056794479883,-0.066470962015046736],[-0.070604814604221786,-0.075943929795839665,-0.15517106449595361,0.12987108737142022,0.016224670252816084,-0.1910659646963023,-0.022389445500322028,0.08287206054556745,0.013095683196151987,-0.053778517839573298,0.0042993279823423519,-0.0082613376551705503,-0.091732961787998973,-0.051649493899486615,-0.074943444605033466,-0.047026770332856141,-0.052473115935973806,0.065170848166204581,-0.061921040841148786,-0.05439619282798315,0.0475206758772539,-0.044553088967368301],[0.0034640909053743549,-0.036343380083368487,-0.016836976088162557,-0.036172213732168161,0.044306772024876394,-0.048443772905203616,-0.074028778422614933,-0.053275333949200934,0.077599320646432796,0.080773262441240501,-0.12881036941886181,-0.022967664468782012,-0.0091678300727708883,-0.090102039341057871,-0.061518032747514842,-0.11075598895284983,-0.030192760336069355,-0.059842081062720279,-0.086819776650248676,-0.02217533050523738,-0.014589464461948094,-0.09974840673570104],[-0.062380019597836733,-0.020450194245174302,0.014626175582830941,-0.067201326467770273,-0.0056707155728151735,-0.069830942978798646,-0.027744102934335321,-0.13509745273250492,0.011359029029305995,-0.026853032827070796,-0.030283757812394778,-0.075790383053359806,0.021428286971240398,-0.077952737200961048,-0.02550586429584123,0.019464237361195888,-0.10487937451241758,-0.052668905986075612,-0.030356507638582088,-0.058454017651634507,-0.087031982175459349,-0.10032468271847036],[-0.031987433756202097,-0.037423690833717042,-0.070115035734057696,-0.026015809221502977,-0.1056171762103976,-0.032098953338724374,0.0078950351094231666,-0.0078947583857488235,-0.039139962677608067,0.0030466392037723083,-0.032825459530766023,-0.012341056971308269,-0.062518634181439769,0.038110884808478566,-0.058537996303380677,-0.032633347494888505,-0.074459459255590846,0.016764662117484404,0.014173651935967993,-0.072794921241193022,-0.013360576422976653,0.022671044939284297],[0.027986801204962101,-0.037128057715510115,-0.023343698888085341,-0.10156174810039506,-0.05449438503889751,0.092152187008214315,-0.22274323963755172,0.084498625191701232,-0.14451883904674012,0.013882390789064308,0.11064247124821208,0.054575394903498518,-0.050182603304803744,-0.15857206625040557,-0.037762608177472359,0.030443228412234978,-0.066967668573945455,-0.064034092678555199,-0.10895695323863047,-0.0083873846011344906,0.0084386046871178372,-0.053831312611377927],[0.065635273204820765,-0.12570813325695235,0.029396250669770883,-0.065417064452070822,-0.055977216942919489,0.018935390224763315,-0.040635587169671493,-0.12123100732161041,0.050316733859625408,-0.067210274463465586,0.027501292496302933,-0.0047690722678582383,-0.055038409127186966,0.0020731831622549032,-0.17207614496470491,-0.14821002776994513,-0.10916788145196182,-0.0082342226416623893,0.0048028005825933168,-0.053489918216723165,-0.083158212698666995,-0.14204511770708672],[-0.15463835281317148,-0.044719932265200144,-0.094592406842655685,-0.0086802614913015497,-0.11492136438009468,-0.010733467543172719,-0.070984544767471541,0.0015620948864190701,0.11368010471756787,-0.11367712843855121,-0.0220539168541364,0.012819454806047008,-0.11937391242504716,0.07741375806411907,-0.059440807314831347,0.055331504601486427,-0.16485735853683325,-0.080002238063313413,-0.049055407938310654,-0.079371455174839955,-0.039907828152756362,-0.032615520243508264],[-0.044872885545487101,-0.074252926627527499,0.068357966012603633,-0.029639228243949524,-0.081910614613842025,-0.060756791432310178,0.073062722671327296,0.0063671049367170288,0.052756393359135449,-0.15121536657961987,-0.055039605334732476,-0.16826890706772821,0.028262264194303846,-0.0024072821885387369,-0.052115026715189278,-0.017115604724163049,-0.10512981281041206,0.038244214261247349,0.010325861623491181,-0.0077799280218884964,-0.051656823083745584,0.04360217025617525],[0.041087433286410867,-0.10848684000869152,-0.096061235843818232,-0.1292262660279723,0.067737383483339381,0.025603682359663697,-0.019891020044906026,-0.13974656973536859,0.051833775517338344,-0.021916408982397519,-0.096786699180583691,-0.0073593705510179783,-0.032896619707094475,-0.29796276209911615,-0.10356843728714643,0.002904751055527087,-0.048619396675070752,-0.0054118032181961415,-0.18893137696219428,0.037285396314597354,-0.089903850984665482,-0.083801698027411747],[-0.11383704582712686,-0.11402387294381816,-0.091554362412415408,-0.070069082271352931,0.17188689924074355,-0.072619807225331734,-0.14075994090949762,0.039535677629967188,-0.037833119386528564,-0.07981747971698111,0.021052187953142239,-0.11526491867103184,0.0020920693225022283,-0.093308324357108827,0.0026920857792176248,0.0076135621430774916,-0.029417964927501029,0.047804108000136077,-0.0066641350567925271,-0.034330177072488803,-0.0072784976787657191,0.025905586575386406],[-0.11898736633372214,-0.042847132827465807,-0.098387268612493084,-0.044011632357548292,-0.066778799239708975,-0.18931994224198115,-0.12601589965338464,-0.057200089025727333,0.054083511716381448,-0.016040504963843134,0.025078970879632949,0.0044567390872504303,-0.018962591515135289,-0.088852976915918758,0.07814670141551941,-0.092497827141160616,-0.070850301083108538,0.0013151090843003324,0.0038130647823151412,0.027990655412067245,-0.12738326435081415,-0.096166528468538903],[-0.1522955218212835,-0.16047232527287292,-0.11230434649589821,-0.07787239643798495,-0.018716948191509711,0.028812661312305692,-0.068694543195945035,-0.11297281536413642,0.020867209258026924,-0.027341607689262321,-0.011504570424640499,0.1299668789212835,-0.091421813987049946,0.026455246013014168,-0.023452592862876112,-0.11100306432347937,-0.076063682656964282,-0.035729159309215421,-0.068573411345588364,0.055408205895433653,0.033440129435892703,-0.026867161900337406],[-0.13261336922137754,-0.032587732513888079,-0.09343540163227218,-0.062972455348890677,0.033917246647638545,0.046871987333328292,-0.086220507127255916,-0.059963186652772268,0.030862183145417769,-0.034318392165292616,0.052215007321051519,-0.0038771107949713349,-0.028390527626755147,0.076700622670750507,-0.029674389386001247,0.13594422940122636,-0.080357023874645592,-0.052672532256296652,-0.079106537818380146,-0.084321623237150423,-0.013017896776291959,0.036437503735182557],[-0.06809839090645789,-0.033520273027449393,-0.077913343121683881,-0.0045908315860687526,-0.047477350867130071,0.088782133960709192,-0.18412270222951366,-0.027303892305100122,0.026041668064269094,-0.057285502667133392,-0.046604143125249402,-0.04485138965541003,-0.11575616869615729,0.075685861600892412,-0.0024361758802756463,-0.23480121231177906,-0.09447858865387665,-0.013744828928691336,-0.094188686554743384,0.007295525548752152,-0.0090501780741186998,-0.0077124561239921459],[0.035611557473147683,0.0068892042473175583,-0.050017897915344681,-0.10948258220410811,0.0080622517775050737,0.0093560385150830913,-0.089652155341182108,-0.035626541300767658,0.0018950194508208576,-0.084261412820928319,-0.11646646276438952,-0.028731014866175245,0.06543627255779999,0.018569062930872973,-0.13874345611487549,-0.19542126706079191,0.0056567972860643717,-0.082609886716010605,0.037832066597574855,0.00016260409391340158,0.077154723997023611,0.0017886937033002176],[-0.12524810085806692,-0.12759426439266075,0.034224733303900863,-0.035007187776997489,-0.12646183545206391,-0.11077711835195703,-0.0093315198344382858,-0.066105547131634954,-0.067608026022895548,-0.085565250013273475,-0.0086574561878345335,0.019056042399935129,-0.069168272748280205,-0.0020858908608171398,-0.11056267994172495,-0.020123395463691782,0.12451277748387127,-0.065900035258206036,-0.047761447588143172,-0.068524909527666489,-0.1617718360460467,-0.055836427746309647],[-0.05478223453647834,-0.1186171940303487,-0.058505012053323632,-0.053425316594036806,-0.11189581457586625,-0.0029517359318658905,0.050983863416744234,-0.11026476040148547,-0.040693216814276394,-0.053545883849357739,0.063577810333535489,-0.074186455156311587,0.018272314079103617,-0.035101659432457057,-0.06625131056819536,-0.11383544831114478,-0.026894254725627075,-0.19884119338316159,0.053679694978194102,-0.045369678256989218,-0.038858719005305964,-0.058053796190657675],[0.015670710275169773,0.061256265206098247,-0.03678676345906607,-0.026114870935109915,-0.01032278552441248,-0.15378077697211234,-0.051370790285775944,-0.1476519025150492,-0.046554856049679398,-0.14900296133626451,0.065044482748856186,-0.11080354390809297,-0.025118158069471333,-0.13650304657824058,0.024679818963985904,0.056603952280823704,-0.094499759698496583,-0.038316098241353867,-0.042231203119571584,0.0075792007175184764,-0.10078610397338519,-0.14783708969332446],[-0.11110068040569374,0.043863369105074608,-0.0094469529572103229,-0.029320740068312232,0.097975547339497038,-0.00067584099428771166,0.03669621213007241,-0.062548167129868104,-0.10999087858768553,-0.1018166511101205,-0.049147390785398107,0.065287783397637189,-0.023061879524427099,-0.025210345459845414,0.038004441100953683,-0.14023737431324329,-0.078579214094915362,-0.081376880908205329,-0.11876469733183609,-0.092803939800028018,-0.10888094553071184,-0.02878635055838711],[0.002906904643733596,0.040059977484823504,0.014196711613927958,-0.034770788639476045,-0.032789008177074093,-0.044379983574795528,-0.051612264415982191,0.0053800984961568168,-0.02646661921644506,-0.076551560100784927,0.10289749709994286,-0.083578504517880778,-0.082887350220965494,0.10442253948432415,-0.035630337401189281,-0.080564184654642573,-0.028527505215844642,-0.077252449428051331,0.059362934151972309,-0.061690628671447652,-0.023754480999275261,0.013095075824751022],[-0.013173346490570274,-0.032365831803685567,-0.06213562421708025,0.018982956899386137,0.007536561189003893,0.013522323391183755,-0.15691897932576412,0.0039120033527808087,-0.11371044121863913,0.022744181666944953,0.0027080939383832409,0.0088913015645685281,-0.020530954652494909,-0.081590005469852289,0.0058346125414324435,-0.071128397184822917,-0.11427493037034955,-0.015824820117834426,-0.032096668724953432,-0.067983548270145938,0.12260844477466912,-0.011674806224897472],[0.052902474655513405,-0.09652742969375594,-0.017251261754351363,-0.081867544029057548,-0.082005500791358071,-0.09121709919893288,-0.060071298711482229,0.041062671003039085,-0.028394174604097669,-0.095409091251421954,-0.083991222936784071,-0.11250929528094508,-0.0014142350600916467,0.012899400290733637,-0.0072299497122616657,-0.093076399659679024,-0.055510757142814102,-0.045992623730748736,-0.036466430582928186,0.1142012770346218,-0.10505152023599482,0.038484120659527575],[-0.044490017114926596,-0.1518792745015122,-0.049408036190362936,0.028782361267677824,-0.12177851974791043,-0.036556292894698417,0.05562138166174526,-0.06591185011729625,-0.050171608394448446,-0.013411973471601134,-0.07588310809047269,0.053512058501795738,-0.1206321118178996,-0.055406156709190663,-0.17364916863884289,0.025240574011528322,0.078821565662279658,-0.10896013852215078,-0.092563313354173921,0.071732408160332078,-0.21151824342421136,-0.13574638884983511],[-0.10143416472613212,-0.064927695485870629,-0.059971548506566913,-0.16222746228275028,-0.058022585763621889,-0.048131356955446188,-0.0391492066833364,-0.0050701795761959427,-0.080216714904055714,-0.010673438506284424,-0.11531920895677053,0.073154029861424746,-0.17605768022790261,0.087790458192854887,-0.041246305331364419,-0.10528955894843453,-0.041116468373842086,-0.066645958421750584,0.032649618138123997,-0.066247306479291904,-0.052957745763138532,-0.071681617603088277],[-0.041936119216090986,-0.054539676178201602,-0.12763411894926471,-0.0010891111892161812,-0.037472410562828046,0.0025694903466620053,-0.0012626348433562584,0.003159158579799981,-0.036660734969762986,-0.0049180704247338697,0.11533098695432642,-0.11966633312736075,0.09943521049964793,-0.14669580547248062,0.060788226631996851,0.17451148600095162,-0.083108620322180471,0.079006306933676995,-0.041890808768397153,-0.011625951689595404,-0.073282067466917428,-0.054019860757021976],[0.030327567548118849,-0.10295409422928162,-0.070769237131197968,0.017340889888161209,-0.077872720680737292,-0.086465758756946176,-0.068324052542784841,0.069408718377141437,-0.019034393135892804,-0.11829100260914027,-0.034875732732916484,-0.12890796928712514,0.0040013626041043374,0.037814257640772016,-0.032200130424027355,-0.078925563429636608,-0.091307212894693263,0.072275132802917641,-0.1723059496515856,-0.14399282023348295,-0.1767643090538564,0.0099733629558562548],[-0.16568620515042778,-0.032109298901681745,0.015292080684387498,-0.1220449801549526,-0.14850955776483998,-0.040532553043660415,-0.018494417939138919,-0.068504873333687766,-0.06926947856063545,-0.019541393948997406,-0.031128599957040311,-0.017698698746016352,0.081595280242026391,-0.058170285441313099,0.045864885289962208,-0.12245939618206089,0.044368081534704763,-0.0017619626249119474,-0.052145439422593823,0.015458661656353928,-0.058114825319325658,-0.070966100425605361],[-0.057717210755767037,-0.012298986063408682,-0.093140119636429597,-0.00026785857375754424,0.01474790563945199,-0.084717671610211931,-0.031926776905832024,-0.12702620970083192,-0.0076440396351788835,-0.031641001823405082,-0.10684483545013784,0.011176711088349361,0.0071532841937309785,-0.042169010414854061,0.020521612129872149,0.077562481296264474,-0.017141476456890358,0.049642607538321108,-0.00065391980694180091,-0.059311619673438849,-0.0049172130333496947,-0.10497202582841986],[0.022094833746466952,-0.1770637609890722,0.07686261464981281,-0.096624565567443865,0.06199765231336956,0.00059412973274040187,0.13487337645048664,-0.058188255949751869,0.059131621361849733,0.040350784818913112,-0.13219663345275071,-0.022835874334761776,-0.10203130442454864,-0.065341239870092355,-0.088273246045482617,0.1807897379545787,0.020621268482362232,0.047547600888322501,-0.025761320892803183,-0.074279284073777596,0.099985058527765375,0.020255304541729961],[-0.048447164949155255,0.040559091380700456,0.036540859073724237,-0.016157395864052564,-0.06626809336691003,0.10735702135972935,-0.090207285142433841,-0.049660012114757332,-0.050878347393528006,0.0093736220049865301,-0.05160161438180802,-0.035557592035270834,-0.11363281371527301,-0.09883672306329791,0.03517001642206357,-0.088917823458853518,0.018094509133416078,0.051766381093005708,-0.1298890647414169,-0.063342432635447088,0.1299751138301069,-0.065588833393822807],[-0.026349894060361385,0.12354691305876905,0.068305008560676894,-0.043060137920705406,0.092577200426902123,-0.098850443901352197,-0.01759185616557455,-0.027408955304406825,-0.12484597586634136,0.011968821544075268,-0.069045371630463037,-0.02380396268975106,-0.051349335034740477,0.061056411925080552,-0.0098517811139403264,-0.09615706068909502,-0.090920929187829042,-0.10127109027007483,-0.045099712764563739,-0.046724588408045636,-0.13489412956153982,-0.063781705158894336],[-0.0087702950691183994,0.031093502230871518,-0.11298025624651434,-0.016483545891426025,-0.008504745787800267,-0.026710195072963332,-0.026786087842383045,-0.028272026802421704,-0.14165908319985074,-0.073236619031710554,0.11334933142750478,-0.068133681529746082,-0.033687442876319619,-0.077978912376820128,-0.068058648021258855,-0.045377621093704336,-0.072477930639910648,-0.0074351745329732134,-0.039865127194731148,-0.018285318768152307,0.018389320383359178,0.065893497268220302],[-0.15507082406102465,0.025628849463121835,0.047801375032058384,-0.035523762033851318,0.0056480669076595866,0.037324910179972338,-0.03984305659689566,0.010503323093445087,-0.051648391858620094,-0.039473874435270617,-0.085784424988256891,-0.16546706869998826,0.05911849301097153,-0.013015123714747525,-0.00938469505327073,0.0067352789032307653,0.026196003354760786,-0.0043762981734023453,-0.015131014979853859,-0.03033675451247787,-0.14709872036222604,-0.081509491393512157],[-0.0040428239948606323,-0.048995119493652747,-0.1092317135742614,-0.023215716903520305,0.14226499589459787,-0.056761327468806029,-0.060870638361989478,0.074655755147294528,0.067089987445611315,0.03560502459469269,-0.13038417097447061,0.03101513141985416,-0.07814654309637907,-0.080291627392246961,-0.13787745457269243,-0.012276428294094886,-0.1028757082186641,0.002863752784454561,-0.014327248568199336,0.086520447260026417,-0.041065779968441546,0.054276103697358642],[-0.038765984568455092,-0.030398174555089644,-0.11110146020104394,-0.063102707477352832,-0.046397619362807237,0.06572866207543146,0.057904936108776346,-0.072650428842936793,-0.085151727322706872,0.0059601330599121441,-0.050742741378198147,-0.066796094792071853,0.022078269996811783,-0.099077287480594967,-0.018232887455438992,-0.01680169792072609,0.026667031809743648,-0.15317474854676283,0.054755276812182459,0.019052256166988336,0.0033779372305016431,-0.030114003210679145],[-0.054060194712941503,-0.064703454200383245,-0.045794782779923368,-0.071777367611485593,-0.11992126800467032,0.043217848307184219,0.025397297368344098,-0.12574914813218119,0.010794744714990791,0.059712805004440268,-0.050647546325573833,0.071343645936069344,0.047919277219519586,-0.03575840375622423,-0.0081968290761475181,0.0039639959752926085,-0.095437006753274073,0.0071471269796091821,-0.0050892505302192019,-0.067842544037904434,-0.027656923491105028,0.06337789751271547],[-0.050072994640940539,0.043150712851524407,-0.022025846709806729,-0.054646868246913408,-0.025124106744881591,-0.11165027310679287,-0.1307073118564841,0.0090729876538090393,-0.046354749907729267,-0.055783683530655173,0.001322935748106463,-0.048384443853100798,-0.044323080941389092,-0.054528503180386774,-0.061171082133071646,0.0295489471096737,-0.00022465508042485843,0.069122320867398529,0.0147458109509385,-0.075383367135929275,0.040860506118662647,-0.14555406037853649],[0.071164038119849504,-0.092924304012998643,-0.14273315774071246,0.05966330362225334,0.02681396959863723,-0.089173554044336689,-0.045941261301159442,-0.060551796208995888,0.027238335697487619,-0.073396586842953457,-0.016392313109852698,-0.13348209706333258,-0.076923611377288537,-0.13982682418138631,-0.090443336217059175,-0.024820565530831069,-0.10491913461583172,-0.077198930952713143,-0.11071948212136801,-0.023673982552627371,0.0058181758238370004,-0.093874316385192808],[-0.032837443884576926,-0.016396176474451456,-0.051192246418639689,-0.094212896444664462,-0.03689320052906872,-0.04056667167877915,0.02619542957691598,0.09343728451872868,0.019039204938847067,-0.011339533397378108,-0.075887719815058152,0.0018347513602290366,0.058775451740638869,-0.042403324043523677,0.071082441293119386,0.061196263307399294,0.074244799797888811,-0.11010525376410066,-0.068193923126302097,-0.19885594373329013,0.053754017500938715,0.013922599917668282],[-0.052752155060186337,-0.064093234742597441,-0.0093855941131611997,0.019528941791363101,0.046674617955792037,-0.032949918879847821,-0.1283752337022834,-0.046686059287867024,0.03348374792252682,-0.023205593323393253,0.07494391469755296,0.035502684187474522,-0.10506746630009453,0.038429696758696695,-0.12145474975613801,-0.086835373327151605,-0.086369906992071505,0.10044576183591142,-0.12399071082348076,-0.14574803936076139,-0.015310017967484366,0.015184001163674708],[-0.035901702286805864,-0.063403774692762413,-0.04164535956981099,0.095200439169743883,-0.15657412692789807,-0.048720701038428349,-0.021506088575195426,-0.071104411408385498,-0.032540947258380658,-0.048131228535985761,-0.017263945359134312,0.033792590739325105,-0.089462917459391569,0.023194155070944716,-0.064613191749065574,-0.15042041326060132,-0.12161204795054811,-0.0098764239491788801,-0.005582069200807397,-0.0041419691045777481,-0.05729423477773208,-0.080154803816255407],[-0.055851194566055237,-0.065529272258947419,-0.079661782526395372,-0.072304757313533613,0.025593305245952741,-0.0036455031819740968,0.00023364456443736997,-0.05677244105568121,0.039217317473813025,-0.090029816575653815,-4.813441144767977e-05,-0.099104477492749199,-0.15230405815964057,-0.03056729798842717,-0.11624118067339217,0.073081354480134253,0.0039231176304410642,-0.062850868638779006,-0.0057276450240554382,-0.015187632263173927,0.015002390828795828,0.15326314988633868],[0.04952209342070437,-0.0073238786064364417,-0.00018333892790084461,-0.10705863815281413,0.082279936213856264,-0.039481445823360023,-0.10016303244997737,-0.0014896994477080969,-0.046989632614985032,-0.067446234225920706,-0.027092769911714266,-0.027401959255958008,-0.1070374616360262,-0.072145900067129037,-0.075910130802404427,0.01308729110672676,-0.12201491663404179,-0.019197171326580706,-0.10754928300075822,-0.093492912978395598,-0.10836867275915399,0.012236261282697183],[-0.011595577317507814,0.0017218493973780932,-0.10321615809606102,-0.098578290126936363,-0.06264632174570707,-0.048667817289510702,0.026294321386154465,-0.023180831614744282,-0.046801023871088358,-0.014836206531380028,0.045126857378461581,-0.17432395892544389,-0.056095161761495774,-0.036525983731181905,-0.10124595143778178,-0.058409763777247034,-0.066875561580218679,-0.13231568607690886,0.050455482377736414,-0.048602153636813604,0.0064187846555957481,-0.10295915984070581],[-0.23791668496223209,-0.10078372985207915,-0.10642030014203427,-0.093858060580611663,-0.10380637126517173,-0.064823033650653672,-0.0020362674592744531,-0.11424416924567693,0.05137320340936407,-0.026166678056980051,-0.056309223605601658,0.055254368676780331,-0.1360393153702438,-0.085883919513584636,0.049457194820839191,-0.04271636827235159,-0.10071711644721323,-0.045424969926478882,-0.046358399014190164,0.017176705072233289,0.12239241357020758,-0.088866700420893105],[-0.008824638013624219,-0.015247476035613848,0.0033661625717226473,-0.17370134800131878,-0.12548343054532637,-0.088007434971709875,-0.0059086757699482358,0.030960881586625001,-0.076072861848195006,-0.023655791623403831,-0.068926503541870743,-0.0079795978001665109,0.022043619963952578,-0.021247897469946507,0.13000538640982054,-0.0025048340611643731,-0.03537094717597461,-0.19905107372027375,0.044112091551136372,-0.10218178585399662,-0.050318297818955429,-0.13962752135013767],[-0.05194834206103803,-0.054287356126703656,-0.27764736694636799,0.25488104162548014,-0.059740230903838482,0.14254441535981671,-0.06909436407520804,0.07169458123924119,0.20211069368398923,-0.05183962871128122,-0.071305814616466998,-0.12986094177063906,-0.31557253093327975,0.097813063991984417,-0.12982016747942451,0.019217566249307049,0.027466874508074293,0.26882984079398442,-0.022089118217657789,-0.18059492342847372,0.013314053707918253,0.15635427728621712],[0.047403993063702028,0.03556887669932976,-0.25109631959232376,0.13460154932456697,-0.0013550346487386561,-0.029813896657014293,-0.034089949683209345,0.21107754340290838,0.026165579807040703,-0.040796635073240113,-0.1567743804707688,-0.081863794145359478,-0.18765670572059859,0.066572793978062955,-0.14553120360736344,-0.1683164672461096,0.11869939397456321,0.056913570996023767,0.037256098212854166,-0.051668411663849979,0.044237989046065879,0.1547700998437721],[0.13860331658155881,0.070875609221714958,-0.2034897628912557,0.19632345620762842,0.005526354081179196,0.0025516287904443478,-0.011992918555870251,0.1298835337763283,-0.035175877130933293,-0.14939690208452777,-0.10404992417279968,-0.035665453491417157,-0.20228598377597987,0.039991758983028078,0.025450444880766178,0.059927988527361496,0.15383424376338473,0.017550177309314709,-0.014847458228188526,0.049353024728096592,-0.10515918548635524,0.17693036671132051],[0.2228613060359351,0.054656424397423499,-0.24100656362852668,0.17992404322591754,-0.0861556578495139,-0.071165048271059878,0.091746686436050343,0.099786694882705251,-0.058352359861535641,-0.2036024117171408,-0.041332416916440573,-0.099769536566321301,0.0073063956694742723,0.20946298319190709,0.0043140515866431977,-0.10679747495843053,0.19881556715743742,-0.069452383247112975,-0.073069199094711254,-0.046748752486449052,-0.0074328649535912519,0.18357859167514967],[0.088822719612832612,0.0011956878761340748,-0.20544730182522805,0.30434239125535434,0.19066941808029464,-0.047715565623960107,-0.10868201132645483,-0.015143098780537944,0.1214030746522068,0.059876020687067551,-0.069728161051417534,0.014571194806763639,-0.26441629738409606,0.034880729915949586,0.10242780869242263,0.010267901598380782,0.33753099358535654,0.051266594974653378,-0.0079924714352501199,-0.11248497640655895,-0.030169969757828867,0.067219183958074163],[-0.013420614906419813,-0.1815557170715093,-0.14796262727612658,0.17831937419512611,0.088056874964005008,0.018920135156365675,-0.18011363096008776,0.1142546273911228,0.10205264817478638,-0.02735536167982669,-0.1722283342334944,-0.153906761423941,-0.42604721096753478,-0.23678441802516281,-0.04994903378865298,-0.12421482769323232,0.058186525424374191,0.23890921680221933,-0.10030154917868207,-0.20311734957462813,0.13785720357289027,-0.013839351755500672],[0.021804192416225679,-0.090750889201006907,-0.091916753815812463,0.017599060790873623,-0.010962742992966439,-0.099656014745237886,0.063092888868826663,-0.030158389430760234,0.19000356659986101,0.00033855272852263002,-0.10530557512220587,-0.053196647081018636,0.036668134195533074,-0.12472735221557427,0.07257672807641663,0.073278524504710979,-0.12198548187191513,-0.13574563225307518,0.13947386976526349,0.029369922153527801,-0.022258288936115429,-0.02512461146960461],[0.032960227737775759,0.044522865966475166,0.17362937815919782,-0.023730982872466715,-0.0048023113688708142,0.08147600091234429,-0.077374437818649444,0.053910197459142967,-0.14234800688170057,-0.029246041574801929,-0.1114769342256199,-0.0043448149894243296,-0.11490581297455826,-0.016438180803211459,-0.085198927943518341,0.017857220607590027,0.0058736950725249305,-0.028638079898210617,-0.043792852594533346,-0.098653009640570138,0.06357017308647249,0.0607221529594104],[-0.034683987027996618,0.12211168327177295,0.081559921999951351,0.0405023031021262,-0.0092606792322378322,-0.048900328530004436,-0.050938922928721417,-0.066441363104670706,-0.027089996323294393,0.033115825182133955,-0.0028899107995427617,0.011484351822153597,0.012538133656640336,-0.11148441133293129,-0.042037630896990211,-0.055815802428626514,-0.031925801062182124,-0.048359601737620772,-0.0080397494675055747,-0.081274583536164402,0.23498226456937105,-0.013918489256408737],[-0.033338001875618174,-0.022982123541683497,-0.060958165922113283,0.095868785665761347,-0.046521016190996731,-0.020634049329695876,-0.02686971711453516,-0.015537235790066679,-0.044387466418237841,-0.072348344593910652,0.021438071848527203,0.031457422526651811,0.012297655397691724,-0.13155249785054562,-0.042305355241752843,0.033093359591931819,0.047260996268837195,0.095400745439680634,-0.006900224791797728,-0.0090046236988075949,-0.045666108555387545,0.023344468534922648],[-0.0064732912759201573,0.004131503008604008,0.020901655923110184,-0.14174015754438885,0.0010512581716896341,-0.096305101808212445,0.025479919833697087,-0.18148626018494957,-0.14158052044462607,-0.05320453599482669,-0.11360623663071948,-0.01511355075318346,0.0018708580709713776,-0.042781134952939601,-0.030565802596409935,-0.065491537307326236,-0.0038946672296060192,-0.01115186592847808,-0.052974439398230148,-0.08331520216488085,0.040991850167952808,0.03713906994586471],[-0.041474031231371528,0.0054654022889543408,-0.0074365355883534642,-0.019122115755382439,-0.060463303002119571,-0.30519894244900492,0.0059977027614687289,-0.14111420549353684,-0.036346727503750627,-0.14406135890311833,-0.029058024794760284,-0.057206122287246475,-0.07638471689086937,-0.011411274777776564,-0.0017786607461563533,-0.15768078496171553,0.018400750872820851,-0.053260220657841889,-0.025909786564474575,-0.052267286051621342,-0.083930111884356617,-0.14942800063751099],[-0.10711812320598496,-0.15949935914068528,-0.10310911550971158,0.08714746516858507,-0.11355976904217258,-0.098504234923696754,-0.14528321823927512,-0.074953997995155064,-0.0028634427340424699,0.092571308284406878,-0.0099111109639678299,-0.088749665913402026,-0.023382070571041885,-0.095510834711682535,-0.11871859822507377,-0.023622737219870876,-0.034228607240413725,0.018676103821661606,-0.091289872262977162,-0.056196467346310834,-0.058955794634378861,-0.021297036100874547],[0.19033553579905257,-0.12289475455613111,-0.074732113084689328,-0.11236960958858752,-0.029480597641866679,-0.047161347125148384,-0.10538905368884546,-0.010566803948864487,0.10223184538530122,0.018436030093277947,0.068759302168051123,0.056317983256038241,-0.12238565304660085,0.00031686497018325321,0.084412376020540497,-0.024066410362069014,-0.045450830732393747,-0.036940644371864451,-0.021012391250022026,-0.05073501399385856,-0.046333385392595329,-0.10732321833010755],[-0.068449107112225488,0.053856735345134403,0.044002327514232935,0.026141971883764381,-0.084461270480265208,-0.082207306951937675,-0.052622752702420179,0.035566829892802611,-0.13871840528683302,-0.011901316671694306,-0.0044525687710835204,-0.032748401906051695,0.037799636045341194,0.14323854860772828,-0.1029183768052212,-0.08545702053324547,0.13013286203131427,-0.1344910996391952,-0.049172537256741117,0.062436390610299396,0.027933383332674241,-0.12526306109574223],[0.059678954262875318,-0.089582237040342905,-0.077447092406979695,-0.052035390951774244,-0.0051656575580655908,-0.13546078446641197,-0.024732725433211054,-0.095622970564455817,-0.0030930442002473184,-0.045325602939542513,0.028199662230100557,0.085469731492540779,-0.10669442953313929,-0.024557784627488484,-0.058966245316106398,0.014135218994022702,0.044079841747152716,-0.039196552338084931,-0.065902193941500486,-0.11079119165429277,0.03369837343177446,-0.024549511912063206],[-0.11676816834984896,0.023947441388116206,-0.079573952008273136,-0.0027511063072427171,-0.00072347666270425326,-0.038935952531509797,-0.027871267819683639,0.03849003878166863,0.081047671722584008,-0.053799412832133513,-0.087200759217732182,0.12015533312431589,0.0034588664131574715,0.039776072271150174,-0.079038916170079382,-0.17732801514691918,-0.03587491972689013,-0.056059083086788197,0.013106135371758122,0.041223235334918569,-0.14078734402205612,-0.12265164861532662],[-0.040489941579683067,0.0083032959830020639,-0.0089444168287548323,0.028384084186042859,-0.10692725460372327,0.034276267784490576,-0.08825570734353004,0.12684984208782463,-0.0012430586708537528,-0.036955700145965095,-0.0022308194698236021,0.025476646902665413,0.072639545997758459,-0.081948566988574389,-0.11882972646170031,-0.084886377146713182,0.089880895046400372,0.030189275996901847,0.045265110162213525,-0.11984573194328074,-0.033651456946329802,-0.072436526357306741],[0.00040041795017004694,-0.11523712262231936,-0.019748035532200062,0.016826819148883537,-0.045267477043419116,-0.047195567120068171,0.011909305542186811,0.021979617074033751,-0.0968298380365466,-0.071293155932204644,0.025064710753149519,-0.07409581456123604,0.006621254227418466,0.074717622404328748,0.1077739970401326,-0.0051360830789643451,-0.019867560052318461,0.049749551951497321,-0.056539587994053883,0.01505032942432772,-0.059685179967638134,0.048593221349780676],[0.011244917349405102,-0.082002172833902404,-0.088605153654431806,-0.024854037127521503,-0.056693415001385375,0.044152862289133878,-0.032449817305589802,-0.20746292071158837,-0.071627710628800578,-0.026222884757567125,-0.069036632256420774,0.0068743791832548418,-0.11986606578596554,-0.056777656764625664,-0.14414137400061883,0.0039444887322666877,0.053571795004405502,0.018709211560654089,-0.019831446721637055,-0.07590134619559645,-0.018092492150687121,-0.091592660957956956],[-0.05836964652447256,-0.033378919405519528,-0.033112222888360909,0.0038483592565489513,-0.02487231658577066,-0.056581324342967837,-0.081091546659182071,-0.046784741972904997,-0.0098379259081924006,-0.012464402778038553,0.0029193235445800422,-0.19218090458518028,-0.070229276159806453,0.011965399234018223,-0.026230903758816679,-0.001974383450166893,-0.044120634873142897,-0.10189132975916301,0.03578476087232018,-0.08625010206735341,0.075871908816293077,-0.00018372398309726007],[-0.02255342287557548,-0.0058743202525283929,-0.042196692170913291,-0.11010355344862133,-0.13237509770180356,-0.04462673353481094,-0.14333759503479088,0.069652364369554909,-0.053059245062995711,-0.079456830610160414,-0.044910132122536903,-0.19878271983685572,-0.024619939333121076,-0.044895949395483581,-0.045698849704452843,-0.0053470447672638206,0.021449804021794083,0.04924334646508282,-0.03430855560421487,-0.10468165652958258,-0.072452654713450276,-0.032605108516188613],[-0.018874619946425933,-0.045470814398246628,0.006011631626515461,-0.0059465936201621265,-0.043437075773581059,-0.025216116377810672,0.0059764693441069217,0.0042252329110450196,-0.0076040653840145529,-0.19400390645546073,-0.14373121017875284,-0.1143074150404485,0.096381013822040035,-0.057641061509798044,0.066388688318821082,0.0062512805363223248,-0.033080861206101236,-0.0045031916215548286,0.0022244756727293827,0.0052281606751971091,0.05841069162979972,-0.062285493828804162],[-0.065344707430914029,0.037137142569371978,-0.022819124537857938,-0.053718813807791158,0.044262851453128804,-0.024460513391959024,-0.0094866001680765019,0.017416955667160228,-0.066790498399122461,0.05942081199018881,-0.017238114617137489,0.0004708477866497784,-0.10086801701000501,-0.039396532715723964,0.045471748224638939,-0.05773149122764442,-0.11168678798413419,-0.026042265837807218,-0.083710148366027928,-0.016690465616735463,0.012665356229466159,-0.045327718601405387],[0.020279133024733918,-0.11322118352041539,0.032300041878505333,0.075335472809411691,-0.012600378090866955,-0.16100999608791769,-0.024565379406535692,-0.092622658272692837,-0.11849788256706478,-0.048509365984660109,0.0014032817171214821,-0.077409960017745805,-0.058935713534715932,-0.051514094723330503,0.10772944086666005,-0.033835078521766274,-0.0064506093425139716,0.055799889452218566,-0.057465965520116333,0.025692726585530977,0.0080665520447677375,0.042716443965670384],[0.069661395410441196,-0.17075287255785046,-0.030171309876318931,-0.14998838255832797,-0.13868106335643821,-0.063723193351709811,-0.0048986401965322238,0.037798559550853324,-0.016458557381270191,-0.060805500165670004,0.033056851922104537,-0.046188398215772176,0.016790962055519019,-0.093344965490442688,-0.039972680259975767,0.054025979616583224,-0.10040621162600358,0.040515706453446147,-0.055273362752574016,0.044721062007676414,-0.12075308858164596,0.01389470077830926],[-0.049499925167517909,0.095753850972079974,0.047113491809087506,-0.11457626116953579,-0.061366334350425156,-0.051962780302705278,0.038098165123324028,-0.10824574842965701,-0.041873177806276578,-0.10242584229740886,0.070285383434203319,0.04974455323876862,0.029579637591270656,-0.030261950390872143,-0.042460864953437261,-0.041196765596504037,0.1322144330703848,0.065918171757890248,-0.0766904112044689,-0.055086087816567472,-0.059570627132007142,-0.094742492916793097],[-0.06484523108434595,-0.084420020597191836,0.013312892938751687,-0.06108055146497271,-0.096965160286675706,-0.054810198812564159,-0.13173469643217459,0.0044133599772118517,-0.11844884195404523,-0.096361458560724839,-0.067678043376222449,0.029554445223112437,-0.0014806311075735781,-0.064192454342865718,-0.0019765145294836292,-0.044648681688959406,-0.040451962502006437,-0.021290280437786337,-0.026224231834538286,0.013052799224961581,-0.12134148643024731,-0.074727734836269016],[-0.0015343599986723389,0.025920758600261894,-0.12975613317460247,0.044916330887506344,0.032236507573608381,-0.10632819227668482,0.062579245843500719,0.13825403752981896,0.2709570626619498,0.0099410727287319398,0.040595988766611649,-0.21671220002232552,-0.25150594196590226,0.1014942101993335,-0.045109705043188696,0.014134672982764326,-0.05398955987499212,0.12250266358017234,-0.022346810370447428,0.015412806045433235,0.011592584175254661,0.26939562790294375],[0.026169457984346934,0.049210418954309734,-0.14381653328780017,0.19528623569072892,0.068840360135663775,-0.037704331578016066,0.023181131966931397,0.10600945198787033,0.18309446224018253,-0.15367085963142596,0.082234635863225325,-0.092820141939007686,-0.25828030497793791,0.023674851988286304,-0.043789306490304825,-0.013652707373538549,-0.12145974609875887,0.14970926070042406,-0.16439676032775655,0.088920050008116175,-0.10211475342758743,0.25459626841788419],[0.010218851151959868,0.027969555044574951,-0.3061251949837725,0.2729594259917506,0.033106627534644821,-0.011291404999147507,0.060695052678714591,0.066736631128624421,0.048240987210601265,-0.097963693583198896,-0.069680004393789921,-0.081725672511813341,-0.09975596567736715,-0.083967105860244237,0.0094271850298763109,0.041068071316658024,0.01992804543311848,0.061831130539400536,0.03394319715132238,-0.017018387327839373,-0.032210667254830509,0.15176377449115508],[0.22549832641252193,0.17372497115151028,-0.12432939989616139,0.25976021553075512,-0.15572808917181488,-0.087674422595989634,0.0081147884622997119,0.090022164765672291,-0.12376307092341009,0.021326398558255525,-0.063990405626929786,0.031963330877564984,-0.17116632657993128,0.098993691334916104,0.090751193855694065,-0.10976885992563647,0.37450981232044989,-0.037444012594153711,0.074894007489187106,-0.027190867101667848,0.10320821669745106,0.1818851652876389],[0.22547511444712648,0.16283297571022398,-0.12372861995776799,0.043146061309764644,-0.19980895853413294,0.0023935643595873811,0.10014215200520554,0.21253660991436327,-0.19852043533215841,-0.016908294727828271,-0.11107662169552955,-0.041240121605392532,-0.13502257549464391,0.11941518540997478,0.20410403768006735,-0.12914979110042818,0.24566123140397153,-0.051371567398744863,0.12248862846905245,0.0072616738893032879,0.11195057938560138,0.10005861009677611],[0.34841217808137331,0.27217716728414126,-0.12210015791821922,0.31171004358624205,0.017183062525132829,0.031367079312209264,-0.052801257998171661,0.24643976339764651,-0.1460079351835637,-0.009705927104051177,-0.27320314993405242,0.075235685077870609,-0.099241989899265429,0.12045035279999142,0.1390358501667138,-0.23689750160992387,0.42154509714044652,-0.11350922335106399,0.022789068912477214,-0.28960915691905076,0.077938575040010616,0.084217931212261038],[0.20613511730766176,0.090953775676990339,-0.12658320830187053,0.17881215681756582,0.078862808715657026,-0.12188670990199355,-0.14977195824621459,0.20089610797844229,-0.065434695384019373,0.043549104762911121,-0.19355782902689084,-0.022390006610820332,-0.13944203411481637,-0.027075088668006415,0.0042557171578115234,-0.04172544160847011,0.42690018439389482,-0.021216924878987749,-0.0081171011706464291,-0.22879697739300578,-0.063366307264015848,0.088554788201825052],[-0.14539041948940962,-0.1503557484095068,-0.058879212678507604,0.16689253181885325,0.21937425537619978,0.012571614577194331,-0.29008897842819203,0.0064782370576625852,0.27234267166297699,0.026985298851576273,-0.10789601495583206,-0.19606641729105834,-0.31836355774462183,-0.10540747567913439,0.00092938290396285582,-0.16624233474471453,0.11305833314372665,0.16650378834820784,-0.19684195674527227,-0.30768507104438353,-0.029513364472054292,-0.10630425411445249],[-0.00053392435471270763,0.047111605305781588,-0.2176878434474448,0.16010429464332451,0.05609041970986748,-0.23606799580235749,-0.13432712248259809,0.11166449337393355,0.08286710683842323,-0.073505120763068782,0.020304368741040035,-0.0763311994337382,-0.1411754054251747,0.059042346097449454,-0.13831859980247915,0.066506214545491285,-0.026026269167488129,0.15766831856254948,-0.12164357068977127,-0.022136094216950911,0.20647712909443369,0.087227021766501781],[0.12563951482347771,0.062653801215349358,-0.2248816069555129,0.20802445450259296,-0.055577196579186749,0.02096064232049517,-0.017016454783031355,0.10616684892100138,0.10950485017921872,-0.17539323767106021,-0.09044146969653033,-0.056513451315848062,-0.15370759200006817,-0.03164459958016326,-0.054771541801231748,-0.066350866473805489,-0.019905379738434748,0.19635545422174835,-0.12379013395713342,-0.018419540347780948,0.15360388255373469,0.15706157038005031],[-0.0048498573061809434,-0.0046299759279429375,0.05145880614792181,-0.14915395349273872,0.024920824507659353,0.033897024447166919,-0.19724718934343535,0.059369303321961664,0.030579723423473627,-0.084989921843604918,-0.083286395877648869,-0.031767220255684174,0.12950738771138018,-0.020052281292821116,-0.13074322598884908,-0.14250651634519479,-0.014139810629671699,0.062497434862276234,-0.066997604228644786,-0.05937357138671906,0.21362943660004918,-0.05691663669144701],[-0.093510447423697476,-0.051723014267542784,-0.078937045820033663,-0.1795173449101293,-0.065470472551162492,-0.079472379833817108,-0.032595461453011038,0.061566150009293212,-0.12898152780613359,-0.018235218857552006,-0.0088711917173011842,-0.13096789818573923,-0.027915893967275875,-0.012463250294946118,-0.0031300890684245707,-0.10380502670517727,-0.080953716195281383,-0.028869605884087626,-0.029720563204701726,0.012119769798881609,-0.056377333817250311,-0.083599621168754246],[0.022256914263109877,-0.0740656400316623,0.027260386892736389,0.0025804852155592861,-0.021421553413767849,-0.021956327641528703,-0.062918553222518853,-0.066644075887806686,-0.07645167821510826,0.0029754576266574004,-0.14143434831406315,-0.019898575183616998,-0.021565568913729551,-0.074620627596387906,-0.051312890288445968,0.08678256359011946,-0.0086986320708034581,-0.090442216642240392,-0.05859267305945795,0.022532731698841568,0.0097954164300561516,-0.14821818074872795],[-0.0041684264312871963,0.019683176905850586,-0.07481223164794043,0.019613279748685812,-0.019557348607535392,-0.09425159333450378,-0.1957812094532313,-0.028865601090129946,-9.1039526197517207e-05,-0.001874575996931506,-0.060616383359542836,0.014362015249737375,0.095467655957754027,-0.020949677122764951,0.046128429492626126,-0.10535875296910052,-0.098519284604950297,-0.0098630202330978398,0.045946941916113225,0.021588048029424503,-0.039653630509075964,0.044062976476008812],[-0.084644553691035296,-0.08150898891436717,-0.084857739696953788,-0.12471092658475474,-0.0078458822450661256,-0.022745784633434872,0.015829258671305496,-0.052209232841958567,-0.057930654537797457,0.050011088104929317,0.075657039792271785,-0.052358251321680732,-0.13091872718424957,0.0027863045467145658,0.0048267664493321719,-0.15371611122280499,0.055485528204660052,-0.01009047732822016,-0.064130697036289513,-0.065760881423055279,0.03606788243970372,-0.024592360072088124],[-0.0067532849079857231,-0.0033029118963815614,0.036160041921265436,-0.083438647829572749,-0.044301895489860903,-0.027023390380497125,-0.010876518378831114,-0.10373948676531838,-0.034335066508466648,-0.1223835101567208,0.043469434823483734,0.065440026310606497,-0.026086483815158289,-0.076064077982824468,-0.071087970056801952,-0.1519209598432881,-0.037361964535811913,0.059208158040367324,0.029434092392713572,-0.10732093101879636,0.016094630711856045,-0.067131156445535661],[-0.0069321509269422337,-0.058784234808808296,0.021031607448642152,-0.068164724735722881,0.11580256328291946,-0.070574532799923137,0.00098328131511053372,-0.011070381985965203,0.022159549685417921,-0.05252539297876091,0.040382851157890129,-0.086654875039708576,-0.092251915261079884,-0.11172595410910457,-0.02169637502325587,0.082080474483303634,0.17884597033319305,0.029430133565243193,0.099423306583272184,0.030020211300329096,-0.046670181582032733,-0.097672817015500804],[-0.042875328932287134,-0.079304083500543437,-0.14188395620106123,-0.0025764399283345063,-0.01578480808808487,-0.044325528030758649,-0.022163901087969937,-0.033968954503410489,-0.053149444397983567,0.0020284871685878336,-0.020585823281653589,-0.072877676834801119,0.081500631148401254,0.010233246737379291,-0.045747965871798316,-0.028855228921815006,-0.093440227560494749,-0.018987955357738777,