{"nb_inputs":900,"nb_hiddens":22,"nb_outputs":62,"h_biases":[-0.35207871592967471,-0.48827396136868173,0.18399145927907753,-0.31385778438103018,-0.23256293750920176,-0.081598815695898066,-0.69356005856120506,-0.23701293394150227,-0.28750361324974266,-0.30707130189142368,0.22112250805340256,-0.22538481398352592,0.21038501067173307,-0.78219896342085704,-0.4179638650433728,0.60746559582943016,0.71593630343679027,-0.007619074045350757,-0.59351406741563628,-1.1146405666191721,-0.30918190921863303,0.31599720846734464],"o_biases":[-0.36747598540976023,-0.48211953783693118,-0.41715627531108224,-0.64460846680741279,-0.3586228125893508,-1.006462172246595,-0.70362608607721888,-0.27642458120144492,-0.47379554040532723,-0.42626973858364303,-0.35820883829778144,-0.2247916527181629,-0.39409930970837509,-0.60232009822515042,-0.56272206336243724,-0.59822189023735173,-0.17506697441132618,-0.52897934887157894,-0.2031785372816676,-0.27766399275207865,-0.50216835035898832,-0.56791203621390718,-0.70530612396520742,-0.41066561982016225,-0.40506526182992186,-0.44071108150252686,-0.4200676670729403,-0.46185255224484112,-0.35597577675015113,-0.43669012229912835,-0.19728558557074158,-0.42370733396357907,-0.019357407935386959,-0.52371554157449296,-0.19176843312979203,-0.41218058457964341,-0.32271732155783989,-0.99271861101014414,-0.50519611630714734,-0.63818681157458035,-0.45200166803777236,-0.45995165443475428,-0.66232609714264201,-0.36985194663308607,-0.51788264386692118,-0.18878449801615488,-0.31578616339303905,-0.20513093093320048,-0.29964377517057572,-0.25743417737197555,-0.42160405640856258,-0.58811091265002624,-0.049594074129479471,-0.34145038212218093,-0.37805767795361195,-0.62286463944516512,-0.30292022098717247,-0.44644738316323701,-0.42432640769647034,-0.35863699255997528,-0.50999949207210737,-0.74343374957638664],"h_weights":[[-0.064326175414062103,-0.01936264085190359,-0.024053844613810223,-0.022068293468504082,-0.1339628117185663,-0.089248094239935682,-0.12767624732705687,-0.015299809201583303,-0.046280825018667933,-0.13648080238069746,-0.024786744894478206,0.011027090150788281,-0.13762385874706662,0.071110475133117329,-0.032720576576939255,0.0075803966315531879,-0.052155790344979219,-0.095852179534977433,0.044732427802184178,-0.019348060758670689,-0.023912986305064755,0.036732139291017978],[-0.096883846778945681,0.0047156071534927152,0.1127818439693494,0.031456063511530956,-0.096122521518115234,-0.052048444076870107,0.12167093842920113,0.043550843331033519,0.077663382483577681,-0.015414691247002239,-0.13836112254999652,-0.027326463086113133,-0.071428727871372999,0.03933877566397153,0.044631044463280527,-0.037915400924998947,-0.040944036637885768,-0.071639988683748185,-0.0042808238277770964,0.028958178928963733,-0.053065657609486311,0.056394789574544683],[-0.070747569115071518,-0.050217713727660603,0.0052030525438077208,0.042575394867131862,0.0024636014530449793,0.015893296709714885,-0.016183006577886346,-0.014662016131493826,0.062314662418604151,-0.090539465016793885,-0.045982515468149368,-0.049675227198435583,-0.020680748620345552,-0.053348651583890287,-0.095809215987282675,0.071327998150012756,0.066459192948789797,-0.028136783568284838,-0.022607465949729857,-0.076439995325035592,-0.067657309445447927,-0.02173367646475681],[-0.030908353641062425,-0.047807631812185204,0.0033071181802969418,-0.037257703283301774,0.11118437443931933,-0.19368376258515244,-0.025581787127355368,-0.038207388707218168,0.026543141094361053,-0.029479610977032659,0.062718649819992506,0.033860195535294076,0.0098911963210150042,0.0018184038360235313,-0.030868011208350393,0.05542555068577782,-0.03326567199200111,-0.0106375357332496,-0.029160559287182513,-0.001791354307342799,0.16212009153404938,-0.0045006015639702385],[-0.13200695971049345,-0.021273720908830559,-0.12360542354679324,-0.099911576930583557,0.013443003408130233,-0.029895926544392933,0.069381918944626503,0.016911567167422682,-0.068378347794240735,-0.035712083606774775,0.0025903691515245797,-0.016415558483500205,-0.033861688464671934,-0.0034370260304669061,-0.093335145125656077,0.027749166917803637,-0.0046977973865306964,-0.032572496310587715,-0.024949128288203854,-0.056271583768720553,-0.021756147116224457,-0.13527179939112638],[-0.10048593882056292,0.042715211572480961,-0.13526794019344435,0.0076476372785354574,-0.10165054279204672,-0.054835557619409475,0.023348546037263808,0.052725311392830009,-0.11256700864264091,-0.029264600872289083,-0.092049401324510477,-0.06059776077404129,-0.01074280584710692,0.029521809965974609,-0.062809741923590831,-0.071757918178858598,0.0053934637566619356,-0.079632905368106952,-0.058299219941198743,-0.018047059474057357,-0.044118841492238756,-0.036141423699449393],[0.030451435830995015,0.045136919787828293,0.014781963684978236,-0.12346347190182971,-0.091625098372258393,-0.047819256862565933,-0.044678694665630472,0.0033731690229279881,-0.021500281776494885,-0.053437657419049767,-0.14560891395493988,-0.01641572319157197,-0.048686612237878103,-0.087111856877004012,-0.019317085345721428,-0.013590506767058658,-0.022875871857765042,-0.076607989251899961,0.052525711442376756,-0.012949457319506513,-0.10318808316554029,-0.052347064778842475],[-0.069256830112170653,0.014805038402396803,-0.053473054486139662,-0.082916073198358503,0.00080189978201621048,-0.10030012660958773,-0.03971478106123074,-0.011635427721918109,0.023580427954147679,-0.11815487722399662,0.057630737486862961,-0.054360261996243248,-0.016815276204259266,-0.073504486729178087,-0.082629031355002353,-0.037047513123617849,0.083015988329185525,-0.11801775291672936,-0.055916798294025447,0.049940260910838703,0.046339923052386038,-0.040044472252453778],[-0.028829769672647519,0.010641829864231823,-0.05674735395574055,-0.013307108257464256,-0.097784614552721305,-0.065400661934148618,-0.084779071757987684,-0.067437979095090861,-0.039467266815705518,-0.012993665868792924,0.055543666562225778,-0.026221589876971683,0.045093174765590084,-0.039824236731715867,-0.1886798677622451,-0.036210005454207023,-0.14937735874538038,-0.0035228223102331951,-0.13948908034055915,-0.090197394259526054,-0.0039683311995298322,0.11997675472035801],[-0.017269198745953472,-0.086846698351824014,-0.14961662724107927,-0.10184136477934122,-0.077260280424701816,0.045377261424434066,0.0058481622436339711,-0.098782570704089828,-0.087067684649588611,0.021313352123692571,0.091676402941160667,-0.020488628390594045,-0.020974350689265855,-0.043766921193287268,0.035687430713745215,0.0052817070693042811,0.025956486671370384,-0.013937091065450012,-0.00010053366911787903,-0.01480345987916399,-0.12459309436989463,-0.097269352502808215],[-0.042243015787013338,-0.13056708636914055,-0.12599546377622886,-0.11929647718093256,0.0088205242999227149,0.038663568852767387,-0.1017762100823458,-0.041448851987841373,-0.097800760436399348,0.030232498208328872,-0.012098566493900804,-0.054793250982241193,0.028956712223523889,0.0082812891795959673,-0.074135423756029994,-0.09534775073080004,-0.051801661680599423,-0.052744318400540655,0.093124214417249218,-0.09483924239546393,-0.12278295804391115,-0.084572205394587541],[0.21217409023522527,-0.040793176890596174,0.0050023842684581432,-0.10024603591941861,0.010119032095904798,-0.057134386780081065,-0.020487505453765306,-0.16156050495441976,-0.051722021628480795,-0.022512161456090127,-0.058114871640456006,-0.067117362535902364,0.013925922632641814,0.06854465235080226,0.033132243819071532,-0.10818451888363603,-0.026082183621303871,-0.068768796234325566,0.027723983215835739,-0.044291974214210633,-0.062605756430183845,-0.02963133227783293],[-0.020093455845952016,-0.11971414088516585,0.0074670870623487068,-0.0034919308492314845,-0.051128819124469926,-0.10098597907708765,-0.074640182530851251,0.010884699115341137,0.034869598544408582,-0.089172250000009945,-0.073506072743453249,-0.17236328639561824,0.040429388096146178,-0.065321338915183325,-0.093735728414862038,-0.14549287515170303,-0.12622971545547235,-0.071687270201017117,-0.0062574711358893871,-0.09877936203616719,0.047704330234252405,0.10844092335459238],[-0.084844620835434426,-0.011528026480261411,0.023469370246113876,-0.08389792645756286,0.017233664709959039,-0.013631760723026451,-0.030052403958246869,-0.12950090727168453,-0.14834291056035032,-0.054243938100253034,-0.00097223925480383055,-0.1518066277497242,-0.028488139496934579,-0.034754188371111425,0.014578421712245972,-0.11430411243896385,-0.1008822869225374,-0.0098149196501933975,-0.085009872055214736,0.019857362323656244,-0.12559759560890088,-0.0056845464172720662],[-0.0038658864815192644,-0.085333397416053641,-0.081796152561640328,-0.18054573154234066,-0.030026731192367085,-0.1377627444575866,0.14806272744869406,-0.024620116469374884,-0.003540919971630592,-0.15159054973135691,-0.010933420028239667,0.028298882073907752,-0.067585675263135803,-0.055567532628107576,-0.033788897576615282,-0.045028254877540488,-0.017461865060695983,-0.058938325156393162,0.014878602696921643,-0.058042866511475055,0.0033826038543651876,-0.0044936983399584234],[-0.014281962373940783,-0.011399529069408679,0.059580792702247316,-0.082651782494356424,-0.010719953062340561,0.026124588510833102,-0.12433176504550575,-0.056333821503844,0.062091836472166671,-0.0074508893201846831,-0.19055986857629151,-0.032424103263749532,0.062424757950337771,-0.20359062332779307,-0.096189315653908536,-0.059728458309821264,-0.052846402587855029,0.059579544790204698,-0.017353204010558756,-0.056750828027592404,-0.044860018526922035,-0.04824775195738619],[-0.017134988746565622,0.031211053269974358,0.045134031725611666,0.040081923618537275,0.030735875323773719,-0.0029518902795479494,0.10937752826083097,-0.03692420261286139,0.00025721303488217273,-0.10165219789011734,0.0047275278386893008,-0.098983021726652187,-0.025125986748594228,-0.10599169329422062,0.040472082736270683,-0.04777836781768259,-0.15069381134811527,-0.065015324950840281,-0.069186709278649366,-0.04347224128623417,-0.061172423563505704,-0.026569186747856539],[-0.077809419354439843,0.074408388616088117,-0.063706884178159201,-0.0828426903336138,0.010259803472909439,-0.037674729606576245,-0.18514562591274802,-0.057971458626728867,-0.0008305196739342019,-0.034938690625678892,-0.095390346664173842,0.13147640037650327,-0.24934527234072196,-0.060418758343263587,-0.075269074670669775,0.039141262795063712,-0.15400382606666418,-0.0076977761260489871,-0.028545227557007509,-0.075453653633367757,0.10779695075397461,-0.015447830955836163],[-0.029617781644715173,0.013918375726483995,-0.039258222048201286,0.012015928587337556,0.000454343557982545,-0.015558429731439158,-0.026149751725011078,0.0024823512777392143,-0.042002982617113549,0.082048533741491209,0.0071373291481018758,-0.025996338281202021,-0.067895985873320547,-0.10982805052968719,-0.060873974428743323,0.012764908086288725,-0.14092419286088137,-0.10465024420710983,0.068258564479227263,-0.016459777362465851,-0.092200531385812745,0.061966583602156615],[0.0015219899984854832,-0.20289667170944398,-0.011729680437466673,0.011571002582560171,-0.12688033001843538,-0.16011796994393149,-0.16511249501964753,-0.0053123518110756059,-0.051796784931288788,-0.013913558800060243,0.11673118979602642,1.5807654114595449e-05,-0.013407225914129156,-0.10881897832190973,-0.052722455161783588,-0.095017359137180402,-0.07015241409617004,-0.028571093592941802,-0.065603255617807638,0.042350658090679318,-0.066407830874636406,0.013264002359691676],[-0.014668644411920631,-0.069436126393353559,-0.087666506776163708,-0.10215927366962196,0.025109164817379133,-0.073732744448779641,0.0485338844919165,-0.012704116933778382,-0.036908201015803846,-0.094637543073322977,0.046730657832340129,-0.0073692227283173803,-0.043621399269903383,-0.061440082903498873,0.024348710133252044,-0.1489037861603337,0.010124873201931867,-0.06975759699967865,-0.077436945679737718,-0.029602577424588113,-0.074045280708436662,-0.017771817877675553],[0.013708750674750365,-0.083929374122989786,-0.025849236304147115,0.060343642286932155,-0.017602090887253924,-0.11203158384579723,-0.094870469721130862,0.016792515091356333,0.034765583079353964,0.019461699464198359,-0.033410710025751481,-0.093877081489837894,-0.045973919202127275,0.027987996029802287,-0.060972765705485807,-0.048581175287315183,-0.11502429853682811,-0.016600199440057407,-0.13225113784861334,0.039201679760598095,-0.083573991362180897,-0.0050128840109750633],[-0.0087356624427192726,0.0083970916649791227,0.15208743402789979,0.0044983939382181801,-0.056983453242275391,0.086173440857308686,-0.030335829293626604,0.056262446738117276,0.084864438477603277,-0.070049547017029562,0.0057039452893276471,-0.040877609382918061,-0.0021846699029164571,-0.010994049807586441,-0.059854323697139056,-0.12828713946157588,-0.086347452390341917,-0.086000198836746283,0.040498346840271961,0.0054232104909429993,-0.086902825586768623,-0.098100008701698604],[-0.10121068518063486,-0.10213626578486279,0.059265147375502057,0.019450282882623363,0.00040421665807419127,-0.049597777713083685,-0.1115619996524245,0.018580321769311202,-0.020213341019488927,0.025126574073777455,0.035966403250590286,0.032624079057910295,0.062117936117808241,0.0081349613190280431,-0.11386848644176104,-0.11519668822992235,0.016915213764394844,-0.016900648467181072,0.14230456820273557,-0.0083547689246062755,-0.1812843408499582,-0.010229361744529219],[-0.067161617998314632,-0.18117164696374016,-0.11967246460492717,0.0010592624677336904,-0.012217213933841193,-0.05396971603923216,0.11564939982316236,-0.094171876048320363,0.053317328519342448,-0.011197415262685344,-0.011714651476765713,0.073350279509890093,-0.011649910487414074,0.007724145340841107,0.044132455402479905,-0.061544541765371961,-0.038135285638050263,0.01606218761185365,-0.065111339662209319,-0.040975861784503062,-0.066186850189580371,-0.047273136243260225],[-0.091018503882868834,0.17229211869553873,0.051260134563521763,-0.046480646049910847,-0.04466273795071117,-0.048885195890699895,0.059228697281181485,0.010106105253586704,0.11695563804872805,-0.11293445742019254,0.082873390774333505,0.0070899076888250659,-0.13554960614704761,0.027682926292442421,0.054296657681989109,0.020486704596664809,-0.104535020458215,-0.0021027482628485604,0.055096993621501035,0.014227499043084846,-0.10447081899128202,-0.052551144703220642],[-0.10393477880442997,-0.088727062274063268,-0.060272088983665706,-0.14434653027511463,-0.055937760146458397,0.027002031648916021,-0.084159243385238183,-0.085580510369301033,-0.012881176082942421,-0.083668056471268445,-0.0071396506787211218,0.077386026501636895,-0.14862837988362398,-0.12151489047287722,-0.00091009885557431086,0.086969189050282308,-0.083529058453563995,-0.031899330263320189,-0.1446029737061037,-0.016009981130197786,-0.13170777467680889,-0.084583052570530656],[-0.17498081739409474,-0.016348794649235047,-0.03981875055617988,-0.053803158006241802,-0.11488115187729936,-0.12154944660744393,-0.06749856855794345,-0.042395750643432331,0.028874970331714031,-0.067713784099905194,-0.067074180336124417,-0.03724171885703545,-0.068547784454159905,0.022674340909148896,-0.042791083532851326,0.034056083419962475,-0.079166102562848478,-0.057105124184232747,-0.003439302545927822,-0.027242872524225855,0.034285533260318933,-0.074846710412601769],[-0.014024274139180171,0.033985770750179493,0.0090505093483166169,-0.051899640407445019,0.0053234379220971489,0.10015829699288717,-0.073043857460729056,-0.084570614907949038,-0.027732139009098586,-0.041141463338637572,-0.095887689384626024,0.075463806130129152,-0.0038512504850584661,-0.10711331273864783,-0.010970333426324322,-0.06213104326111011,-0.0086193769999340225,-0.051868193527181555,-0.011135681381693664,0.13409239475918647,0.066996075002827171,0.072380492377331462],[-0.0949376191189895,-0.080122926789211318,-0.13267468828195397,-0.12427741145263693,-0.18004652896304824,0.0065826559505968441,0.065872594479742586,0.0044957269984255491,0.075517538139763196,0.030779712091495416,0.059914598872882953,0.014873188686465706,-0.020152168347903267,-0.15392984273334365,-0.071085391340234394,-0.097270652045049033,-0.045623168416442358,0.061183510042898924,-0.063133954773485185,-0.0085870353361703761,-0.06657384818544887,0.0015895854226353548],[0.052684825099034237,-0.13110404524807642,0.11748416162377373,0.017530217339024809,-0.11389899732794795,-0.095931749180634518,-0.039250475125796463,-0.0062703967539747725,-0.093014275673122385,-0.12279446107613182,-0.067794652565524055,-0.085410325462095898,-0.082163371518504225,-0.12053588966155354,0.0024516696228149074,-0.023092248957705584,0.17047972775644527,0.017502496511319798,-0.038122803470882066,0.088992664532045074,-0.045812014185479852,-0.039432524249767321],[-0.032989171864780079,-0.016453005635401297,0.018755749447482907,-0.080824248605705529,-0.12379516994802703,0.065712196377889359,-0.058270101944376061,-0.026586659975438732,-0.09306339520610904,-0.042816903000932507,-0.050529106082727954,-0.091733524167201097,-0.034626643130717165,-0.084180598229248005,0.0275740941406864,-0.1167928621534306,0.12331579567434645,-0.020816735601631539,-0.19958454386370367,-0.1231344411510216,-0.19236823602760428,0.034430277934880842],[-0.034403872259864458,-0.077264817875519864,-0.049844545980306659,-0.012351176915583666,-0.12028415203846854,-0.10634440670713563,0.06889395378369717,-0.071984468034077709,-0.083320795626014438,-0.021036199101317168,-0.084526993395922748,-0.098377596486660529,0.07805799385691789,-0.028248612311564576,-0.12852689547680324,-0.0032064442320709,-0.0039716674275013693,-0.095068538968336044,-0.10119164552188276,0.041479560155720276,0.12238009130861202,-0.070600161853361154],[-0.048777148931757074,-0.044718553990523192,-0.041066879954616047,-0.10878554010599459,0.066539941486899568,-0.068278203489570338,0.12830776912454053,-0.095711060621758132,-0.084626096047062338,-0.073090879794122793,-0.016566393420603627,0.0093605597851150885,-0.055912829166176445,0.038397917727634047,-0.12838715448869814,-0.096187709956095518,-0.033233098300535238,0.12875712474071652,-0.13394047239775339,-0.075376383706740935,-0.087561759750200724,-0.032137268882998303],[0.023998501032612016,0.062710687139562071,-0.034460803247656317,-0.013779456780987277,-0.035002759520156052,-0.049790723903873735,-0.05993412797360978,0.035781561787548523,-0.049880891683627658,-0.0047904100704522674,-0.073083435866973467,-0.053949773103717388,-0.038718198890967122,-0.18202519501690423,-0.060423230002468201,-0.10277909227381066,-0.084907860854705738,-0.11017172474828232,0.075487179245387837,-0.020557523091171412,0.073304884234039774,-0.022646694222884137],[-0.14274319357917345,0.012008438658410107,0.084563732629475918,-0.060589381977253734,-0.096959872133750319,-0.05465217609157861,-0.045351335194855159,-0.037539462504673826,-0.033886277276628893,-0.078566232998508373,-0.071537563861302431,0.092873665655676702,0.005375044739310636,0.01246885730282727,-0.010605421515844548,0.026816490406568319,-0.085798133212550518,0.039712725558908903,0.044336479943666622,0.010857227146313077,-0.027660487309955524,-0.16923851615395849],[0.1155625742771168,0.080749518953048299,-0.080530163604161348,0.018097225963201,-0.012975152678735342,-0.20156075741581675,-0.038980214033454773,-0.13096562833830483,0.050913012359268352,0.025155833506686848,-0.073590648557628979,-0.018747437910466784,-0.082586093865091109,-0.014136615638827822,0.011677326402978118,-0.026244652438420189,-0.00061722215109210471,0.057867527599912975,0.083568382788051482,0.050134770487818593,-0.017252488566404055,-0.07000346431336478],[0.053127303658226661,0.047081924305227583,-0.032075036900034312,-0.043591948011380471,0.029336479863514724,0.081727867869519771,0.036785263728793739,-0.12884587074241691,0.02183833197220228,-0.09528367052784395,0.0019071989199084954,0.033568786329351723,-0.041881507883064079,0.020333266935371304,-0.012138783522931618,-0.052289395413380658,-0.056995530003282335,-0.0055723743932335097,0.037237289392367263,0.046218346586156027,-0.036675742114700101,-0.033799486081933131],[0.032006044353242676,-0.0055633203302766984,-0.092586268365750513,0.058419642076253421,0.057092452172095305,-0.024883256384050062,0.00087012677566836172,-0.047216362140706181,-0.2176201262394348,-0.004124188496247249,0.079044830552344486,-0.09730022886502035,-0.033379979891519605,0.061932657341426271,-0.047520989700252148,-0.00068424201079879399,0.038328575008622225,-0.20628788048205079,-0.099642209510751784,-0.11333822937828919,-0.13643200389262955,0.0020732911983417715],[-0.090511346653796482,-0.11103281041352436,0.13440153404839203,0.022397660428887009,-0.012207297146492567,0.023252747580172206,0.0058794838653779685,-0.011451276773314336,0.034241823238978501,-0.089332183530888898,0.085957118201141713,-0.048997959136994472,-0.069236253108163476,-0.046062084601789892,-0.10754786164754634,-0.048647357050817415,-0.018592186674412706,0.062927538385666087,-0.024270325360348552,0.02425285399843069,-0.036346763261839339,-0.040486946564982036],[-0.063660438499238539,0.032407759065132623,-0.046298896332120941,-0.00011893519251920948,-0.00051958483338244987,-0.0686756653404378,0.0064388428366374609,-0.12156891759329766,-0.14877399371769667,0.034782274279357282,-0.041412516411508865,-0.066454956008686145,0.0025193556662149591,-0.15717413265859548,-0.016976152519281196,-0.11877792699574488,-0.029221850961797552,-0.050346199805819773,-0.06137390931699091,-0.062569241736400799,-0.037148142450023985,-0.023250939290972859],[-0.15886382215484846,-0.051995748079959277,0.054479952805146621,-0.12168681968725145,-0.099913760678306457,-0.0043807297567173796,0.021136382920489631,-0.10282300809850181,-0.051210558839316446,-0.039403777767513359,0.00061139043032316931,0.028347623192826341,-0.084926461358239627,-0.085098979942691014,-0.030113818986853683,0.10611186442622356,-0.12418237104271024,-0.13210036935934508,-0.044645483666810856,0.15378168803711012,0.028612971661821786,0.043188184989833879],[-0.050710091286516566,-0.12281521461637246,-0.11120355128826831,-0.0096866111080530053,-0.074909075812080672,-0.083904781176366169,0.14563131671270607,0.0037549119969327444,0.017866152997101224,0.17301530616870311,-0.073081617583057909,0.029096184558314746,-0.17591768594622692,-0.036114647616598765,0.045757701612823852,0.039631685110108304,-0.081056229313595601,-0.00049805014083472571,-0.16851404116660273,-0.043496641585680257,-0.038555211811232962,0.017144833448230749],[0.012178635781184749,-0.070502040928146686,-0.03051647292861899,-0.071885643316501074,0.11133083382263606,0.028120753950136558,0.0010336728760200614,0.052334112612516547,-0.14064114776111747,0.099781419367230811,0.026587664997883328,0.026454909693045731,0.023124541740285817,0.021673384191744582,-0.038024491566281772,-0.068067586428038257,-0.084657155407258378,-0.053164530043764646,-0.10959990913092657,-0.080193349601799066,0.056965935219528245,0.030033244177295977],[0.084799446461912537,-0.055190852321190378,0.028973071160054507,-0.082051998483351513,-0.057910267815730943,-0.0084936556708694322,-0.079953281609919366,-0.086091812409485644,0.07485455467415067,0.031857018731170493,-0.01275220579399618,0.069661770099502862,0.029034384214143227,0.046379688708418874,0.083607666560311572,-0.033735189932665076,0.067022520077749642,-0.03378628550612478,-0.020124175846863684,0.015368530527993404,-0.025086135442191754,-0.043028006268313115],[-0.013561674517488537,0.082450566712307466,-0.14075445628536729,0.00040200074510821776,0.015035334269390806,-0.03178879421003792,-0.13837690363033464,-0.031500911189551214,-0.0064745454072175565,-0.067762170490948431,0.028791275785514069,0.049929737565343059,0.014731413040454784,-0.0026178330118293257,0.082848016533778518,-0.018702270409598411,0.0031858154654209117,-0.050198231083313491,-0.13717078281154993,0.055646155791492534,0.0099764256421948291,0.044355416335106791],[-0.080912500933596698,0.10492983664292344,-0.093528332784398427,-0.067908421580164968,-0.0060363550657841873,0.017047078124467138,-0.045261763474201515,0.097232686296688964,-0.050562836358468949,-0.075641836693621248,-0.10472411335096055,-0.035233461606813773,0.10033517247202964,-0.0120778509293707,-0.033052633832385582,-0.063968234333030435,-0.03848899653312117,-0.062247254641844212,-0.12502266550959643,0.044580543791059614,0.034248270688479639,-0.1403076104485019],[-0.069188963347062593,0.033190000945887164,-0.17800039035527673,-0.1048914995069074,-0.038716902540304333,0.042665859877151539,0.051175063739941316,-0.060082300616477527,-0.086462236697412903,-0.0070399899177526759,0.041604428252706403,-0.080700137521193371,-0.037678128273749778,0.008875645601142193,0.018848687855156594,-0.04952173532128154,0.049291379102134929,-0.095190536879269899,-0.0051681410489530719,-0.062970627376908714,0.0044662500917726153,-0.096727885916580936],[-0.16027691714257794,0.028601625329957303,0.02469283050106056,-0.098612495995853144,0.12133804218559541,-0.14141854941617957,0.00015187238211507303,-0.13572932205341948,-0.020561226774537554,-0.0036093394801117069,-0.0064280678914317366,-0.1055891971717875,-0.060008888002421615,-0.01170914166288663,-0.092321813051634172,-0.044642316283338181,-0.15718923132179308,-0.041677642276942269,0.0067042693728000882,-0.016536992022241594,0.020566425392877612,0.069857697915752831],[-0.090783013808674262,-0.12097916026831546,0.0052719944280343808,-0.015747253167514387,0.024484365069736627,0.007229745083625963,-0.096431206864840691,0.036016360078503208,-0.057674494411616886,-0.043476369241837461,-0.12257024315125939,0.03739051770821792,-0.048066050404662872,-0.0569481432534195,0.11049690503278969,-0.016954796084642329,0.044610576513570595,-0.0061086043234586211,0.092915578692638612,-0.038805811246976019,-0.12269289776799774,-0.05258167736791873],[-0.042748058187947885,-0.058271519732294927,-0.03627512586661498,-0.039120271770586863,-0.022362703312561349,-0.057716114867615048,-0.10354135306107218,-0.10821771631207092,0.022276007191985726,0.04956188581099704,-0.040222730166342265,0.0028860331308713932,0.00014766484279069014,0.017971323933988856,0.046463755377543499,-0.058809505988464461,-0.077473483938711465,0.00083637753631881501,-0.046875752552234189,-0.042606950008992117,-0.038516737966473688,-0.042221422798051779],[-0.078086888839478757,0.037003077283668383,-0.15094312431366882,-0.0058629980798532398,-0.03117525982015068,0.092268160221054774,-0.093825313468356597,0.0062123947239854441,-0.072136706883708601,-0.060668526925427457,-0.0067311861228932963,0.032979531052230997,-0.10310188761706249,-0.13820147268453389,-0.03484526863321017,-0.2065607831401445,0.013935930620841079,-0.013957841648982033,-0.01597557248165166,-0.010120812071939274,-0.01428727732561616,-0.075640837527489319],[-0.099798164021917352,0.008245255495593011,-0.058556365933068982,-0.063783213906178193,0.069380361574633842,0.0052295340849605326,0.021883802134293119,-0.021208621869048851,-0.15260125494604887,-0.060422856251702808,-0.099870997162563618,-0.0088488924246976006,-0.062234472232096827,-0.059265617323306964,0.02405848804589264,0.03590739878611978,0.048710906567080985,-0.036244376491606514,-0.12583368586545227,-0.13912835800523152,-0.076803888913121329,0.03504322839319849],[0.026581425380569658,-0.04866645770890804,0.046520168445238062,0.038153564607003067,0.012348117158408729,-0.16263229364261628,0.031263500649087193,-0.15444235183008037,-0.27686611988300908,-0.10967136798384297,-0.11477778598377431,-0.03227395862257193,-0.027411195288691143,-0.11188094219201281,0.038627680646516206,0.044257725599979196,-0.059315303478625375,0.0057935337390581515,0.045853363153813602,0.098730028141017279,-0.016816626780752596,0.00013183625984259512],[-0.073865353153966612,-0.043331160730020413,0.040455532972181608,-0.089642892145779862,-0.10033718212961659,-0.14189896810909702,-0.092876694958198558,-0.048424287785336619,-0.089552708218701357,-0.078079352057744994,-0.050568476854153069,-0.010030308211568209,-0.12431705124896694,-0.06338025896229553,0.0021421217705637832,0.045098818088013339,-0.014118940490231345,-0.090454370284760027,0.053629294617493183,0.08486722429302837,-0.11541651269552605,-0.094134467776988029],[-0.093969280244363823,-0.089435980418955438,0.017944016426601886,-0.20002376784269899,-0.13855587749834719,-0.080603500770961664,0.10773348537618194,-0.028233272082254575,-0.062745885484102717,-0.069264618061978228,0.03430463237218228,0.13136930024070875,-0.025253263411972419,-0.042468916697167153,-0.060742349252105823,-0.037606304148190335,-0.022850450645765887,-0.08899654912404667,-0.14371722888584035,-0.070059955450290284,-0.049012849348035091,0.13112935440039106],[0.04176098752594435,-0.041438333165912215,-0.12185229234946351,0.01448045150835485,-0.059962304578084033,-0.070798914270356589,-0.034470007239685255,-0.082021993457124368,-0.095847116098462026,-0.064846112118177035,-0.052458223786420982,0.10913022313525753,0.077431567925089845,0.045047787178607808,-0.1297007618958631,0.01445703423009382,0.048594389521384999,-0.038187596581372607,-0.036520218022752356,0.019589004554539456,-0.11901799329743754,-0.068000169614043482],[-0.076713091084381235,-0.042770072134106177,-0.02876388966956913,-0.028010989002816386,0.014517143613774805,-0.028448435837338529,-0.059296947620326668,-0.039274003786815302,-0.020864802815734041,-0.1647196825873373,-0.017434532117225093,-0.14800551199005085,-0.024324184934959289,-0.075447559023977706,0.060986569951182658,-0.092595927289151253,-0.12333084575264644,-0.066329904395886638,-0.015724870038763623,-0.11686431303594244,-0.036878611349276912,-0.017116894365613478],[0.017796102674317797,-0.072211432017832505,-0.022744368249793596,0.056770667430054635,-0.062503577260516113,-0.0018823857272187855,0.027382443250765102,-0.086240843660913252,-0.026916384130302576,-0.039740474890836416,-0.052859769149919272,-0.080939198995868225,0.043349038256097407,-0.055416158380286414,0.083323374820567619,0.10165143760167786,0.072538710699230458,0.027340477318445931,-0.0053872319155846629,-0.065497337843426179,0.038013364854752117,-0.013016342254210302],[-0.036902665664738744,0.019926397766676096,-0.10481481829415723,-0.052628029913429242,0.030158969650693208,-0.077866757981121359,-0.078870399843002356,-0.011212754501529549,0.046789548038574859,-0.055946621575873969,-0.12893942567627747,-0.11138294270956728,-0.091913189253556946,-0.20986231389321139,-0.013899773817217225,-0.09314642659064433,-0.010328575761945846,-0.097243940849282839,-0.087646799968813097,-0.022952169049393137,-0.116002336002614,0.0061926735085824428],[-0.15348370610268872,-0.15763770443581249,0.033192063998487543,-0.047437271752244797,-0.085041334918695644,0.08017366102652565,0.00025742846157323501,-0.071128594184317384,-0.035446373794190154,0.0027083793851508317,-0.041820387555366871,0.0027612680941560691,-0.073150280190561051,-0.030988807724915302,-0.14148663026388328,0.033680154003873301,-0.078277842112166568,0.0014764271656979092,-0.086945626568392734,-0.073331840885039717,0.091016749989481421,-0.00026231183780729],[-0.019545856052039554,0.046770815609294851,0.057686660269360542,-0.0086941187801925016,-0.13635039482498076,0.091798717066908508,-0.031583593839835715,0.047708302478304258,-0.023319683681330632,0.056666073603264554,-0.0042085485315362728,0.070875486338040583,0.057123384119425448,-0.089462946061149379,-0.0045634750196759111,0.049154731558057031,-0.12187560519036181,-0.085419140078439731,-0.11306300610607339,-0.075815942488991872,-0.12955203107503688,0.0065424066842793144],[0.013193900379919236,-0.070965038056934771,-0.047830184311760997,-0.041731701421191057,0.073806109174473139,-0.13437206496909984,-0.025406372083035325,-0.00070151178539930997,0.016235865482200282,-0.023041057231802428,-0.085212866879596061,-0.003827721427959372,-0.11905091802613985,-0.057840945787619724,-0.036908687963451224,-0.066930104367503906,-0.11664061367284545,-0.19134009826661805,-0.016721335928087177,0.025251708768346932,-0.0064680851811393242,0.034855950168351267],[-0.074349364419215136,-0.16792042491720602,0.045775573552752906,0.039976518905459162,-0.084106117265728142,0.021506488977640383,0.043366016055499716,0.030990115846010989,-0.10536347596541848,0.027863164137222014,-0.17196868389319725,0.072279779859320159,0.06544947339882784,-0.032091065076763951,-0.05582101929145325,-0.068768389633418289,-0.056312355482521483,-0.12700278759803055,-0.11371274610238544,0.022700289587617217,0.12069789671793096,-0.0075019827194404906],[-0.10926131372932865,-0.12659484318712705,-0.019752787706543797,0.057534554358655766,-0.091328350441866629,-0.19057063763749432,0.033411906629064812,-0.071932465174027863,0.020800183652674498,-0.13986036546592817,-0.097619565677033004,0.0066373767463248148,-0.0054963257086842257,0.075704059288437958,-0.054980623246836252,0.078956122802576634,-0.10040139641626911,-0.10141254137227251,0.060344646811955248,-0.071121083125959689,-0.092535113940990732,-0.014176084023271251],[0.022738996876320278,0.00534028807761084,0.081236504690349043,-0.026525623045653625,-0.098828021874521305,-0.052171897647891555,0.041576520755727132,-0.14741562204024553,-0.11409319398140916,-0.0087420104615209375,-0.018268706226928395,-0.024342924002673787,0.072934216928773637,-0.032774419114975577,0.0070169427519656685,-0.018711205806704538,-0.036602067056241444,-0.16435830932144196,-0.049612743205884324,0.0052297143598891496,0.1123968099772655,-0.10481502671433024],[-0.034592207326483451,0.034312655713447306,-0.11180184010632174,-0.022529843559382177,-0.05122312044764004,0.079142899454918064,0.049290174775285293,-0.053659856663459918,-0.068773161929922139,-0.081943277446362789,0.027718551712629769,0.015314351878242441,-0.063335200026413213,-0.083674504531515329,0.044499522098636814,-0.083639153265586075,-0.04784871930538618,-0.035957629028147434,-0.056149594029822149,-0.025654586474668787,0.008840074647338908,0.017371604231511094],[-0.17650975031805491,-0.072615659393155785,-0.15539840370687275,-0.052279563252534036,0.066371448838179137,0.0029763964160404374,0.0034904290279059585,-0.067278147214386436,-0.0075746704264075121,-0.034430454287066259,-0.18908727823890373,0.048311105095285654,-0.029844690864291083,-0.021717266390529184,-0.15745963463181886,-0.035295020240489451,-0.044878456538523237,0.0067475923002991781,-0.042627869434049781,-0.053789814368586708,-0.10133929230511002,0.061174210269369124],[-0.026187182193284343,-0.005171650052184406,-0.10023810078359563,-0.08881000821762973,0.12478927603953008,0.029655930435007354,-0.12841599053032901,-0.065144249315039926,-0.048917426766311917,0.01898072500214202,-0.060670267418040991,0.04174446092073545,-0.024533774778331671,-0.1080674744014849,-0.062777388180892374,0.059453095590904038,0.03655715421344586,0.0020930785335386698,-0.10103682244216383,-0.094757351108459911,-0.038849844541667351,-0.076726602017604117],[-0.083540443637851708,-0.17911484599892386,-0.097006436628528731,-0.028726903872708487,-0.048678095522195278,0.011696947545473547,0.046692743868260576,-0.08794515008319817,-0.082091578671771429,0.014795621880028573,-0.098674367426490162,0.10868104321791522,-0.033998848427600592,-0.094804963599736281,-0.032081209035202993,-0.11708609160822214,0.029842175747487105,-0.12690976962323636,-0.032760643116868757,-0.034504866783015321,-0.029723078503665491,-0.076808378619343573],[0.048648694821643836,-0.032499703838220442,0.046916340245110384,0.0072811922989671554,0.027690019623819145,-0.18560205559586448,-0.086086087521123955,-0.15330752460924751,0.019142692545353876,-0.027253534398721267,-0.1458365530720401,0.0021103780296483771,-0.08598497295546606,-0.071597800126535688,-0.032160956608822948,0.06716330527913969,-0.15350445775556007,-0.072156279903057924,-0.077933545430292905,-0.018170952378860426,-0.086306101597293544,-0.029114441911158067],[0.0081551090690742609,-0.0094024026292180603,-0.030877866770811103,0.099014092583564389,0.007157168571029944,-0.019466944269722671,-0.088557172339363124,-0.076343401370002478,0.001424100030044409,0.029350249779349739,-0.07773562415395284,-0.052760862775582437,0.11768118158173493,-0.10117531372570526,-0.053195265642602602,0.0028710157313662776,-0.057489944401592254,0.0092322086934141998,-0.015511007295054363,-0.030219768565740154,-0.011139233128504518,-0.053526471333491692],[-0.030622234153117225,-0.093186819711097657,-0.052933621911719797,-0.14388825703530675,-0.026370994932499565,0.0055027010746383151,-0.048317762723593359,-0.087678414755771872,-0.096609515837364351,-0.037259442948512793,-0.072443560722743078,-0.0022434910081107762,-0.069047669597268935,-0.022428566495982714,0.01885549001612627,0.012854727642023785,-0.012717208059410668,-0.12318964158376203,-0.082330266904115962,-0.23161575573396545,0.0063668791817630757,-0.03921898746951484],[-0.02972037076464731,-0.029310099036717975,-0.060307345316290839,0.031218667903289608,-0.023970815061088304,0.087258234587334865,-0.0068444205223382147,-0.1894079718357039,-0.026784451095677224,-0.098007197026629023,0.035403498748935745,0.13605332817009666,0.02597884763319936,0.03097935099878129,-0.01586217684378562,0.066306933412948965,0.0096834026885536453,-0.00037231701459031208,-0.04530810389655434,0.078745343897649728,0.030740676106175667,-0.19606511325912848],[0.09090955775198728,-0.011661367829355715,-0.066679163879530906,-0.10592946802389533,-0.10089155549755352,-0.021977036467992914,0.025503084554438962,-0.13213275051495027,-0.11452950036700038,-0.07194851120914364,-0.022096760711056995,-0.043542761232825841,0.01158526229096532,0.053766735228809433,-0.055021969808707813,0.052815197701198462,-0.08094711990902273,-0.17703377571852869,-0.059758249444658337,-0.071013739515915913,-0.12484373588809844,-0.055092966663449483],[0.051198371662760277,-0.070228097339071649,-0.091376611710603656,-0.10999275518343393,-0.015527234318772475,-0.041254822069892616,0.097534530197482427,0.074891673783314461,-0.06794841024150941,0.1294989683511267,0.13836487766389058,0.041583577024065614,-0.070836943267166552,-0.065152016285742853,0.001925730642528739,0.021420790079484713,-0.16472836333301591,-0.0306115916426603,-0.020716575961340376,0.052425290733104986,0.022051282765350295,-0.16007476936784903],[-0.045439274590808931,-0.11766076106962206,-0.17761790266597582,0.018899541819841763,0.024588757061422252,0.1158383930060809,-0.11482803490213286,-0.0089523903997976925,0.0087576907882089758,-0.027756272021817026,-0.0043770160925216579,-0.044027891492748134,-0.067596452595058115,0.00049512936220418025,-0.0390588376324996,-0.13752728812961143,-0.060283525369378019,0.009993660172304894,-0.080620558015539953,-0.097233369391838714,-0.058185061572147853,-0.042153935685137714],[-0.07476223075032723,-0.11202423589179877,-0.029184832256643291,-0.04505232297363386,-0.038406349976831358,-0.037653143107411392,-0.10919653334250834,0.084988359791178109,-0.1305194722948978,-0.11295140009678253,-0.15408243432412549,-0.066006390455030692,0.08107972001846353,-0.022205303366319366,-0.062756707916396273,0.029805630463471407,-0.0326378794795881,-0.010425349637073245,-0.019429746943823913,-0.1781216794919559,0.039656997722401006,0.0040122951802270546],[0.026728205341197589,0.0042084156508188364,-0.071838603024135944,-0.098847568684244935,-0.004984473256932756,-0.014731133961993249,0.10274020646025001,-0.15229041133953117,-0.087387386508686632,-0.00081860915612702589,0.049784185675811533,-0.062038753726210392,-0.042582212309168373,-0.14937304375650548,0.0081526149078525664,-0.11965546755860146,-0.014971435918515411,-0.061424100391749843,0.0066609742116581841,-0.048728604603628642,-0.019021472005641974,0.053246567464373541],[-0.077528544631397509,-0.11244839861789377,-0.0087932343499713891,0.054689733165314398,0.070910164556230226,0.01197297829935743,0.02140691482691362,-0.081329977212207485,-0.027941460039169405,-0.055343279986213939,-0.01839110948296966,-0.045946865629757222,-0.023646318863446373,0.011562813525918862,-0.0086381008442923887,-0.051021319463996052,-0.081067417210001269,-0.040560732574038569,-0.035030351140843193,-0.085558950903620007,-0.16431851996854907,-0.040280279927987134],[0.053989744058540644,0.011070492487618509,-0.010236773664415621,-0.034532208994122897,-0.027245741672443317,0.091917907634287588,0.011349991557097351,-0.06407444253114794,0.061431419094614172,-0.0065649644805095032,0.07363938509827192,-0.076959208877806384,0.043310169879558026,-0.13850724540800169,-0.016785936309045034,0.093855740799429571,-0.03074544792053438,-0.10319098183505082,0.088214159663847769,0.04949764672536771,-0.052615128829061414,-0.090152206190580647],[0.0426434083468775,-0.14862937652861355,-0.025572553819603931,0.057559906394294306,-0.048264364234913676,-0.084814869282903188,0.0020909586060563132,-0.054185616833807806,0.0073840253697396163,-0.1057678790725429,-0.056080401013095332,-0.13878718502825185,-0.067236284418104225,-0.025466809951263041,-0.15779725191872526,-0.091125907519333665,-0.082592304292256655,-0.052849558406988364,-0.068637112046111476,0.039379711518600639,0.066273852443498066,0.019231565430069229],[-0.18882888471351489,-0.032260097585353996,0.01922349429104795,0.062081049468296727,-0.080656573487161237,-0.10418139835071655,0.097622794260192769,-0.062348445610861086,-0.0064610509610339359,-0.007133467975003676,0.032081888581189565,-0.080511333292108897,-0.083979044223658331,0.021341947704926673,0.017141369417928952,-0.03922161658678408,-0.092047786507921212,-0.093782668861977531,-0.021456874209208086,-0.079518275135577451,0.053032312787079337,-0.059425860495885857],[-0.036307563049685382,-0.07523098411942801,-0.10289709344787523,-0.12284594211945135,-0.057290054714805999,-0.064758890512098488,-0.056692573019837669,0.071999909752040292,-0.012144307355137343,0.024967484043685685,0.0051925628949074723,-0.061146844598839838,-0.014744815758641738,-0.017039122978195202,-0.078889686456219021,-0.068345083810005286,-0.068106375221239676,0.093474472852666746,-0.17576115485279614,0.025173650023133577,-0.048885119149090973,-0.11727754684420991],[-0.10455101739196135,0.051171580736066404,0.01767198361477812,-0.051693992813289111,-0.13281647720048959,0.013289275793059191,-0.13167104590051032,0.079547867594813887,-0.021868798977962456,-0.01347646587687026,-0.05980431799521671,-0.076970019392735817,0.059266213386981757,-0.055045039250461447,-0.12390802652430111,0.021937036440820332,0.12496768302405276,-0.02179920626719474,0.042021175522654823,0.01894041472148477,0.0790574682442792,-0.14494852402795366],[-0.10912444348370126,-0.11397107356606345,0.049793989355807818,-0.10316836850677286,0.0088837016418757339,0.13603736236705216,-0.071462378889090239,-0.14091198510742431,0.0035694436849636677,0.029285041844493424,-0.034197197637268271,0.025359233311303152,0.10926515683457419,-0.060677844966144041,-0.034289991553074009,-0.085842553347038983,-0.0090511122140803958,-0.012244928329063279,0.024264069096553743,0.013675353510700185,0.0016545947922921786,0.053939892377802091],[-0.040234677324595659,0.01713178814685444,0.089718196965444308,0.0036146512347729406,-0.13141429597646812,-0.12700331719904134,-0.022865004449545975,-0.080397203741395196,-0.080590041076588986,-0.056259554523215065,-0.024693062963496135,-0.015503496748918343,-0.02981499275388675,0.0051097449544749637,0.079306930848633606,0.062111156511169462,0.047064251092131464,-0.035047470345397659,-0.031664323952660695,0.017594210362552917,-0.15314681039773934,-0.10033449277497825],[-0.0036926175115454783,-0.037660951068319334,-0.00098205007318086929,0.025116329163838741,0.018129134458898813,-0.072098259304946011,-0.075070820047478615,-0.079278636986090917,-0.020870819125340431,-0.086447109096442723,-0.094959387397570955,-0.06010484655849252,-0.082333594839826357,-0.083928660081530701,-0.011310122457904401,-0.045093030367612953,0.061799611363667802,-0.0072277834198959563,-0.079188244386086404,-0.051888208757544921,-0.032639739101938833,-0.0049156031635028928],[-0.11377544322909328,0.071511813168462945,-0.049210126682994314,0.0027754676372499787,-0.15563055204758749,-0.10748622724285942,0.0055606830616185265,-0.061571391813675602,-0.014362217161411842,-0.15986350164017343,0.019140527051075461,-0.13197568793884079,-0.029884810508617597,0.00370573306792428,-0.03389536311563654,-0.061165071831275571,0.028415606175562505,-0.10508524365142385,-0.00204904645221992,0.06837541672253461,-0.10256950145097693,-0.085833798360289759],[-0.032878654031213997,-0.080375740133273865,0.060333002846131571,-0.035473427742897169,-0.16424013130436585,-0.13912282157674105,0.0051023306404655785,-0.022972137724764856,-0.07032358380052825,0.08615343648909779,-0.090249112511136348,-0.1229727244983353,-0.078267016254781066,0.024766032054039967,0.081868706767408844,-0.02319331881574823,-0.13538467154472505,-0.060831407289176992,-0.059228351897862644,-0.028222793588762139,-0.066515091524519981,0.068824785872561661],[0.019986847002874009,-0.027464937615200784,0.069550012984106624,0.054521662216508997,-0.076845851462358034,0.027666481129435393,0.070057492967673884,-0.1479258802190386,-0.12989064712936238,-0.05741200260835732,-0.033021466026590826,-0.028913900375971101,-0.086367788054633299,-0.077162320359566938,-0.022828070818599715,-0.065101631605076649,-0.084521494975797959,0.035735741723855886,-8.1960806384492879e-06,0.00108749013874853,-0.032677378731480321,-0.040964990240057668],[-0.067891825280030349,-0.01165942109485919,-0.046888834647505581,0.024114000806122519,0.057730574764826285,-0.046347916433783665,-0.073925383394388394,-0.074618675034726134,0.082784280425518109,0.1155309754143117,-0.11117214899265901,-0.024480774123186985,-0.056801500500675929,-0.0026232714515686123,-0.027875103886897706,-0.0019565725123758052,0.034102680451893984,0.048495756652099035,0.0465703377662064,-0.13945023827593594,-0.027053182128189364,-0.04349083113244509],[-0.097503987017510563,-0.070774135443070152,-0.094842780282321959,0.037100362643389027,-0.20680802535310086,-0.071153531585403912,-0.16620217785167024,0.059304230298807901,0.022522947369820842,-0.12244370618097586,-0.065413971883794483,0.04793055381436629,-0.069601620482128035,-0.099263168336646612,-0.0034571770075217598,0.00095278015052523146,-0.057328560311250679,-0.0011621366923311033,-0.15999180922613396,0.0605253299639665,-0.013450045139069493,0.03881212926999477],[0.00066301286749270716,-0.098045401147688643,-0.075071603104040596,-0.09718940454674177,-0.20156207236852458,-0.11989444592925136,0.058732686990100542,0.093761229031446319,-0.079460253621819688,0.0081440551149545917,0.098870716368587547,-0.044656245535520785,-0.062407384660189975,-0.087208456189325753,0.093017492609915653,-0.12724411960132506,-0.079253809592787799,-0.14255304496240342,-0.03942695619701421,-0.00064184697950809416,0.003893679144460746,0.047256012090919584],[-0.048734881167842532,-0.094476010240968605,0.075921875142981654,-0.015051528876016136,0.034759133579935604,-0.079382438790386561,0.005341187391714762,-0.17008638313309415,-0.066276797584444436,-0.14885295106911184,-0.053435275996210944,-0.11586782877016466,-0.028698120685472069,-0.10176995796086249,0.0074179982142485792,-0.01190491246798641,-0.10279263852752885,-0.098343268297794134,-0.084680596831211957,-0.0080170994616839721,0.0083902772462231406,0.044744845986931105],[-0.047099100241524978,-0.022372711751501274,-0.02561827973865867,-0.037455944391954904,-0.12488108134682013,-0.038800327635796772,0.099189571739493831,0.085865429059216625,-0.042074774942618048,-0.081734630746964826,-0.034900576982114004,0.014684563627006916,0.010893166430394188,-0.020504003930972167,0.083529802957714783,0.078646992854312203,0.014586600263215344,-0.077900011163811067,0.0027129042819092966,0.0037538125341968279,-0.0519823687906402,-0.079169694108024741],[-0.041422920760643668,-0.074367642726870284,-0.08800635072835826,-0.14644396055781622,-0.064996815015555293,-0.040223981279883358,0.084757923123349732,-0.026738863249342597,-0.056333983807965823,-0.004522586805201307,0.031367177969889158,-0.058842076620610723,-0.12442054377641382,-0.086344785366751498,-0.093790375242738006,0.065385518160189532,0.052095179470421242,-0.025160292889188564,0.027001187219301656,0.043668838326985808,-0.071956957873437005,-0.12898613106486781],[-0.070631079799394314,0.0059512531622985462,0.030351493488441482,0.027761555002793779,-0.0026579645862413771,0.064592950420666428,-0.075341577225054662,0.010445416422532001,0.15781251216346054,-0.050242080817140933,-0.17913536093125146,-0.086003872961415401,-0.11765997014601037,-0.12040865236389653,-0.11283468321870521,0.15506931572772462,-0.03900834108703724,-0.063047459281927259,-0.093131127941920119,-0.10899054113698825,-0.11896116433085199,0.04718565426723572],[-0.028946057468926093,-0.0036095993541247311,0.01190373040844582,-0.093127787061400846,-0.11741918358958761,0.0057431813341140975,-0.015833213658027416,0.02894203129080427,-0.14623110386191177,-0.032538458580180826,-0.045499314130306154,-0.092994536159213034,0.071106866212641645,-0.049069787218737185,-0.10873910011570465,-0.097930655221227902,-0.06211925240663408,0.06624406272698169,-0.12603020246978508,-0.12378427839999093,0.11738491869688339,0.052713243735331004],[-0.0018552107569011211,0.081414470759981206,0.035005503052139571,-0.13389334576681269,-0.0034010573378777456,0.11167765087358397,0.010179958974474303,-0.028979802288287147,0.029872212641790567,0.0066598637555679505,0.075436320326389805,-0.13121288780435095,-0.098787171986059796,-0.046895809053162457,-0.097054672455483881,-0.046500220772002637,-0.019875799046572724,-0.067138742427997708,-0.043828766528360333,-0.044384540518771547,-0.04436983500487765,-0.07281488961125071],[0.019107927268782667,-0.0038219190175804614,-0.029535722559340723,-0.036536546968102032,0.0716023885414247,-0.029275755113559329,-0.094565176062913675,0.051007681024756522,-0.021339934262949362,-0.052174638105618114,-0.06518064402137122,-0.037203894790203314,0.023648987968914417,0.034637688924036909,0.014654687529708048,-0.021891940037311462,0.045589596079099647,-0.08120528922871556,-0.15682256678775724,-0.063205400510201848,-0.055832153813437674,0.042451077238261782],[-0.062333049237518173,0.07567159967279169,-0.071332651171883699,-0.12748721817646846,-0.018563931405805277,-0.034785227807327013,-0.13340091754070019,-0.055044612430695784,-0.083251106699791633,0.045578658710979485,0.054496949765928358,-0.12102564159312443,0.026737535967644513,-0.042778231928537545,0.03623645365462199,-0.041861578291675076,-0.12116818538012158,0.083166936711073614,-0.047766649168666353,0.019845419996063644,-0.10460975451494023,-0.032623200159611378],[-0.032221266030048018,-0.074485312474961679,0.025220830049276902,0.024214741625208071,0.11105871349505692,-0.066321741853462027,-0.016885342897789327,-0.049833050928047226,-0.15415972143502099,-0.083529041620177519,-0.019485236356131516,0.023821534804765038,-0.045209734600223567,-0.052866169770429697,-0.00087405463981009984,0.032394945742197305,0.12011583960887345,-0.048923200588302435,-0.065680948933973943,0.019230047481020585,0.019021714469317254,-0.064333773014847939],[-0.11598199769355222,-0.15842870808444992,0.18794193953065713,-0.012553076795661328,-0.061995718352855521,0.004908538969223851,-0.17276043821173478,-0.033081498272278638,0.0038456869457613452,-0.091200392764327287,0.060930065170866028,0.12928409934341356,-0.040836659746052925,-0.015513949920927667,-0.069556381195098715,-0.022943676045275564,0.10112817809308883,0.0097599231128404976,-0.057321464673255024,-0.084623446592489146,-0.02790654203283895,0.0085317092831130037],[-0.11674945407490522,-0.015921075648213049,-0.04962980135847507,-0.0023400755737317605,-0.017110073186511216,-0.076489617816952793,-0.042574007181551729,-0.023646448705918838,-0.11622298880024434,-0.040503992055204607,-0.085540334105440333,-0.018487453818162705,-0.1314002383127188,-0.03910647865548611,-0.077073819884180217,0.052352874255496347,-0.051918250046613816,-0.0078096754554490486,0.016855363040213255,-0.041865044453540209,-0.17002353038192794,0.019459404477025752],[-0.055299522088338576,-0.056360129665784103,-0.051590155580077603,0.026342094779578662,0.0275008595138381,-0.10226770671519092,0.0042258553041020219,-0.022787769183507778,-0.050545083613524597,0.094958273599501292,0.05328674623866974,-0.080907382509052175,-0.076560711032717929,-0.044410285848515758,-0.078100497136823627,0.0066400283127092674,-0.07295098055302271,-0.11888541415087542,0.057514057874177481,-0.12147733672791466,-0.039438759897699342,-0.084204495042118133],[0.019350131035598912,-0.067679849425125921,0.064935568089593082,-0.092354521562277192,-0.027854494844256148,-0.071624706858611081,-0.089263649743690526,-0.12081278418699376,0.099452894995096325,-0.030017113125627441,-0.13291752134143994,-0.11522038661219186,-0.13793241523083521,-0.043392885558317135,0.079837437935046773,-0.027651486376406385,-0.01652206507122584,-0.035290371600832898,-0.022160581660890456,-0.062821116170535554,-0.21194268927491311,-0.11268370710092027],[-0.16665435676042351,0.11245253317712497,-0.051642135655808191,-0.066688751949067038,0.020852783507091119,-0.0074761445817717459,-0.045638278582820241,-0.12639115746555157,-0.042826981922044351,-0.12246268605575644,-0.050738202029093987,0.01213576477133909,-0.098519119824237444,-0.092349846563577892,-0.017532194371442641,0.083886432477824124,-0.0089442330902939453,-0.18516399226460029,0.034229895084315516,0.0011530121250683464,-0.0035535579351178535,-0.1172814021313402],[-0.080690358282686475,-0.049587840948379397,-0.059516779374861307,-0.011315924042859925,-0.067712574671771386,-0.06007633980356189,-0.16584841906981768,0.094737166725364974,-0.085380156427721454,-0.044254121352937242,0.036983887388860638,0.088489413221150004,-0.037451881897326809,0.027242545205061607,-0.1314976126861786,0.057369811202100239,-0.028705243011339546,-0.021956581188945341,-0.10168707260675056,-0.081534981720576716,-0.15385955254160974,-0.048202566167956727],[-0.11681022747891234,-0.13460987490211687,-0.040126227238283241,-0.031155322843208794,-0.016519975976726255,-0.034861753993141197,-0.1061878599055065,0.040042799341503697,-0.10386905678586525,-0.010456572381864343,-0.10749154762839405,0.01143815728848737,-0.068544214300030354,0.033403443701621689,0.017823853593720157,0.031948804472119084,-0.15144411611040565,0.0023277636866992218,-0.05232084198371216,0.058960463587710642,-0.057025711216538919,-0.10638931893688963],[-0.055967548276694937,0.079442948496264765,-0.013503124895892653,-0.1009256863894652,-0.012767251742587787,-0.13495447548196926,0.057783755068937105,-0.071745802089754451,-0.026138708965620368,0.019934480872018961,0.05263099542233738,-0.0088138424557397885,-0.020667934267006298,-0.095295946658439254,-0.060783062790985415,0.088892025330661456,-0.052856818271228123,0.10964770084405898,0.033970406054137335,0.059558792951270763,-0.055225007065866256,-0.0045321242172599065],[0.038330245514509177,-0.033218538372853885,0.0091534514857109991,0.044338633555686464,0.029061429629216984,0.0091887018075245269,-0.071296617623153674,-0.016480643936635241,-0.12746525598531611,-0.060441553803919426,0.013113614726578578,-0.027119764666176001,0.079395481227303499,0.06958367331066484,0.013609063892324538,0.081577751742779425,-0.041412453704292029,-0.055669625319890434,-0.08181916437691189,-0.029025256733289921,-0.0011517368392612234,0.002643803559041813],[0.0013285557282031943,-0.023579719420006078,-0.10393847937435222,-0.059219073740454237,-0.089851819792514387,-0.081265281849705981,0.047375590146981748,-0.015030860211149639,-0.0094412550795652493,-0.057457726372633459,0.01103281406976106,-0.023249142564033376,-0.023465460287098734,0.029486438551739345,-0.10525976710119506,-0.049373764039492035,-0.034611163112168067,-0.01558818358897179,-0.052288161872549963,-0.055877186793379011,0.0011497278360181537,-0.0079615370130921362],[-0.19410520876148085,-0.02609512997161377,-0.098447575194686221,0.045341665730750637,-0.026455047206289457,-0.098975290878656058,0.099321710337497648,-0.15634966351769028,-0.029422632472888132,-0.077325973673104037,-0.021575192610445347,-0.016134565186404905,-0.001413383620912631,-0.038082967078051179,0.066003543139648402,-0.10274879347592691,0.035424997714613556,0.10011610898839052,-0.094363642054409655,-0.058652739403818391,0.060514327387326615,-0.05489936021574883],[0.04751027825716251,0.016362997679510244,-0.096106888916176969,-0.087448407624309055,0.021098731554331333,-0.04501924316007723,-0.15524480005769536,-0.10872040783540124,-0.027933274921037032,-0.009859897927170614,0.014059221103020443,-0.14782282680628123,0.04178626421501027,-0.010252219052498079,-0.17242566583455265,-0.075697855288491947,0.040343233600045471,0.064154086720622533,-0.083737765650998344,0.0097615494643501152,-0.00041115631109159279,0.0081181431790784547],[0.013217424830427323,-0.036772285561208408,-0.0030422143051356924,-0.11687113030054913,-0.16342906449541211,-0.052590116556991431,-0.072467133522492622,-0.087415728302405862,-0.090842634088699067,-0.048258885791623497,-0.016092758743921021,0.020162217906869721,-0.065687779963182868,-0.18503383082079464,-0.098003807515052194,-0.057222270890979574,-0.08494498344968851,0.039705452170010168,0.0054286061389196213,0.048770365586237312,-0.059515299418552263,0.029867899506223601],[-0.021941562228609473,-0.0066128010801466616,-0.072349774798855404,-0.065059218079528275,-0.078587462564507118,-0.090911601999627389,-0.046493974442064143,-0.14786117646068858,-0.066885625021161021,-0.029336458507503278,-0.136651840443029,0.077608470095893223,-0.059944965730981972,-0.026299853211742788,-0.20157057928135128,0.0072408365926670062,-0.082978841364649586,-0.15458506993215992,0.1401217363058592,-0.025354258837546273,-0.061356461533111653,-0.11665083670286278],[-0.069926650241692867,-0.1432606830628903,0.087444024839557766,-0.045207863949173664,0.044523336462221529,-0.077220855662830226,-0.036427840748451762,-0.00024556423262104415,-0.048786079132195084,-0.068935522903948665,0.0097736879361256523,0.016868827064820568,-0.01290709007130391,-0.093502573063093258,0.041577165860698102,-0.022344504086926526,0.021848987896611709,-0.0087402005496464499,-0.04700558944573946,-0.052788730739226436,-0.079707468581203172,-0.051949668459974098],[-0.086702324177346024,-0.11798024813679081,-0.011123142712108659,-0.1513409632546695,-0.10873850356629342,0.059346002468347418,0.049840131481752543,0.028727726761559401,-0.16170284491773682,0.0036169846548091897,0.018521930139947275,-0.076355800489166986,-0.022724333449777648,-0.035914619161685875,-0.13069509118874204,0.0020555462166559138,0.0087200134988541372,-0.0017062061390246894,-0.087735711372056768,-0.12774385965534912,-0.034222905328214315,-0.10529357781117513],[0.019645517856031872,0.0016398917959549245,-0.10351474519699175,0.000636802317447005,-0.014925979111743353,-0.036040759545741423,-0.02983701439265591,0.028119132413823675,0.0064312266369708423,-0.1697766416108612,-0.17542063257150992,-0.12459673212252756,-0.09352904059561068,-0.030769949920002124,-0.11758924686645686,0.0081758829360449453,0.052120404146414105,-0.019651701080243753,-0.12055899371740708,-0.064873841255064207,0.0023897163885732917,-0.036188634850331795],[-0.079379626082297677,-0.021025002153806371,0.069049388214541457,-0.042256790079786333,0.019904423443993811,0.01511612105029992,-0.087959080548353163,0.096023453846737883,0.047741433204032048,-0.17508357830765989,0.003702368920567696,-0.044208279431127602,0.038785382812990925,-0.04224504628348761,-0.051324946698590959,-0.17431329726962957,0.017882789812739032,0.018754538975858027,-0.13320532999425541,-0.04155168708317418,0.065712785671134699,0.0087824360701561355],[-0.013165276412846694,-0.065459785772190249,0.027406113660215052,-0.18507309867497893,-0.044814305582796816,-0.083507120605683827,-0.076602416538316176,-0.033488871315041802,0.12737650057875341,-0.032974094554439635,-0.062516913008877975,0.017952243084865864,-0.0082068975489123612,-0.02186662538363035,-0.048394298820392985,-0.17976647566856688,0.085612798246620242,-0.013612077166551797,-0.012212076348526776,0.032834927391551465,0.041257405994147407,0.046724204702095061],[-0.022335864483087907,-0.092405637708727881,0.10688503046648906,0.054025174694913074,0.0061389169506734578,-0.05127976555810216,-0.099518532335701793,0.015822774336670745,0.028579358515043472,0.0049133512015289565,-0.0708445391336016,-0.05249504509664215,-0.012944288488773794,-0.059758699077974681,0.036357079635411078,0.028466994314276725,-0.15089683111556254,0.0018800124390437739,0.051008317613396546,0.086353443263781804,0.059909535421264003,-0.024063037240971606],[-0.012752662283282819,0.012257829853336427,-0.024276032443404101,-0.036294552973488561,0.03732008591075265,-0.029145130040434654,-0.0062627798014894716,-0.043733942425546263,-0.027840553978999642,-0.084934996344950775,-0.12617446463548065,-0.06836998612161585,0.036395898084904836,-0.079985160751611634,0.083812957682901479,-0.00010346001878527161,0.021083693186615592,0.0026254916792814026,0.012411110092512868,-0.077206075707787647,0.006123277352726858,-0.015089362141245358],[0.033155607989901664,-0.13338172597287051,-0.0012568166651950395,-0.032709495257027973,0.14037459874109132,-0.12297442902744968,-0.0469386060380294,-0.081886762611970559,0.092546187412991546,-0.056397065803937926,0.33957498351431514,0.12763228748053909,-0.012469340685559079,0.05121529730136698,-0.22019853326756769,-0.025146324113636442,-0.12188362743763355,-0.072579322115620681,0.085756652244742007,-0.25427603991608122,-0.0058282356342935857,-0.011088356640584841],[0.053295964773108224,0.049521841637030974,-0.048583275761130924,0.0082682366812796212,0.13206243541005952,-0.083309789100198428,-0.10916063368137181,-0.11668999408340082,-0.00012429715155521791,-0.0015250078123269376,0.11301321114212955,0.13298728530173595,-0.102956004563123,0.01626046231816413,-0.18133545942662863,-0.035866026843713823,-0.012710695837127171,0.00556177522627848,0.047709562833290767,-0.23330887610551718,0.04774420601034312,0.04078858402045641],[0.092157220809482063,-0.048459100370196455,-0.0090415107552569342,0.0032555786423576131,0.066337360851182622,-0.069777852499761775,-0.1248548789426621,0.081215853745985195,0.090764076267879454,0.027544003285797758,0.200284599539234,0.10611836142916035,-0.054859860330780684,-0.049003771674906695,0.069211908940318284,-0.036715224485056132,-0.06592789681711346,-0.091945724462123207,0.010175772317318825,-0.097657187172673313,-0.020214518993585329,-0.1373859918494276],[-0.021868427619491905,-0.065186677939960774,-0.14447180459639253,-0.0084655733824438393,-0.20181994690101296,0.0034949831678703172,-0.29860216661218852,-0.030133127434767072,0.012076725551657211,-0.076455289620487782,0.17247812385231487,0.093792213193355692,0.072596320860476404,0.0081243210060406353,0.25907214691664743,0.043351328027479027,0.05772009919264779,-0.22268063665107538,0.094149073143209666,-0.29592003971044634,0.11648490174667124,-0.0083168711257160313],[0.097157583186716634,-0.28574241622400337,-0.022371900115860627,-0.27407406693835412,0.048523593600236385,0.023985485996416939,-0.22310130238136874,0.030305342701571317,0.1434568977413028,0.043582325989852608,0.33712676194961161,-0.068623040330600849,-0.043855102531916282,0.20165390622115537,0.16298770243979616,-0.040212798427576024,-0.16767049697818098,-0.17081725647831661,0.07561382232774902,-0.14568379600474965,-0.11023613456296423,0.026586760088207918],[0.046681238823235403,0.0032670487437068772,0.011286411362058584,-0.30222761636238915,0.12960990650409687,-0.03129081522708059,-0.086500271310070972,0.02251174035482802,0.21978717493411687,-0.0066135503998564034,-0.050662111217422236,-0.015827116886250821,0.002105721577641064,0.046636170146741769,0.11887593385103409,0.10875192955102359,-0.20040507842782285,0.18009388388528369,-0.032758443039131828,0.29935903018174931,-0.066590839847176259,-0.045658036762656375],[0.34233984293588671,0.083269613292126829,-0.23990728755886792,-0.22886452530236789,0.25965869809013487,0.2724157954869264,0.074573688291195553,-0.002393706025507794,0.13330660956374693,0.077991047110633857,-0.20457817655852512,0.1038282226764346,-0.10285400014042667,0.1180448653403743,-0.14395783018366468,0.12244252673112666,-0.22464126258508801,0.25242630976154123,0.11063999104668008,0.26777895632606602,0.0020721540807508024,0.27010349592602784],[0.24249860481354019,0.17893254311828538,0.10852688472596382,0.039560239964287827,0.23368879785752836,0.31580468700839365,-0.035704816005786566,-0.18348896271054541,0.1512188197775734,-0.0085036544810897906,-0.21529199393107298,0.072334852953781281,-0.29777188416987665,0.098577544797797442,-0.084127078766447053,-0.10038611115567894,-0.31462310701911611,0.12705644049522971,0.072125392026207755,-0.18507602346774113,0.1393427909144988,0.026820495769229902],[0.21869838101978484,0.034173385571363707,0.15495613625864527,-0.19270642037642779,0.36988426255577789,0.12211056076276902,0.040450539082376981,-0.061617571146389889,-0.01744266831778302,0.14139339309255072,0.19044550909444066,-0.11292892785100031,0.0084928927376380064,0.027650404043514359,-0.10689409168848596,0.030384025033657235,-0.32101806862642807,0.30526637015076852,0.075542445767438154,-0.29162630280334856,-0.12696009603303635,-0.08565242679414814],[0.069894246098848853,0.062474395303887514,0.19511680508061185,-0.09779019113872281,0.18734278175847885,-0.02356792963998074,0.053379550915894532,-0.13130768267984352,-0.0076789209636267198,0.073727781540723569,-0.22822325779374678,-0.042352273702468315,-0.20827426453660383,0.014027986498662975,-0.14974668857052473,0.014155001551884167,-0.33749360805879258,0.096615958054086876,0.0054964773575507985,-0.010324552053011625,-0.025402582464880186,-0.16801679120660223],[0.043809901886902945,-0.091963423623124055,0.048266419790858391,-0.15507570634759216,0.11878407175107152,-0.023015189699028372,0.028021577829222034,-0.059570371292707355,0.016566449602722834,0.035155951366266522,-0.14185893899214838,-0.08055040768070422,-0.11310689000824307,0.091657655582952219,-0.15743411649762479,0.079506277258582309,-0.23368167245363541,0.033909480900593973,0.085750404244411466,0.2224881260382415,0.012868738038979456,-0.0092383885058241536],[0.19852786299481723,0.013793112285938084,0.052528127104315647,-0.037386482806623461,-0.032300587777617476,-0.076634465808183561,-0.052335258352123659,-0.098037873449839621,0.12396413750580862,0.11636959085181761,-0.1603517866831902,0.035286864119103811,0.0049337426508711084,-0.09712628352004761,-0.12480016566297245,0.081547947441385216,-0.31939886935454675,0.20102942189903822,0.20103503386116042,0.42386023795626199,-0.11070269736851238,-0.019402099625730373],[-0.018880319033522254,-0.013513767453319189,-0.00026306686313197166,0.022583300553645776,-0.06562595865580774,-0.080487587503140126,0.089880797114322633,-0.1349912158729118,-0.028667893470361427,0.114241327276717,-0.12758313640088817,0.14424399423392681,0.038272012668146893,-0.13446952810002752,0.089839160548288499,0.10540075447418799,-0.13499611670074343,0.022528785602868934,0.16289630410041928,0.21800875691766025,0.0085604008925287099,-0.098509174953608614],[0.12368639508878405,-0.16072514245577635,0.029072114766764676,-0.14394590771009616,-0.11641665086886903,0.14381584271183767,0.089438679833870341,-0.080216685415343034,0.10159865212363574,0.14261797971848769,-0.070596332225024719,-0.089705174121632245,-0.096246300637300997,-0.046093982071442781,0.071305493753110544,0.17005979612248454,-0.25521750591394249,0.13463776195812563,0.16845000279033065,-0.12135147205529681,0.30392822636736538,0.011027558534994583],[0.22552084040875611,0.053841231635695319,0.026056552503571501,0.2437883080833548,0.15864445079718251,0.17825451752224378,0.07543240998837128,-0.021469225472834107,0.021668093091438988,0.021152240994027658,0.085960342349652621,0.063766253795275452,-0.087373767711852388,0.013443598130563134,-0.11315910807497942,-0.0055861222805601869,-0.060921787969408191,0.26848553885549487,0.13513032738387545,-0.28422366448131775,0.27559540365922236,-0.11489955778010197],[0.23833423855708599,0.12181693911930776,-0.053003080939871577,0.28599282452078406,0.07558675864471906,0.074125747071220327,0.03419335574712902,-0.087324327976406296,0.00022230044901584963,-0.017648655817119007,-0.10851093036662772,0.083354299393514811,-0.096620443229807451,0.18845855265503442,-0.085034472779842857,-0.20735849542683069,-0.013761524186521809,0.21814787374304873,0.047448625218965854,-0.51393288118120406,0.051338227084317366,-0.23445192586299377],[0.15556242966869746,0.004970205916716066,-0.11836723472025081,0.13566713554886561,0.05615764530501588,-0.025993633331404729,0.10390649524233418,-0.20546339641302905,0.014407450359166483,-0.11415626830715749,-0.43153674296120603,-0.034202173547690062,0.27696733217759845,0.43982751889442273,-0.29785323726187085,-0.16064656315832304,-0.0062018472543565089,-0.052587034536626685,0.10580960279742387,-0.55265154463011501,-0.1635176814334528,-0.057718817795624995],[0.21320050631569956,0.051211391439906682,-0.17906549614571332,0.15600295501586103,0.12605455376786245,0.16431080952340099,0.36324459279886268,-0.094573449443855498,0.14694634927451455,-0.12659161832733984,0.17819813273213633,-0.32153279487255082,0.032689823754606842,0.49156572120899761,-0.027703988830213737,0.15205513711692531,0.11474473917031609,0.1225409738988745,0.12415295927078399,0.13116374543825968,-0.18122716447566786,-0.3101353803373374],[-0.035565792134483257,0.0075321975351793063,-0.15602880595671945,0.024881192892620058,0.16752586494508828,0.011134222448914037,0.38154898590093189,-0.042482654984455498,0.12349804571608472,-0.00039063215913941976,0.041050189616961996,-0.078909270351050123,0.10549611523094998,0.51991080761069175,0.036037647463901999,0.25030077420540708,0.14307218930705512,0.15170722959135594,0.065636379955278989,-0.039950237869412715,-0.08160720983124306,-0.16052268472840947],[-0.11917093769531198,-0.24255308639948861,-0.059451143937508964,0.10871216038174883,-0.035957441183865908,-0.013678716583066405,0.50748910537961311,-0.250522040614652,0.12875305859442029,0.10694280817146957,0.068422939333435143,0.15566797362119711,-0.20579027588228321,-0.060740632233640089,0.29586918636983484,0.27296252485465411,0.20705459007398369,0.24254737780059307,0.080983592897546225,-0.23318814153705705,-0.13869021531091152,0.074941736748556767],[0.020678596740350202,-0.20560690234998308,-0.0057854375895078488,-0.028653283821397958,-0.31027295688342205,0.12393129076762402,0.065537808548925852,-0.15516787343015886,0.061526588185872484,-0.058701669272655278,0.131018985979241,0.11551999064305643,-0.065882499937893552,0.076903231537495828,0.36907380176395266,0.20400374991619064,-0.071010980032361046,0.032218523710614136,0.056431768863748878,0.020346635228588178,-0.077405520153507434,-0.012627902204979773],[-0.0080284584692597444,-0.10391271064068401,-0.076487350136967475,0.165776028492575,-0.084998487225279723,-0.13967702317712896,-0.1997193675455381,-0.019309167573908652,-0.018130366099824852,-0.020014169541766429,0.020609403224284877,0.0075247481063351399,-0.11896102505393701,-0.0016294487207153708,-0.16408250931876328,-0.17006973519456445,0.056574069667071812,0.021836742877818109,0.039740407337424309,0.089570513587637401,-0.10051700063283525,-0.037247993855712848],[-0.046889788948015293,-0.080822857181328256,-0.24870164265397388,-0.023887404165353104,-0.077530981121893633,-0.22160930020478917,0.023549856453994641,0.00022076293490475712,-0.046996526602736226,0.01806814505184328,-0.031070279614911926,-0.11111747910553035,-0.091408134860187312,0.046665660582385311,-1.1073159690080936e-06,0.027222816175435691,0.037134115214261403,-0.13778313407767537,-0.082154106285662609,-0.061194444683859955,-0.039059047538265543,-0.066511110913198765],[-0.14389758558946419,-0.1095746714130868,-0.16148022485964553,-0.0076802170630218998,-0.039682287689483446,0.015304064614797462,-0.020867838513993132,-0.016507202848250069,-0.049925525278009975,-0.2231603678636094,-0.052512058692164548,-0.038954567310763515,-0.011495330744455717,-0.10019716113786134,-0.099176623402410458,-0.056421952543404208,0.0032891657739415672,0.072207484606662459,0.027371019106566544,-0.037015119920558115,0.018165071390046784,-0.063026935862014702],[0.10389460472413278,0.060503164278808731,-0.067294197105944892,-0.10649638579927387,-0.066729175120764483,-0.066856495640933197,-0.041654790705316525,0.010767070183253603,-0.069122502167862837,-0.096552465379310753,0.013320141138659473,-0.053010157262292856,-0.20023126238519642,-0.080852423178995048,-0.050647293476553598,-0.092590935144143627,0.0040412205587943492,-0.10914247032630595,0.0089134366095745682,-0.023193700349732196,-0.088430410048224217,-0.063107300691051124],[-0.023560833575435893,-0.078184588104106223,-0.051768142638200357,-0.16972574616362698,-0.13469072432797857,-0.032950865226470248,-0.12532622155061962,-0.080519722012988404,-0.042246731659971483,0.11147265774251286,-0.14251819007486871,-0.08620254776712119,-0.13278078177897626,-0.094983100005720161,0.083702236149413634,0.037467503723250549,0.047920757174935068,0.015166030193084781,0.042947399398041035,-0.097329789201840156,-0.10917161106190942,-0.078885852995143391],[-0.045429004743719366,0.060201394974395896,-0.059059893427844339,-0.018654086453676527,-0.068874607116854794,0.029742339028894775,-0.011092229389423381,0.011718391839043683,-0.0040780466519338802,-0.074101037016558013,0.025641375195503704,0.022145844187340502,-0.0071135028382969361,-0.087022288668702014,0.062217001785713134,-0.018899363407786609,0.018499565393968666,0.031251738957369234,0.033143667507854392,-0.045594578314105863,0.060866204272795828,-0.020797136775111445],[0.095521569025287578,-0.042795288258628661,-0.061503115140633433,-0.097634639913186383,0.01683508951808152,-0.11987735643762015,-0.069236777347374018,-0.023112338964821403,0.019148009924699456,-0.0083118728251993304,-0.1489425453444902,-0.099499413485401811,-0.021961810126120935,-0.072192063916066945,-0.0034360411565365762,-0.075426369435088431,0.026379374576735136,0.020498544092440424,-0.0464494352561678,-0.1205054477897913,-0.063611522324192524,0.098072378748939315],[0.071478837426020458,0.0033791907453886161,-0.059634565355144643,0.031853233132628798,-0.026021121665987912,-0.018011756251688646,-0.050528446216598695,-0.038681037832820106,-0.097423865760110945,-0.079072430098676733,0.0068215661191632845,-0.084661835983729186,0.061786515003182059,-0.16482440298288042,-0.017440520293504867,0.036051714762505287,-0.045923800319480665,-0.01151469759494219,-0.13537887715659522,-0.03105520985138489,-0.087360295487526829,0.030668786046278339],[-0.036835638604909286,-0.052787629810644346,0.0018423066443678873,-0.15504176717457757,-0.041448190272515215,0.043067940696068292,-0.048279433078991837,-0.088590507787725634,0.042024354852820432,-0.04395759920458326,-0.074589409570999021,-0.0012236687005395402,0.11555281439687332,-0.042754984190491646,-0.0091580058900924757,-0.057015971000130714,-0.098034937521366244,0.019353353177617917,-0.048204891628240196,-0.079489953689668963,-0.013530237372458051,-0.019916238395248538],[-0.031583699195821928,-0.02409366314311874,-0.16442700949990294,-0.0060954423361907371,0.18442784334153511,-0.01838320227918603,-0.1594980741328702,-0.052203309355932974,-0.025979910495974728,-0.032859105029927463,0.16552614562233189,0.13886344704682305,0.071079149314300427,0.10523777667317694,-0.19123199757243234,-0.021391605592563513,-0.05932750497242377,-0.072055433618292045,0.0045133315859294159,-0.30454150541757719,-0.012689196930672624,0.051739377575267358],[-0.044398539759121509,-0.035774949386367438,-0.18881351055587503,-0.20950512409566896,-0.012503616843222083,-0.14894802832370654,-0.11164165175095374,0.039039993880785981,-0.013914479459394388,-0.016359386499838754,0.1050640181198553,0.059713564585938822,-0.12870216943685503,0.1557191401130813,-0.11296577917405468,-0.035659642251659886,-0.1312359853281943,-0.083065581232500726,0.18104366816729409,-0.2513048038723999,0.062595459134857936,-0.0018035708341638636],[0.12112847421118632,-0.032317988508815926,0.021867039017616465,-0.099605636251518553,0.052681587349968854,-0.14271396963870459,-0.22230236280391574,0.006104463686352723,0.028788107858536742,-0.073333284159531428,0.24159180161819185,0.23134878379680482,-0.10896464696494433,0.12012233734396423,0.22323890836752583,0.0092218963060722321,-0.1082345241952553,-0.17973107043176154,-0.019334025085057341,-0.073572188513791423,-0.07876503622812836,-0.12708441164894835],[0.0016204878130857314,-0.10088636059576293,-0.067134952899369674,0.0097096805815828566,-0.14147218407251,0.11220312077879824,-0.16998758096865263,-0.015988083011314453,0.018802970201500031,0.074020745879744956,0.18891904406115081,0.16380075674503397,-0.11182732215757069,-0.021233902329685469,0.26136680788129812,0.056426820109185039,-0.024328070104369815,-0.085761245734599797,-0.01358695573804897,-0.28645209765005497,-0.10615833476838474,-0.1219432794831911],[0.0075032072904626761,-0.17614846694008016,-0.083517541851796051,-0.16050344596541904,-0.07672488342645653,-0.078115698639107292,-0.17493165651963619,0.025306128678844585,0.19328855510455145,0.036253477964016664,0.23550766060636771,0.025576538356723775,-0.13142920639711181,0.20136870189663536,0.23092373824444468,-0.034467374774787021,-0.10488928941595972,-0.25644320100300555,0.01633665386860772,-0.098144275836258718,-0.15417773841741558,-0.014306324310934551],[0.098378916691602855,-0.15786624366094454,0.11483992907740295,-0.22463567542444124,0.11317838317758119,-0.12002756652577665,-0.16211451179060127,0.044297221568995598,0.24472105621792792,-0.089091710084793857,-0.15276754204050133,-0.079560546764441645,0.0080197737155125858,0.049975424279748916,0.15518297698823741,0.074665430575913377,-0.10771132484796868,0.21355986708204394,0.0099842471492531219,0.19313456183645936,0.059295976204101555,0.023521595203446301],[0.36421004583319827,0.088715333957525205,-0.20951539813326844,-0.15696684365764066,0.2142369105361554,0.1898268867726621,-0.016061663229248735,0.001815080414176012,0.15601906325044809,0.027929955378182127,-0.27400451990289959,0.04807422351742776,-0.1974468151551583,0.086157115493527073,-0.098882874783594671,0.15104294121291756,-0.16640426505621916,0.22221679677859171,0.1178535942716163,0.26044048501886924,-0.15176711105193166,0.28378093751313088],[0.42478184405621827,0.17521617771774603,0.1258397423623846,-0.18820577730187596,0.11557382124013393,0.32871664806042239,0.17400190012560121,0.018216933856527624,0.096076967246563491,0.10013620850862347,-0.50990777079112082,0.0048528407521329199,-0.14707129157966983,0.17758592448020138,-0.1184836205066092,-0.087917966174757944,-0.15536031206658429,0.065586948126035632,-0.013985137064704323,0.15292117066320313,0.20094227004587872,0.010763796485318595],[0.26868848466097844,0.06963113076603146,0.110772445872147,-0.19814150525253896,0.1709490666344291,0.028214259748805585,0.11307992330720175,-0.21607341133627481,0.063895801233985111,0.22846002821798989,0.06170794928923088,-0.043305839221698721,-0.033501515980574832,0.24113207932571723,-0.12694270390333026,0.016895048094165553,-0.13471792539625516,0.303572404160937,-0.12265397002218704,0.16205391100014102,-0.056150008528257224,0.082095486800111445],[0.12610756143413696,0.095941809352875468,0.024463633495412661,-0.013859405869266875,0.03313088017027227,-0.030775867149589183,0.082051522258662371,-0.18559527860040856,0.20842267900815634,0.2653094817790525,-0.29516885590452685,-0.013091331867911567,-0.20458428661556596,0.24637631262646503,-0.2498894616442269,-0.060338567453417924,-0.055656837316025672,0.033691432099257672,0.028523035821953421,0.51604840192759738,0.091655184602190964,-0.0079497303683017384],[0.032438645669440887,0.061470261123466888,0.28212958360605828,-0.080999409510651571,-0.17074178835796869,-0.020259613166266986,-0.0050239159722713393,-0.051934478147960081,0.12192863926569465,0.29695827311869694,-0.27547075033403745,0.13627038556509555,0.020283280877630403,0.18348821931627499,-0.05738050734830203,-0.077667951342226982,-0.19605607776916972,0.14531487807917856,-0.11455111345327287,0.80546152687013284,0.1190412768344582,0.051095559512760361],[0.049265385902808566,0.25523777017602844,0.17822223285594832,-0.077769413560522874,-0.14683188957322715,0.13216151703602411,0.067501541253734768,-0.062600509987596697,0.13107855068348365,0.39661158703595917,-0.27920040853171807,-0.24237167247519173,0.0392532304081998,0.21416583295699884,-0.069013272105512613,0.088624960098835387,-0.19337706445896932,-0.0013442466043061072,-0.19161200003239287,0.65450008348074962,0.20027851483980008,0.13133964729332032],[0.17121920580452044,0.2808410597660374,0.15449491736021598,-0.22724143691569668,0.064173795477029089,0.0020350906285115434,0.18051209240220592,0.012385480303505106,0.094870935666902953,0.091283630753712319,-0.31701427458472548,-0.35997278463152255,-0.080258616128543223,0.20786046646146591,-0.13083735373064964,0.15845689652259445,-0.32804505216249558,-0.14502010983056685,-0.047604542716740327,0.72988616667000106,0.03703863539145609,-0.09424360772953827],[0.27557163870529378,-0.064425080494703052,0.024920597343843838,-0.037795229671845537,0.069108464788082538,0.18300789936325468,0.12260776695757579,-0.13089633048952473,-0.042892902182098652,0.080633780063066221,0.099088976616542965,0.08629398090481423,-0.085138199455349339,0.10083928117261287,-0.046997378595014593,0.12490663608675881,-0.17810346397687249,0.044160569752475856,0.0048655078916002795,0.045640787387968465,0.39595964582075693,-0.080411525605341802],[0.32259279661161971,0.086460153507794651,0.024037768005073179,0.28110491487201716,0.29638650957985524,0.052379750241208597,0.047519041130596615,-0.048265037313999802,0.021043195557357862,0.073753704851050081,0.052416261628413049,0.0088547696056021467,0.17459716972268291,0.0035903670354460746,-0.2237480344758383,-0.013485311707257776,0.068574868388008567,0.15902605579183426,0.097111855374323222,-0.21100605197076638,0.37948684251784476,-0.19831069809785656],[0.075557171371931714,0.21625222229653013,-0.059223538835953771,0.23363485879788315,0.15395318863440272,0.10674925171276098,-0.074461927254224375,0.0098906304155223883,-0.018520601839802264,0.021582468388201746,-0.07711779152587149,0.092084258277670375,-0.15630199208090967,0.053225519186163035,0.051654069153812626,-0.033414262829071423,-0.11937657082767011,0.22606230517468567,0.057493199263086048,-0.51759275248155712,0.27042633442691033,-0.2315616238396159],[0.27187931458074877,0.13323841330070435,-0.14583214668781425,0.099599158931109766,0.13735255979090291,-0.0022185570063391218,0.077005464166916046,-0.021157797835423826,0.072930057577788573,0.10351243596870584,-0.42632672238005076,-0.073412128929322459,0.3645701557721352,0.55200084926203363,-0.25467735492092725,-0.013093771573039181,-0.00034477026726140441,-0.095516128698559938,-0.031707991314030792,-0.48598185098700625,0.055979973220871684,-0.15355519196321901],[0.030382434851678502,0.12714479948142621,-0.1081502759272822,-0.013496691712406344,-0.072416230410642046,0.15135804837360173,0.36233264633299611,-0.11550024074716746,-0.013895814779586914,-0.079663651760344886,0.35736455793991112,-0.33093007890999854,-0.049744233281882419,0.49118680812774462,-0.048258904519702876,0.14442624507297541,0.085987330078009946,0.22904615417467669,-0.10052736276317176,0.28213248759641663,-0.36840812482562973,-0.3350356629523728],[-0.094356871293947875,0.11007136003054083,-0.16668552316020299,0.11849033130344294,-0.057850542053326535,0.029209070302497833,0.43141991890045595,-0.15135724509684145,0.27534430322124187,-0.03265557569277177,0.13786069553538663,-0.023004744328546416,0.13051063178012887,0.51106236699680574,0.12267131834151486,0.13180243857867835,0.12781920359330826,0.072014100423413732,0.023597299305343964,0.058654472428432754,-0.048393270523555992,-0.13574665442156911],[-0.14740469529152037,-0.28081950495027569,-0.039248998128391298,0.065303081131502738,-0.16894133260835076,0.13579897558684215,0.34250383962180819,-0.17683281453262803,0.07004570308210005,0.06818574853602978,-0.020199466947957382,0.17451682027205284,-0.14803732925333365,-0.024351033426595226,0.26278809094790523,0.19446613955039685,0.049986168421881277,0.16216032630731442,0.053472825230055913,-0.20204988326502835,-0.15892139344310405,-0.12549792462929832],[-0.046148686453258453,-0.17930646720628499,-0.16475906330724238,0.082541891291355959,-0.16758805258902354,-0.12360257511079444,0.21026379308473953,-0.19992907203790583,0.12310226093164463,0.15236950634221855,-0.01264296962102065,0.12887782722552851,-0.25262674833651227,-0.19627289711954649,0.29012001000369536,0.20394955839743173,-0.001515989084803803,0.11942096347842124,0.061550590193416875,0.042191242903850408,-0.15145574094484049,-0.04392852729753887],[-0.034809053108873028,0.077509293235101598,-0.1192783148610822,0.05221787337491203,-0.019680465192642486,0.093023849547121659,-0.13080890651970639,-0.037302621511955389,-0.026004556344882621,-0.053790062821430021,-0.12943792667173126,0.16770499449107984,-0.22834331523600354,0.072840471406425814,0.011372113968494827,-0.059265842233097298,0.047584146741361251,0.097095950358799352,-0.13238343001354186,-0.045687453386799234,0.0030292281485428821,0.09771406772523504],[0.098443287912810123,0.068286108816819846,-0.085355492131713007,-0.091857855067577543,-0.049572234383077944,-0.10362733134120278,0.02216595622048189,-0.014162269833614332,-0.054048556531035213,0.051656055717532796,0.04578195191211986,-0.057932692660209853,-0.016249453259974716,-0.0080003906600564917,-0.062651535698360281,0.034217332459842216,-0.12625140646808675,-0.035099762775906068,-0.18961927198458625,-0.077930337968286967,0.028000644297968592,-0.078486731549359451],[-0.062852994969029144,-0.1056437987262964,-0.067456853955421475,0.042029234717001103,-0.11672312495626358,-0.024291535463526685,-0.10958568067215677,0.018252736279216253,-0.0049898205069813621,0.012734650792319641,-0.12182407072201784,-0.055255289709458436,0.11358807127496637,-0.053204343360279835,-0.068634450472042835,-0.077341889244048279,0.0072476473318815321,-0.13182410928463778,-0.060410235230843136,0.021920720177149175,0.096052785235997307,-0.056791312424259499],[-0.10923796935458541,0.039812176587242933,0.035459766906755945,-0.093608957771700127,-0.00096287925919059242,-0.032056547075529532,-0.058025894490135677,-0.077982487424787875,0.090701384645965832,0.023634432265895497,-0.039483995103547671,-0.0791802814142957,0.12544424339623275,-0.010310726689868356,-0.14074845207702952,-0.10775771069389206,0.039330725077312924,-0.078447775008481962,-0.034570169087750666,-0.083892256431153028,-0.055786428206470111,-0.11105742773940272],[-0.055637951424673947,0.097778317708860696,-0.088385936105566887,-0.071100497082138642,-0.043434964732005157,-0.0089537512127478222,0.030508451816923819,-0.051964852641463617,-0.11403608664960821,-0.043866521427800231,-0.12517148896924535,-0.066595802171970628,-0.11166522919079835,-0.02127432417075014,-0.058630715088715174,0.027800227655522695,-0.041018942402234151,-0.068230475355634951,-0.046825063230850901,-0.061453340571798958,-0.018564690417161907,-0.06632416116834644],[-0.044351529548760628,-0.062498940215279165,-0.058667550901702191,0.091416736593186498,-0.092664237771153762,-0.11965059121801566,-0.050980355468142141,0.027812525407402124,-0.041069062501091359,-0.0074767937570756962,-0.13917383386455381,0.071478224719222716,0.014520523620953102,-0.034111055771423773,0.08334042769190006,0.036080978387324193,-0.058236947011906473,0.05666771611228117,-0.052670115582241196,0.037481082324752509,-0.075840736597677399,-0.053822433262663297],[-0.027678349083485734,0.0021660593443368972,-0.043321297426665004,0.02569731389181823,0.00023080185891743987,-0.028241741561891513,-0.14915135349454381,-0.059968143511957575,0.037248263612168882,-0.012737565547064861,-0.049592663897553624,-0.014989752935664052,0.097986054838418823,0.040397836193074681,0.037158072739943045,-0.096784969265643839,0.068935960765852899,0.0083610520323652987,0.047294261576959075,-0.044429270014740785,0.013241406855868387,0.029057215199334706],[0.0076854947370374252,0.041734510675240193,-0.030312171180257728,0.023284071382279815,-0.11301266899569673,-0.11935020184745376,-0.11206213331228174,0.037973111497446983,0.03118427790178948,-0.090696068441996985,0.078703663413292851,-0.084195800780836619,0.019596527886648563,-0.01483784719426727,-0.04397985176475043,-0.10124675625603707,-0.11046228582671147,0.073546903659992641,0.054034288932628426,-0.022192364591052116,0.0093865758128315463,0.041822289345819864],[0.024224513574390392,0.0179306502261177,-0.10936437730505666,-0.059245107534990349,-0.0076199021462184727,-0.032232739424548768,0.054626363442376348,-0.051481894536254971,0.048153289814396684,-0.090562993740053332,0.016089736183614645,0.018221820759157605,-0.060759949956414899,-0.16777670552128107,-0.096927837728865762,-0.063721913834430571,-0.084290322056661232,-0.069789896469433066,-0.067199947760717818,-0.065165384678520066,0.049821915235930457,0.0015942680893817757],[0.025102347675860313,-0.046114866550681526,0.020101514003427835,-0.0044418294184392984,0.062589897709408357,-0.17950788297269776,-0.034760070803255598,-0.061036212450054951,-0.11650981672519892,-0.031297870198434462,0.18884900717291223,0.12442513404369238,0.048148255241339713,0.14859919345271599,0.054119335048897925,0.034102734173838321,0.011872473633172349,-0.0097397280111488106,0.050015691663051032,-0.29361412246610374,0.078901115891885878,0.17376476446018949],[0.03154050380888776,0.11265903687176174,0.021070471103733099,-0.059511931451097018,-0.036365092666992116,-0.19777735118147954,-0.070113896143481694,0.076851034178386401,-0.078693538645788402,-0.035418527413581952,0.016397851746140814,0.064062496217706974,0.044823337518542172,0.15585860952652333,-0.22015297547941293,-0.10824725260877256,-0.030486573450779368,-0.099394159017952316,0.023862082663410427,-0.12899074081337403,0.23430639886210516,0.15082677790675464],[0.031107661802709113,-0.036888063301086668,0.0048779584775441335,-0.10834307177353981,-0.099545511891521027,-0.20449737821357789,-0.053620337185002878,-0.0017350252323047974,0.074963938429224983,-0.10857141156232684,0.20394435744352277,-0.05979989828255998,-0.19725963531384211,-0.0097232068978540687,0.079288417215373205,0.011619538187058433,-0.0078234115477807814,-0.17733669004519265,-0.011581439957205075,-0.10758167567514607,-0.08603045891733771,0.028313828634540333],[0.11653996431993327,-0.13006855682688218,0.018222891480556374,-0.17935390870816739,-0.094849401416678178,0.0094466018318434698,-0.16539924787479021,0.11689455595206472,-0.03960157329940249,0.042960669806653057,0.28132075703816567,0.084931010162528603,-0.02080279815963813,0.02112793349604478,0.13251770882396408,0.026310567518203896,0.064474816461722637,-0.19265673007154122,0.031819366091401687,-0.27779815856682133,0.062322653336895524,-0.020359817854503873],[0.10470384085510437,-0.32122059486228888,-0.16777389681048821,-0.29898551517467714,0.084629215804511729,0.086258792636170131,-0.14971044706674794,-0.017367534367012234,-0.0030726839027108237,-0.045538234771869301,0.28102143851408223,0.035005841755305321,-0.15626278109410324,0.3516318292548245,0.07468185844307719,-0.095595442932253041,-0.21083251019100008,-0.064789819317582167,-0.015505823442511378,0.064817461771832147,-0.34472580768614303,-0.043848026346866534],[0.21052514122667504,0.038639781839195662,-0.042309410182615588,-0.30343326591216196,0.22274625616947191,-0.10962699744975983,0.034006949735264989,0.03170896192196164,0.30774926123664448,-0.12287112024582279,-0.17996678691878359,0.077633791116588885,-0.16936198320810156,0.14301648679871104,0.076423550656703435,0.067254413451724698,-0.33357927072848115,0.33029956309480363,0.041879623369681096,0.6733447337252364,-0.053486955799955341,0.12817191256312177],[0.3292083811026888,0.20457490806250223,-0.084297616154874883,-0.22777986214872603,0.36278995628872351,0.22129164432747223,0.037382408554806651,0.045481116798224995,0.26704798292786536,-0.024781227540447037,-0.20713932906246271,0.15829948470091712,-0.0494675053812706,0.33132564104608436,0.018728247943788735,0.042838094046761949,-0.26203274698862583,0.3038019393178169,-0.038606558277540802,0.53477056552867519,0.11056188890138843,0.23803417836483948],[0.40487041126522078,0.15492492956303805,0.24497317077521139,0.050814777106763527,0.18338518554334832,0.29003288292314672,-0.027833736565944296,-0.00022218743892805161,0.14188516463256029,0.22286731663276538,-0.5167632095676512,-0.046907982731613868,-0.011123037050124011,0.38162192563591135,-0.14572959841898084,-0.20772620573822029,-0.25309523691076818,0.14220600624459243,-0.032282343865871491,0.13006043711839996,0.35089650175476106,-0.049799963077244352],[0.19770386607454823,-0.012153671138597598,0.36800988365459675,0.1058478545140952,0.17059826881486356,0.18190703683615309,-0.12096656624198389,-0.27184525581726798,0.23251216561592372,0.36132661133183031,-0.1317876074131798,0.080831945797053301,0.070889592121430797,0.18279748025504183,0.052186268194224977,0.0017485740282204446,-0.20151334291227369,0.27375470652990314,-0.045580801922519329,0.11694562655673767,0.26395576032856161,-0.035072142806908929],[0.22664190044881066,0.12126289015712659,0.34465766048697788,0.057498646140362528,-0.037727151068583299,0.01708036369487111,-0.11675176399030594,-0.25087633813924032,0.11207541755211034,0.57441621444502566,-0.33235761143051729,0.13481927298706559,-0.0725935425188525,0.28429144781789362,-0.043774520815323084,-0.017575243059696936,-0.037554639116641315,0.23796693337431413,-0.17236418425515221,0.29901396221532134,0.27277318238160314,0.24509557152226855],[0.19115950297132081,0.37349865662454473,0.27487249329773772,0.048401954659238522,-0.16589779762787116,0.19090423293452186,-0.20143993464875073,-0.27689030474902271,0.078260753567634275,0.56334689856200659,-0.12399707432139365,-0.19040486079715455,0.26146159307527311,0.20324445391118595,-0.12039166336088454,-0.0094606414773471762,-0.175310775404593,0.034653544793938333,-0.1029925618662942,0.6424423379296037,0.14342070017500169,0.10272109837028678],[-0.048997020207905265,0.18545541307147759,0.18935868362313704,0.19682666037258789,-0.24466253883481223,0.012776433155596553,-0.28750272982620501,-0.22602737971476825,0.073648259848007241,0.42751585639825751,-0.23251933840096436,-0.19006323963218952,0.17375353213245601,0.12773491234932488,-0.24053583518511315,0.02120394174542501,-0.24537733618990171,0.022035565879407675,-0.13119183293524314,0.65200322872915528,0.20630217149904978,0.12281704953061476],[0.11724588967593377,0.16922171955395651,0.12296549627163979,0.013768660438102423,0.12502850410412103,-0.068191873645742473,-0.13079867657185423,-0.052870144907017136,0.06084324398892544,0.068115948382846223,-0.36294281699568998,-0.425626732229413,0.090488083145896445,0.17836198642861092,-0.22138935209211855,0.15959065044374143,-0.29113861418378001,0.24753118240064953,-0.074140399065341672,0.5788777658355142,0.11983065641821418,-0.070933621114148526],[0.24978133350213241,-0.050229044051198685,0.069966979017513059,0.10230350556002583,0.39188928330031353,0.19984236763342972,0.10273932406046912,0.0068063290399337176,0.088616332606239162,0.067273195251575713,-0.18497194391640487,0.004906814285142256,0.073341333386026913,0.26640469522001614,-0.17805371067621809,-0.029991588430822565,-0.19690507329908133,0.05920802012433992,0.068847067581048749,0.10395094205390024,0.39507052653572244,-0.14498455097188456],[0.44196608996504272,0.19190078595790758,0.030798837287003649,0.054863843587773513,0.23427893361714436,0.24099327519654823,0.27769796195094104,-0.070648976844928824,0.13225097274884459,0.062884674230371654,-0.12728128039324541,0.027368012057639696,0.19642487118029148,0.065147465958559109,-0.21281279792552657,-0.10806462901903204,-0.32125730539300729,0.064183034809147596,0.035421181641083772,0.036604763227834555,0.50764546271684186,-0.22095250857045048],[0.29418855862991428,0.16976258480613754,-0.015043490413525111,0.21600351345596122,0.33101980311798701,0.12131434374879457,0.0045410219472720803,0.010092228594261876,-0.025010774570528357,0.049959234034660051,-0.0071205042204454958,0.014655485030670767,-0.081767427602147322,0.093799166057704331,-0.020252272740096989,0.068334254417422607,-0.15887275047005472,0.29272543813217533,0.11578657655443048,-0.41902326802585593,0.1444030270438767,-0.27410212318318555],[0.38423776809482429,0.081837301274069602,-0.04344202560680404,-0.10552240841307854,0.050380814944554528,0.060028512221908636,0.29554363935081174,-0.039046785030581406,0.1686428816309532,0.042987868615234848,-0.3509190983469051,0.20787983525377687,0.21113589496976293,0.44271811307808784,-0.12846386221225714,0.062357998516470024,-0.0099080945275438568,0.044667345910663042,0.032503633146643014,-0.16700117614233992,-0.11757653597141718,-0.24023287741298571],[0.16380922350253205,-0.09439947293145759,-0.15968455409494503,0.15822176425767029,0.031678176049617333,0.10842279902643745,0.16459151515520218,-0.15883607901592817,0.069808206000950709,0.037188847079924522,0.028269838872499436,-0.24426040552553446,-0.011109329070944272,0.3848546037836536,-0.13111849273652429,0.099535250321916346,0.041685883726906729,0.21749245593969957,0.12540709132837813,0.07953578512955467,-0.37685389754424264,-0.053131360625641548],[-0.047418927606674745,-0.10378705077740712,0.076447368534093563,0.017521651765220879,-0.005023864423821708,-0.067459039573152871,0.38661784338075661,-0.11875889561689691,0.32325702164296866,0.11479456902058763,-0.33108753324781331,0.029011104773974491,-0.032171671387635971,0.54954817809247702,-0.183833618863847,0.20369392147701537,0.040572014643871335,0.29541740162152158,0.11983785716998012,-0.15088239500356343,-0.39086690621026798,0.0040315873381369912],[-0.15906754242984728,-0.40111805397131767,-0.13791954063622319,0.042953020129386559,-0.0059114295428851528,-0.046551236172467467,0.43319393246973648,-0.20697384383229847,0.21251945643371833,0.094462887221089684,-0.045371344476696406,0.04815209669933837,-0.2664373501809717,0.039894978021837203,0.16246909553292141,0.090126965647414611,0.047777884801973078,0.17413833495191283,0.093955714977109514,-0.31619953287178681,-0.27751421070495702,0.00027437716519167362],[-0.13091162437091128,0.11666064162768139,-0.16430361172837721,-0.0020589916820897823,-0.18203017846039121,-0.11379644781594801,-0.071742395990995328,-0.26756231770678013,0.1182880113830206,-0.066988110750583016,0.14485211680396154,0.086314718145713468,-0.10235683114844796,-0.091897170851104937,0.162949118455266,0.09427983959020475,0.22756166118655763,0.024568435561081608,0.054364927106625272,0.021365846674578491,-0.095526470355660115,-0.079977866342112083],[-0.04818203342464128,-0.061292598835435405,0.0059273625381785584,-0.090941318920546327,-0.035639799092256057,-0.10942837309224218,-0.22120512955065849,-0.094494741341991734,-0.061897809028467761,-0.027691882987087468,0.03102674532449505,-0.037454992865109907,-0.15613345173188448,0.062605741350029109,0.056174481967361224,0.039036084703041103,-0.039265075125196176,0.09570877635328455,-0.014528868113102255,0.1351302841875722,-0.056185268944913692,0.0048726423492545844],[0.01819023835458615,0.075280830534765142,0.0035130448505715436,-0.11851849300668682,0.041958671391539713,-0.052281775506369976,-0.063935290306177284,-0.058992263194800783,-0.038780312253244013,0.011797639402882441,-0.12920839202326054,0.15816656501360823,-0.14330745692111782,0.18130582890944427,-0.13099736694626915,-0.024787148928092962,0.042957142829470878,-0.037664511665899479,0.075768278724685972,-0.09062352661198865,-0.12863527862246577,-0.01934423520312125],[0.034993042578127485,0.04170837761627972,-0.043630864068030371,0.043103469746240096,0.015706117192722364,0.086655311154693493,-0.0045579080159080972,-0.037848336881128299,-0.053465693551330989,0.031795432787759904,-0.023447370366580039,-0.01342679476097338,0.059058009185728573,-0.13550895600597629,6.0267848483348818e-05,0.054966477217807251,0.042001641379524148,-0.020215573091314935,0.085737311704029734,0.050159317912976335,-0.23447223067593279,-0.066555263504427933],[0.00081247123947862654,-0.075651253419907694,-0.05930233048420841,-0.030453892422793481,-0.028460045928121076,-0.031387507412667708,-0.049725481099844954,-0.079556014791965141,0.019060796748204878,-0.02139697727851388,