{"nb_inputs":900,"nb_hiddens":40,"nb_outputs":62,"h_biases":[0.16795295817375921,0.044155435889557407,-0.018903013583397837,0.074989659062667177,0.15138403892647898,0.14614369632197163,-0.11722804819960282,0.078525210341202203,-0.0059679925608855985,0.2290945140599403,0.07028267111833468,0.035104287077563176,-0.0030114705947720203,0.052477813759942822,0.041578062107889821,0.051676290213832722,-0.014305841319330163,0.13384205668177782,0.016917118215720523,0.19985518321939633,-0.0082723776226926171,0.11161512722076938,0.092739030597927818,0.183425124964925,0.27172565529105513,0.023651932842820148,0.064539032240180427,0.01291158378162242,0.14879484244328536,0.11199984736407111,0.12009365879385665,0.002048951978930401,-0.019231220413651627,0.17612539728853238,0.11278768727316719,0.18513083198218788,0.055218297420892098,0.019384487701805789,0.20811449296387416,0.038640217244694096],"o_biases":[-0.41382738944732417,-0.41801797600873725,-0.52524951228258066,-0.42560417677726509,-0.51414001464407411,-0.53030876408529048,-0.3667375723365246,-0.40441920616252985,-0.49450926457119287,-0.3212232721460232,-0.21835094399235652,-0.39108721791927242,-0.52956621890846356,-0.21879843525068643,-0.41753345533921493,-0.36467440399646889,-0.46661460805579735,-0.23683776433798145,-0.23642357779486778,-0.55166066770909294,-0.30630618323572856,-0.31696429888044025,-0.43683588883735253,-0.41049069660891635,-0.31532280968212517,-0.32136038676604656,-0.44632934229379867,-0.352005599447966,-0.34499064713523042,-0.42616300112338307,-0.4213849028800874,-0.39711123586583313,-0.41187118957599506,-0.32772944711692287,-0.32760231879699941,-0.45401603923195877,-0.24401713382669646,-0.49839303505961452,-0.35954139495677845,-0.28970571986971011,-0.53069037089048687,-0.31006378755464875,-0.59435530032636996,-0.33771312719833191,-0.18463064321905953,-0.48299667624711634,-0.3287250255103919,-0.35583431009596744,-0.22490703418756094,-0.42848797661145033,-0.37323468561449752,-0.53479663273793043,-0.37410802492160339,-0.31731640534328553,-0.48084071359480812,-0.58866182191968996,-0.54477887158016869,-0.40195258045804327,-0.37684668173778563,-0.50966492901468019,-0.3899802581286908,-0.21645596471824896],"h_weights":[[-0.064326175414062103,-0.01936264085190359,-0.024053844613810223,-0.022068293468504082,-0.1339628117185663,-0.089248094239935682,-0.12767624732705687,-0.015299809201583303,-0.046280825018667933,-0.13648080238069746,-0.024786744894478206,0.011027090150788281,-0.13762385874706662,0.071110475133117329,-0.032720576576939255,0.0075803966315531879,-0.052155790344979219,-0.095852179534977433,0.044732427802184178,-0.019348060758670689,-0.023912986305064755,0.036732139291017978,-0.096883846778945681,0.0047156071534927152,0.1127818439693494,0.031456063511530956,-0.096122521518115234,-0.052048444076870107,0.12167093842920113,0.043550843331033519,0.077663382483577681,-0.015414691247002239,-0.13836112254999652,-0.027326463086113133,-0.071428727871372999,0.03933877566397153,0.044631044463280527,-0.037915400924998947,-0.040944036637885768,-0.071639988683748185],[-0.0042808238277770964,0.028958178928963733,-0.053065657609486311,0.056394789574544683,-0.070747569115071518,-0.050217713727660603,0.0052030525438077208,0.042575394867131862,0.0024636014530449793,0.015893296709714885,-0.016183006577886346,-0.014662016131493826,0.062314662418604151,-0.090539465016793885,-0.045982515468149368,-0.049675227198435583,-0.020680748620345552,-0.053348651583890287,-0.095809215987282675,0.071327998150012756,0.066459192948789797,-0.028136783568284838,-0.022607465949729857,-0.076439995325035592,-0.067657309445447927,-0.02173367646475681,-0.030908353641062425,-0.047807631812185204,0.0033071181802969418,-0.037257703283301774,0.11118437443931933,-0.19368376258515244,-0.025581787127355368,-0.038207388707218168,0.026543141094361053,-0.029479610977032659,0.062718649819992506,0.033860195535294076,0.0098911963210150042,0.0018184038360235313],[-0.030868011208350393,0.05542555068577782,-0.03326567199200111,-0.0106375357332496,-0.029160559287182513,-0.001791354307342799,0.16212009153404938,-0.0045006015639702385,-0.13200695971049345,-0.021273720908830559,-0.12360542354679324,-0.099911576930583557,0.013443003408130233,-0.029895926544392933,0.069381918944626503,0.016911567167422682,-0.068378347794240735,-0.035712083606774775,0.0025903691515245797,-0.016415558483500205,-0.033861688464671934,-0.0034370260304669061,-0.093335145125656077,0.027749166917803637,-0.0046977973865306964,-0.032572496310587715,-0.024949128288203854,-0.056271583768720553,-0.021756147116224457,-0.13527179939112638,-0.10048593882056292,0.042715211572480961,-0.13526794019344435,0.0076476372785354574,-0.10165054279204672,-0.054835557619409475,0.023348546037263808,0.052725311392830009,-0.11256700864264091,-0.029264600872289083],[-0.092049401324510477,-0.06059776077404129,-0.01074280584710692,0.029521809965974609,-0.062809741923590831,-0.071757918178858598,0.0053934637566619356,-0.079632905368106952,-0.058299219941198743,-0.018047059474057357,-0.044118841492238756,-0.036141423699449393,0.030451435830995015,0.045136919787828293,0.014781963684978236,-0.12346347190182971,-0.091625098372258393,-0.047819256862565933,-0.044678694665630472,0.0033731690229279881,-0.021500281776494885,-0.053437657419049767,-0.14560891395493988,-0.01641572319157197,-0.048686612237878103,-0.087111856877004012,-0.019317085345721428,-0.013590506767058658,-0.022875871857765042,-0.076607989251899961,0.052525711442376756,-0.012949457319506513,-0.10318808316554029,-0.052347064778842475,-0.069256830112170653,0.014805038402396803,-0.053473054486139662,-0.082916073198358503,0.00080189978201621048,-0.10030012660958773],[-0.03971478106123074,-0.011635427721918109,0.023580427954147679,-0.11815487722399662,0.057630737486862961,-0.054360261996243248,-0.016815276204259266,-0.073504486729178087,-0.082629031355002353,-0.037047513123617849,0.083015988329185525,-0.11801775291672936,-0.055916798294025447,0.049940260910838703,0.046339923052386038,-0.040044472252453778,-0.028829769672647519,0.010641829864231823,-0.05674735395574055,-0.013307108257464256,-0.097784614552721305,-0.065400661934148618,-0.084779071757987684,-0.067437979095090861,-0.039467266815705518,-0.012993665868792924,0.055543666562225778,-0.026221589876971683,0.045093174765590084,-0.039824236731715867,-0.1886798677622451,-0.036210005454207023,-0.14937735874538038,-0.0035228223102331951,-0.13948908034055915,-0.090197394259526054,-0.0039683311995298322,0.11997675472035801,-0.017269198745953472,-0.086846698351824014],[-0.14961662724107927,-0.10184136477934122,-0.077260280424701816,0.045377261424434066,0.0058481622436339711,-0.098782570704089828,-0.087067684649588611,0.021313352123692571,0.091676402941160667,-0.020488628390594045,-0.020974350689265855,-0.043766921193287268,0.035687430713745215,0.0052817070693042811,0.025956486671370384,-0.013937091065450012,-0.00010053366911787903,-0.01480345987916399,-0.12459309436989463,-0.097269352502808215,-0.042243015787013338,-0.13056708636914055,-0.12599546377622886,-0.11929647718093256,0.0088205242999227149,0.038663568852767387,-0.1017762100823458,-0.041448851987841373,-0.097800760436399348,0.030232498208328872,-0.012098566493900804,-0.054793250982241193,0.028956712223523889,0.0082812891795959673,-0.074135423756029994,-0.09534775073080004,-0.051801661680599423,-0.052744318400540655,0.093124214417249218,-0.09483924239546393],[-0.12278295804391115,-0.084572205394587541,0.21217409023522527,-0.040793176890596174,0.0050023842684581432,-0.10024603591941861,0.010119032095904798,-0.057134386780081065,-0.020487505453765306,-0.16156050495441976,-0.051722021628480795,-0.022512161456090127,-0.058114871640456006,-0.067117362535902364,0.013925922632641814,0.06854465235080226,0.033132243819071532,-0.10818451888363603,-0.026082183621303871,-0.068768796234325566,0.027723983215835739,-0.044291974214210633,-0.062605756430183845,-0.02963133227783293,-0.020093455845952016,-0.11971414088516585,0.0074670870623487068,-0.0034919308492314845,-0.051128819124469926,-0.10098597907708765,-0.074640182530851251,0.010884699115341137,0.034869598544408582,-0.089172250000009945,-0.073506072743453249,-0.17236328639561824,0.040429388096146178,-0.065321338915183325,-0.093735728414862038,-0.14549287515170303],[-0.12622971545547235,-0.071687270201017117,-0.0062574711358893871,-0.09877936203616719,0.047704330234252405,0.10844092335459238,-0.084844620835434426,-0.011528026480261411,0.023469370246113876,-0.08389792645756286,0.017233664709959039,-0.013631760723026451,-0.030052403958246869,-0.12950090727168453,-0.14834291056035032,-0.054243938100253034,-0.00097223925480383055,-0.1518066277497242,-0.028488139496934579,-0.034754188371111425,0.014578421712245972,-0.11430411243896385,-0.1008822869225374,-0.0098149196501933975,-0.085009872055214736,0.019857362323656244,-0.12559759560890088,-0.0056845464172720662,-0.0038658864815192644,-0.085333397416053641,-0.081796152561640328,-0.18054573154234066,-0.030026731192367085,-0.1377627444575866,0.14806272744869406,-0.024620116469374884,-0.003540919971630592,-0.15159054973135691,-0.010933420028239667,0.028298882073907752],[-0.067585675263135803,-0.055567532628107576,-0.033788897576615282,-0.045028254877540488,-0.017461865060695983,-0.058938325156393162,0.014878602696921643,-0.058042866511475055,0.0033826038543651876,-0.0044936983399584234,-0.014281962373940783,-0.011399529069408679,0.059580792702247316,-0.082651782494356424,-0.010719953062340561,0.026124588510833102,-0.12433176504550575,-0.056333821503844,0.062091836472166671,-0.0074508893201846831,-0.19055986857629151,-0.032424103263749532,0.062424757950337771,-0.20359062332779307,-0.096189315653908536,-0.059728458309821264,-0.052846402587855029,0.059579544790204698,-0.017353204010558756,-0.056750828027592404,-0.044860018526922035,-0.04824775195738619,-0.017134988746565622,0.031211053269974358,0.045134031725611666,0.040081923618537275,0.030735875323773719,-0.0029518902795479494,0.10937752826083097,-0.03692420261286139],[0.00025721303488217273,-0.10165219789011734,0.0047275278386893008,-0.098983021726652187,-0.025125986748594228,-0.10599169329422062,0.040472082736270683,-0.04777836781768259,-0.15069381134811527,-0.065015324950840281,-0.069186709278649366,-0.04347224128623417,-0.061172423563505704,-0.026569186747856539,-0.077809419354439843,0.074408388616088117,-0.063706884178159201,-0.0828426903336138,0.010259803472909439,-0.037674729606576245,-0.18514562591274802,-0.057971458626728867,-0.0008305196739342019,-0.034938690625678892,-0.095390346664173842,0.13147640037650327,-0.24934527234072196,-0.060418758343263587,-0.075269074670669775,0.039141262795063712,-0.15400382606666418,-0.0076977761260489871,-0.028545227557007509,-0.075453653633367757,0.10779695075397461,-0.015447830955836163,-0.029617781644715173,0.013918375726483995,-0.039258222048201286,0.012015928587337556],[0.000454343557982545,-0.015558429731439158,-0.026149751725011078,0.0024823512777392143,-0.042002982617113549,0.082048533741491209,0.0071373291481018758,-0.025996338281202021,-0.067895985873320547,-0.10982805052968719,-0.060873974428743323,0.012764908086288725,-0.14092419286088137,-0.10465024420710983,0.068258564479227263,-0.016459777362465851,-0.092200531385812745,0.061966583602156615,0.0015219899984854832,-0.20289667170944398,-0.011729680437466673,0.011571002582560171,-0.12688033001843538,-0.16011796994393149,-0.16511249501964753,-0.0053123518110756059,-0.051796784931288788,-0.013913558800060243,0.11673118979602642,1.5807654114595449e-05,-0.013407225914129156,-0.10881897832190973,-0.052722455161783588,-0.095017359137180402,-0.07015241409617004,-0.028571093592941802,-0.065603255617807638,0.042350658090679318,-0.066407830874636406,0.013264002359691676],[-0.014668644411920631,-0.069436126393353559,-0.087666506776163708,-0.10215927366962196,0.025109164817379133,-0.073732744448779641,0.0485338844919165,-0.012704116933778382,-0.036908201015803846,-0.094637543073322977,0.046730657832340129,-0.0073692227283173803,-0.043621399269903383,-0.061440082903498873,0.024348710133252044,-0.1489037861603337,0.010124873201931867,-0.06975759699967865,-0.077436945679737718,-0.029602577424588113,-0.074045280708436662,-0.017771817877675553,0.013708750674750365,-0.083929374122989786,-0.025849236304147115,0.060343642286932155,-0.017602090887253924,-0.11203158384579723,-0.094870469721130862,0.016792515091356333,0.034765583079353964,0.019461699464198359,-0.033410710025751481,-0.093877081489837894,-0.045973919202127275,0.027987996029802287,-0.060972765705485807,-0.048581175287315183,-0.11502429853682811,-0.016600199440057407],[-0.13225113784861334,0.039201679760598095,-0.083573991362180897,-0.0050128840109750633,-0.0087356624427192726,0.0083970916649791227,0.15208743402789979,0.0044983939382181801,-0.056983453242275391,0.086173440857308686,-0.030335829293626604,0.056262446738117276,0.084864438477603277,-0.070049547017029562,0.0057039452893276471,-0.040877609382918061,-0.0021846699029164571,-0.010994049807586441,-0.059854323697139056,-0.12828713946157588,-0.086347452390341917,-0.086000198836746283,0.040498346840271961,0.0054232104909429993,-0.086902825586768623,-0.098100008701698604,-0.10121068518063486,-0.10213626578486279,0.059265147375502057,0.019450282882623363,0.00040421665807419127,-0.049597777713083685,-0.1115619996524245,0.018580321769311202,-0.020213341019488927,0.025126574073777455,0.035966403250590286,0.032624079057910295,0.062117936117808241,0.0081349613190280431],[-0.11386848644176104,-0.11519668822992235,0.016915213764394844,-0.016900648467181072,0.14230456820273557,-0.0083547689246062755,-0.1812843408499582,-0.010229361744529219,-0.067161617998314632,-0.18117164696374016,-0.11967246460492717,0.0010592624677336904,-0.012217213933841193,-0.05396971603923216,0.11564939982316236,-0.094171876048320363,0.053317328519342448,-0.011197415262685344,-0.011714651476765713,0.073350279509890093,-0.011649910487414074,0.007724145340841107,0.044132455402479905,-0.061544541765371961,-0.038135285638050263,0.01606218761185365,-0.065111339662209319,-0.040975861784503062,-0.066186850189580371,-0.047273136243260225,-0.091018503882868834,0.17229211869553873,0.051260134563521763,-0.046480646049910847,-0.04466273795071117,-0.048885195890699895,0.059228697281181485,0.010106105253586704,0.11695563804872805,-0.11293445742019254],[0.082873390774333505,0.0070899076888250659,-0.13554960614704761,0.027682926292442421,0.054296657681989109,0.020486704596664809,-0.104535020458215,-0.0021027482628485604,0.055096993621501035,0.014227499043084846,-0.10447081899128202,-0.052551144703220642,-0.10393477880442997,-0.088727062274063268,-0.060272088983665706,-0.14434653027511463,-0.055937760146458397,0.027002031648916021,-0.084159243385238183,-0.085580510369301033,-0.012881176082942421,-0.083668056471268445,-0.0071396506787211218,0.077386026501636895,-0.14862837988362398,-0.12151489047287722,-0.00091009885557431086,0.086969189050282308,-0.083529058453563995,-0.031899330263320189,-0.1446029737061037,-0.016009981130197786,-0.13170777467680889,-0.084583052570530656,-0.17498081739409474,-0.016348794649235047,-0.03981875055617988,-0.053803158006241802,-0.11488115187729936,-0.12154944660744393],[-0.06749856855794345,-0.042395750643432331,0.028874970331714031,-0.067713784099905194,-0.067074180336124417,-0.03724171885703545,-0.068547784454159905,0.022674340909148896,-0.042791083532851326,0.034056083419962475,-0.079166102562848478,-0.057105124184232747,-0.003439302545927822,-0.027242872524225855,0.034285533260318933,-0.074846710412601769,-0.014024274139180171,0.033985770750179493,0.0090505093483166169,-0.051899640407445019,0.0053234379220971489,0.10015829699288717,-0.073043857460729056,-0.084570614907949038,-0.027732139009098586,-0.041141463338637572,-0.095887689384626024,0.075463806130129152,-0.0038512504850584661,-0.10711331273864783,-0.010970333426324322,-0.06213104326111011,-0.0086193769999340225,-0.051868193527181555,-0.011135681381693664,0.13409239475918647,0.066996075002827171,0.072380492377331462,-0.0949376191189895,-0.080122926789211318],[-0.13267468828195397,-0.12427741145263693,-0.18004652896304824,0.0065826559505968441,0.065872594479742586,0.0044957269984255491,0.075517538139763196,0.030779712091495416,0.059914598872882953,0.014873188686465706,-0.020152168347903267,-0.15392984273334365,-0.071085391340234394,-0.097270652045049033,-0.045623168416442358,0.061183510042898924,-0.063133954773485185,-0.0085870353361703761,-0.06657384818544887,0.0015895854226353548,0.052684825099034237,-0.13110404524807642,0.11748416162377373,0.017530217339024809,-0.11389899732794795,-0.095931749180634518,-0.039250475125796463,-0.0062703967539747725,-0.093014275673122385,-0.12279446107613182,-0.067794652565524055,-0.085410325462095898,-0.082163371518504225,-0.12053588966155354,0.0024516696228149074,-0.023092248957705584,0.17047972775644527,0.017502496511319798,-0.038122803470882066,0.088992664532045074],[-0.045812014185479852,-0.039432524249767321,-0.032989171864780079,-0.016453005635401297,0.018755749447482907,-0.080824248605705529,-0.12379516994802703,0.065712196377889359,-0.058270101944376061,-0.026586659975438732,-0.09306339520610904,-0.042816903000932507,-0.050529106082727954,-0.091733524167201097,-0.034626643130717165,-0.084180598229248005,0.0275740941406864,-0.1167928621534306,0.12331579567434645,-0.020816735601631539,-0.19958454386370367,-0.1231344411510216,-0.19236823602760428,0.034430277934880842,-0.034403872259864458,-0.077264817875519864,-0.049844545980306659,-0.012351176915583666,-0.12028415203846854,-0.10634440670713563,0.06889395378369717,-0.071984468034077709,-0.083320795626014438,-0.021036199101317168,-0.084526993395922748,-0.098377596486660529,0.07805799385691789,-0.028248612311564576,-0.12852689547680324,-0.0032064442320709],[-0.0039716674275013693,-0.095068538968336044,-0.10119164552188276,0.041479560155720276,0.12238009130861202,-0.070600161853361154,-0.048777148931757074,-0.044718553990523192,-0.041066879954616047,-0.10878554010599459,0.066539941486899568,-0.068278203489570338,0.12830776912454053,-0.095711060621758132,-0.084626096047062338,-0.073090879794122793,-0.016566393420603627,0.0093605597851150885,-0.055912829166176445,0.038397917727634047,-0.12838715448869814,-0.096187709956095518,-0.033233098300535238,0.12875712474071652,-0.13394047239775339,-0.075376383706740935,-0.087561759750200724,-0.032137268882998303,0.023998501032612016,0.062710687139562071,-0.034460803247656317,-0.013779456780987277,-0.035002759520156052,-0.049790723903873735,-0.05993412797360978,0.035781561787548523,-0.049880891683627658,-0.0047904100704522674,-0.073083435866973467,-0.053949773103717388],[-0.038718198890967122,-0.18202519501690423,-0.060423230002468201,-0.10277909227381066,-0.084907860854705738,-0.11017172474828232,0.075487179245387837,-0.020557523091171412,0.073304884234039774,-0.022646694222884137,-0.14274319357917345,0.012008438658410107,0.084563732629475918,-0.060589381977253734,-0.096959872133750319,-0.05465217609157861,-0.045351335194855159,-0.037539462504673826,-0.033886277276628893,-0.078566232998508373,-0.071537563861302431,0.092873665655676702,0.005375044739310636,0.01246885730282727,-0.010605421515844548,0.026816490406568319,-0.085798133212550518,0.039712725558908903,0.044336479943666622,0.010857227146313077,-0.027660487309955524,-0.16923851615395849,0.1155625742771168,0.080749518953048299,-0.080530163604161348,0.018097225963201,-0.012975152678735342,-0.20156075741581675,-0.038980214033454773,-0.13096562833830483],[0.050913012359268352,0.025155833506686848,-0.073590648557628979,-0.018747437910466784,-0.082586093865091109,-0.014136615638827822,0.011677326402978118,-0.026244652438420189,-0.00061722215109210471,0.057867527599912975,0.083568382788051482,0.050134770487818593,-0.017252488566404055,-0.07000346431336478,0.053127303658226661,0.047081924305227583,-0.032075036900034312,-0.043591948011380471,0.029336479863514724,0.081727867869519771,0.036785263728793739,-0.12884587074241691,0.02183833197220228,-0.09528367052784395,0.0019071989199084954,0.033568786329351723,-0.041881507883064079,0.020333266935371304,-0.012138783522931618,-0.052289395413380658,-0.056995530003282335,-0.0055723743932335097,0.037237289392367263,0.046218346586156027,-0.036675742114700101,-0.033799486081933131,0.032006044353242676,-0.0055633203302766984,-0.092586268365750513,0.058419642076253421],[0.057092452172095305,-0.024883256384050062,0.00087012677566836172,-0.047216362140706181,-0.2176201262394348,-0.004124188496247249,0.079044830552344486,-0.09730022886502035,-0.033379979891519605,0.061932657341426271,-0.047520989700252148,-0.00068424201079879399,0.038328575008622225,-0.20628788048205079,-0.099642209510751784,-0.11333822937828919,-0.13643200389262955,0.0020732911983417715,-0.090511346653796482,-0.11103281041352436,0.13440153404839203,0.022397660428887009,-0.012207297146492567,0.023252747580172206,0.0058794838653779685,-0.011451276773314336,0.034241823238978501,-0.089332183530888898,0.085957118201141713,-0.048997959136994472,-0.069236253108163476,-0.046062084601789892,-0.10754786164754634,-0.048647357050817415,-0.018592186674412706,0.062927538385666087,-0.024270325360348552,0.02425285399843069,-0.036346763261839339,-0.040486946564982036],[-0.063660438499238539,0.032407759065132623,-0.046298896332120941,-0.00011893519251920948,-0.00051958483338244987,-0.0686756653404378,0.0064388428366374609,-0.12156891759329766,-0.14877399371769667,0.034782274279357282,-0.041412516411508865,-0.066454956008686145,0.0025193556662149591,-0.15717413265859548,-0.016976152519281196,-0.11877792699574488,-0.029221850961797552,-0.050346199805819773,-0.06137390931699091,-0.062569241736400799,-0.037148142450023985,-0.023250939290972859,-0.15886382215484846,-0.051995748079959277,0.054479952805146621,-0.12168681968725145,-0.099913760678306457,-0.0043807297567173796,0.021136382920489631,-0.10282300809850181,-0.051210558839316446,-0.039403777767513359,0.00061139043032316931,0.028347623192826341,-0.084926461358239627,-0.085098979942691014,-0.030113818986853683,0.10611186442622356,-0.12418237104271024,-0.13210036935934508],[-0.044645483666810856,0.15378168803711012,0.028612971661821786,0.043188184989833879,-0.050710091286516566,-0.12281521461637246,-0.11120355128826831,-0.0096866111080530053,-0.074909075812080672,-0.083904781176366169,0.14563131671270607,0.0037549119969327444,0.017866152997101224,0.17301530616870311,-0.073081617583057909,0.029096184558314746,-0.17591768594622692,-0.036114647616598765,0.045757701612823852,0.039631685110108304,-0.081056229313595601,-0.00049805014083472571,-0.16851404116660273,-0.043496641585680257,-0.038555211811232962,0.017144833448230749,0.012178635781184749,-0.070502040928146686,-0.03051647292861899,-0.071885643316501074,0.11133083382263606,0.028120753950136558,0.0010336728760200614,0.052334112612516547,-0.14064114776111747,0.099781419367230811,0.026587664997883328,0.026454909693045731,0.023124541740285817,0.021673384191744582],[-0.038024491566281772,-0.068067586428038257,-0.084657155407258378,-0.053164530043764646,-0.10959990913092657,-0.080193349601799066,0.056965935219528245,0.030033244177295977,0.084799446461912537,-0.055190852321190378,0.028973071160054507,-0.082051998483351513,-0.057910267815730943,-0.0084936556708694322,-0.079953281609919366,-0.086091812409485644,0.07485455467415067,0.031857018731170493,-0.01275220579399618,0.069661770099502862,0.029034384214143227,0.046379688708418874,0.083607666560311572,-0.033735189932665076,0.067022520077749642,-0.03378628550612478,-0.020124175846863684,0.015368530527993404,-0.025086135442191754,-0.043028006268313115,-0.013561674517488537,0.082450566712307466,-0.14075445628536729,0.00040200074510821776,0.015035334269390806,-0.03178879421003792,-0.13837690363033464,-0.031500911189551214,-0.0064745454072175565,-0.067762170490948431],[0.028791275785514069,0.049929737565343059,0.014731413040454784,-0.0026178330118293257,0.082848016533778518,-0.018702270409598411,0.0031858154654209117,-0.050198231083313491,-0.13717078281154993,0.055646155791492534,0.0099764256421948291,0.044355416335106791,-0.080912500933596698,0.10492983664292344,-0.093528332784398427,-0.067908421580164968,-0.0060363550657841873,0.017047078124467138,-0.045261763474201515,0.097232686296688964,-0.050562836358468949,-0.075641836693621248,-0.10472411335096055,-0.035233461606813773,0.10033517247202964,-0.0120778509293707,-0.033052633832385582,-0.063968234333030435,-0.03848899653312117,-0.062247254641844212,-0.12502266550959643,0.044580543791059614,0.034248270688479639,-0.1403076104485019,-0.069188963347062593,0.033190000945887164,-0.17800039035527673,-0.1048914995069074,-0.038716902540304333,0.042665859877151539],[0.051175063739941316,-0.060082300616477527,-0.086462236697412903,-0.0070399899177526759,0.041604428252706403,-0.080700137521193371,-0.037678128273749778,0.008875645601142193,0.018848687855156594,-0.04952173532128154,0.049291379102134929,-0.095190536879269899,-0.0051681410489530719,-0.062970627376908714,0.0044662500917726153,-0.096727885916580936,-0.16027691714257794,0.028601625329957303,0.02469283050106056,-0.098612495995853144,0.12133804218559541,-0.14141854941617957,0.00015187238211507303,-0.13572932205341948,-0.020561226774537554,-0.0036093394801117069,-0.0064280678914317366,-0.1055891971717875,-0.060008888002421615,-0.01170914166288663,-0.092321813051634172,-0.044642316283338181,-0.15718923132179308,-0.041677642276942269,0.0067042693728000882,-0.016536992022241594,0.020566425392877612,0.069857697915752831,-0.090783013808674262,-0.12097916026831546],[0.0052719944280343808,-0.015747253167514387,0.024484365069736627,0.007229745083625963,-0.096431206864840691,0.036016360078503208,-0.057674494411616886,-0.043476369241837461,-0.12257024315125939,0.03739051770821792,-0.048066050404662872,-0.0569481432534195,0.11049690503278969,-0.016954796084642329,0.044610576513570595,-0.0061086043234586211,0.092915578692638612,-0.038805811246976019,-0.12269289776799774,-0.05258167736791873,-0.042748058187947885,-0.058271519732294927,-0.03627512586661498,-0.039120271770586863,-0.022362703312561349,-0.057716114867615048,-0.10354135306107218,-0.10821771631207092,0.022276007191985726,0.04956188581099704,-0.040222730166342265,0.0028860331308713932,0.00014766484279069014,0.017971323933988856,0.046463755377543499,-0.058809505988464461,-0.077473483938711465,0.00083637753631881501,-0.046875752552234189,-0.042606950008992117],[-0.038516737966473688,-0.042221422798051779,-0.078086888839478757,0.037003077283668383,-0.15094312431366882,-0.0058629980798532398,-0.03117525982015068,0.092268160221054774,-0.093825313468356597,0.0062123947239854441,-0.072136706883708601,-0.060668526925427457,-0.0067311861228932963,0.032979531052230997,-0.10310188761706249,-0.13820147268453389,-0.03484526863321017,-0.2065607831401445,0.013935930620841079,-0.013957841648982033,-0.01597557248165166,-0.010120812071939274,-0.01428727732561616,-0.075640837527489319,-0.099798164021917352,0.008245255495593011,-0.058556365933068982,-0.063783213906178193,0.069380361574633842,0.0052295340849605326,0.021883802134293119,-0.021208621869048851,-0.15260125494604887,-0.060422856251702808,-0.099870997162563618,-0.0088488924246976006,-0.062234472232096827,-0.059265617323306964,0.02405848804589264,0.03590739878611978],[0.048710906567080985,-0.036244376491606514,-0.12583368586545227,-0.13912835800523152,-0.076803888913121329,0.03504322839319849,0.026581425380569658,-0.04866645770890804,0.046520168445238062,0.038153564607003067,0.012348117158408729,-0.16263229364261628,0.031263500649087193,-0.15444235183008037,-0.27686611988300908,-0.10967136798384297,-0.11477778598377431,-0.03227395862257193,-0.027411195288691143,-0.11188094219201281,0.038627680646516206,0.044257725599979196,-0.059315303478625375,0.0057935337390581515,0.045853363153813602,0.098730028141017279,-0.016816626780752596,0.00013183625984259512,-0.073865353153966612,-0.043331160730020413,0.040455532972181608,-0.089642892145779862,-0.10033718212961659,-0.14189896810909702,-0.092876694958198558,-0.048424287785336619,-0.089552708218701357,-0.078079352057744994,-0.050568476854153069,-0.010030308211568209],[-0.12431705124896694,-0.06338025896229553,0.0021421217705637832,0.045098818088013339,-0.014118940490231345,-0.090454370284760027,0.053629294617493183,0.08486722429302837,-0.11541651269552605,-0.094134467776988029,-0.093969280244363823,-0.089435980418955438,0.017944016426601886,-0.20002376784269899,-0.13855587749834719,-0.080603500770961664,0.10773348537618194,-0.028233272082254575,-0.062745885484102717,-0.069264618061978228,0.03430463237218228,0.13136930024070875,-0.025253263411972419,-0.042468916697167153,-0.060742349252105823,-0.037606304148190335,-0.022850450645765887,-0.08899654912404667,-0.14371722888584035,-0.070059955450290284,-0.049012849348035091,0.13112935440039106,0.04176098752594435,-0.041438333165912215,-0.12185229234946351,0.01448045150835485,-0.059962304578084033,-0.070798914270356589,-0.034470007239685255,-0.082021993457124368],[-0.095847116098462026,-0.064846112118177035,-0.052458223786420982,0.10913022313525753,0.077431567925089845,0.045047787178607808,-0.1297007618958631,0.01445703423009382,0.048594389521384999,-0.038187596581372607,-0.036520218022752356,0.019589004554539456,-0.11901799329743754,-0.068000169614043482,-0.076713091084381235,-0.042770072134106177,-0.02876388966956913,-0.028010989002816386,0.014517143613774805,-0.028448435837338529,-0.059296947620326668,-0.039274003786815302,-0.020864802815734041,-0.1647196825873373,-0.017434532117225093,-0.14800551199005085,-0.024324184934959289,-0.075447559023977706,0.060986569951182658,-0.092595927289151253,-0.12333084575264644,-0.066329904395886638,-0.015724870038763623,-0.11686431303594244,-0.036878611349276912,-0.017116894365613478,0.017796102674317797,-0.072211432017832505,-0.022744368249793596,0.056770667430054635],[-0.062503577260516113,-0.0018823857272187855,0.027382443250765102,-0.086240843660913252,-0.026916384130302576,-0.039740474890836416,-0.052859769149919272,-0.080939198995868225,0.043349038256097407,-0.055416158380286414,0.083323374820567619,0.10165143760167786,0.072538710699230458,0.027340477318445931,-0.0053872319155846629,-0.065497337843426179,0.038013364854752117,-0.013016342254210302,-0.036902665664738744,0.019926397766676096,-0.10481481829415723,-0.052628029913429242,0.030158969650693208,-0.077866757981121359,-0.078870399843002356,-0.011212754501529549,0.046789548038574859,-0.055946621575873969,-0.12893942567627747,-0.11138294270956728,-0.091913189253556946,-0.20986231389321139,-0.013899773817217225,-0.09314642659064433,-0.010328575761945846,-0.097243940849282839,-0.087646799968813097,-0.022952169049393137,-0.116002336002614,0.0061926735085824428],[-0.15348370610268872,-0.15763770443581249,0.033192063998487543,-0.047437271752244797,-0.085041334918695644,0.08017366102652565,0.00025742846157323501,-0.071128594184317384,-0.035446373794190154,0.0027083793851508317,-0.041820387555366871,0.0027612680941560691,-0.073150280190561051,-0.030988807724915302,-0.14148663026388328,0.033680154003873301,-0.078277842112166568,0.0014764271656979092,-0.086945626568392734,-0.073331840885039717,0.091016749989481421,-0.00026231183780729,-0.019545856052039554,0.046770815609294851,0.057686660269360542,-0.0086941187801925016,-0.13635039482498076,0.091798717066908508,-0.031583593839835715,0.047708302478304258,-0.023319683681330632,0.056666073603264554,-0.0042085485315362728,0.070875486338040583,0.057123384119425448,-0.089462946061149379,-0.0045634750196759111,0.049154731558057031,-0.12187560519036181,-0.085419140078439731],[-0.11306300610607339,-0.075815942488991872,-0.12955203107503688,0.0065424066842793144,0.013193900379919236,-0.070965038056934771,-0.047830184311760997,-0.041731701421191057,0.073806109174473139,-0.13437206496909984,-0.025406372083035325,-0.00070151178539930997,0.016235865482200282,-0.023041057231802428,-0.085212866879596061,-0.003827721427959372,-0.11905091802613985,-0.057840945787619724,-0.036908687963451224,-0.066930104367503906,-0.11664061367284545,-0.19134009826661805,-0.016721335928087177,0.025251708768346932,-0.0064680851811393242,0.034855950168351267,-0.074349364419215136,-0.16792042491720602,0.045775573552752906,0.039976518905459162,-0.084106117265728142,0.021506488977640383,0.043366016055499716,0.030990115846010989,-0.10536347596541848,0.027863164137222014,-0.17196868389319725,0.072279779859320159,0.06544947339882784,-0.032091065076763951],[-0.05582101929145325,-0.068768389633418289,-0.056312355482521483,-0.12700278759803055,-0.11371274610238544,0.022700289587617217,0.12069789671793096,-0.0075019827194404906,-0.10926131372932865,-0.12659484318712705,-0.019752787706543797,0.057534554358655766,-0.091328350441866629,-0.19057063763749432,0.033411906629064812,-0.071932465174027863,0.020800183652674498,-0.13986036546592817,-0.097619565677033004,0.0066373767463248148,-0.0054963257086842257,0.075704059288437958,-0.054980623246836252,0.078956122802576634,-0.10040139641626911,-0.10141254137227251,0.060344646811955248,-0.071121083125959689,-0.092535113940990732,-0.014176084023271251,0.022738996876320278,0.00534028807761084,0.081236504690349043,-0.026525623045653625,-0.098828021874521305,-0.052171897647891555,0.041576520755727132,-0.14741562204024553,-0.11409319398140916,-0.0087420104615209375],[-0.018268706226928395,-0.024342924002673787,0.072934216928773637,-0.032774419114975577,0.0070169427519656685,-0.018711205806704538,-0.036602067056241444,-0.16435830932144196,-0.049612743205884324,0.0052297143598891496,0.1123968099772655,-0.10481502671433024,-0.034592207326483451,0.034312655713447306,-0.11180184010632174,-0.022529843559382177,-0.05122312044764004,0.079142899454918064,0.049290174775285293,-0.053659856663459918,-0.068773161929922139,-0.081943277446362789,0.027718551712629769,0.015314351878242441,-0.063335200026413213,-0.083674504531515329,0.044499522098636814,-0.083639153265586075,-0.04784871930538618,-0.035957629028147434,-0.056149594029822149,-0.025654586474668787,0.008840074647338908,0.017371604231511094,-0.17650975031805491,-0.072615659393155785,-0.15539840370687275,-0.052279563252534036,0.066371448838179137,0.0029763964160404374],[0.0034904290279059585,-0.067278147214386436,-0.0075746704264075121,-0.034430454287066259,-0.18908727823890373,0.048311105095285654,-0.029844690864291083,-0.021717266390529184,-0.15745963463181886,-0.035295020240489451,-0.044878456538523237,0.0067475923002991781,-0.042627869434049781,-0.053789814368586708,-0.10133929230511002,0.061174210269369124,-0.026187182193284343,-0.005171650052184406,-0.10023810078359563,-0.08881000821762973,0.12478927603953008,0.029655930435007354,-0.12841599053032901,-0.065144249315039926,-0.048917426766311917,0.01898072500214202,-0.060670267418040991,0.04174446092073545,-0.024533774778331671,-0.1080674744014849,-0.062777388180892374,0.059453095590904038,0.03655715421344586,0.0020930785335386698,-0.10103682244216383,-0.094757351108459911,-0.038849844541667351,-0.076726602017604117,-0.083540443637851708,-0.17911484599892386],[-0.097006436628528731,-0.028726903872708487,-0.048678095522195278,0.011696947545473547,0.046692743868260576,-0.08794515008319817,-0.082091578671771429,0.014795621880028573,-0.098674367426490162,0.10868104321791522,-0.033998848427600592,-0.094804963599736281,-0.032081209035202993,-0.11708609160822214,0.029842175747487105,-0.12690976962323636,-0.032760643116868757,-0.034504866783015321,-0.029723078503665491,-0.076808378619343573,0.048648694821643836,-0.032499703838220442,0.046916340245110384,0.0072811922989671554,0.027690019623819145,-0.18560205559586448,-0.086086087521123955,-0.15330752460924751,0.019142692545353876,-0.027253534398721267,-0.1458365530720401,0.0021103780296483771,-0.08598497295546606,-0.071597800126535688,-0.032160956608822948,0.06716330527913969,-0.15350445775556007,-0.072156279903057924,-0.077933545430292905,-0.018170952378860426],[-0.086306101597293544,-0.029114441911158067,0.0081551090690742609,-0.0094024026292180603,-0.030877866770811103,0.099014092583564389,0.007157168571029944,-0.019466944269722671,-0.088557172339363124,-0.076343401370002478,0.001424100030044409,0.029350249779349739,-0.07773562415395284,-0.052760862775582437,0.11768118158173493,-0.10117531372570526,-0.053195265642602602,0.0028710157313662776,-0.057489944401592254,0.0092322086934141998,-0.015511007295054363,-0.030219768565740154,-0.011139233128504518,-0.053526471333491692,-0.030622234153117225,-0.093186819711097657,-0.052933621911719797,-0.14388825703530675,-0.026370994932499565,0.0055027010746383151,-0.048317762723593359,-0.087678414755771872,-0.096609515837364351,-0.037259442948512793,-0.072443560722743078,-0.0022434910081107762,-0.069047669597268935,-0.022428566495982714,0.01885549001612627,0.012854727642023785],[-0.012717208059410668,-0.12318964158376203,-0.082330266904115962,-0.23161575573396545,0.0063668791817630757,-0.03921898746951484,-0.02972037076464731,-0.029310099036717975,-0.060307345316290839,0.031218667903289608,-0.023970815061088304,0.087258234587334865,-0.0068444205223382147,-0.1894079718357039,-0.026784451095677224,-0.098007197026629023,0.035403498748935745,0.13605332817009666,0.02597884763319936,0.03097935099878129,-0.01586217684378562,0.066306933412948965,0.0096834026885536453,-0.00037231701459031208,-0.04530810389655434,0.078745343897649728,0.030740676106175667,-0.19606511325912848,0.09090955775198728,-0.011661367829355715,-0.066679163879530906,-0.10592946802389533,-0.10089155549755352,-0.021977036467992914,0.025503084554438962,-0.13213275051495027,-0.11452950036700038,-0.07194851120914364,-0.022096760711056995,-0.043542761232825841],[0.01158526229096532,0.053766735228809433,-0.055021969808707813,0.052815197701198462,-0.08094711990902273,-0.17703377571852869,-0.059758249444658337,-0.071013739515915913,-0.12484373588809844,-0.055092966663449483,0.051198371662760277,-0.070228097339071649,-0.091376611710603656,-0.10999275518343393,-0.015527234318772475,-0.041254822069892616,0.097534530197482427,0.074891673783314461,-0.06794841024150941,0.1294989683511267,0.13836487766389058,0.041583577024065614,-0.070836943267166552,-0.065152016285742853,0.001925730642528739,0.021420790079484713,-0.16472836333301591,-0.0306115916426603,-0.020716575961340376,0.052425290733104986,0.022051282765350295,-0.16007476936784903,-0.045439274590808931,-0.11766076106962206,-0.17761790266597582,0.018899541819841763,0.024588757061422252,0.1158383930060809,-0.11482803490213286,-0.0089523903997976925],[0.0087576907882089758,-0.027756272021817026,-0.0043770160925216579,-0.044027891492748134,-0.067596452595058115,0.00049512936220418025,-0.0390588376324996,-0.13752728812961143,-0.060283525369378019,0.009993660172304894,-0.080620558015539953,-0.097233369391838714,-0.058185061572147853,-0.042153935685137714,-0.07476223075032723,-0.11202423589179877,-0.029184832256643291,-0.04505232297363386,-0.038406349976831358,-0.037653143107411392,-0.10919653334250834,0.084988359791178109,-0.1305194722948978,-0.11295140009678253,-0.15408243432412549,-0.066006390455030692,0.08107972001846353,-0.022205303366319366,-0.062756707916396273,0.029805630463471407,-0.0326378794795881,-0.010425349637073245,-0.019429746943823913,-0.1781216794919559,0.039656997722401006,0.0040122951802270546,0.026728205341197589,0.0042084156508188364,-0.071838603024135944,-0.098847568684244935],[-0.004984473256932756,-0.014731133961993249,0.10274020646025001,-0.15229041133953117,-0.087387386508686632,-0.00081860915612702589,0.049784185675811533,-0.062038753726210392,-0.042582212309168373,-0.14937304375650548,0.0081526149078525664,-0.11965546755860146,-0.014971435918515411,-0.061424100391749843,0.0066609742116581841,-0.048728604603628642,-0.019021472005641974,0.053246567464373541,-0.077528544631397509,-0.11244839861789377,-0.0087932343499713891,0.054689733165314398,0.070910164556230226,0.01197297829935743,0.02140691482691362,-0.081329977212207485,-0.027941460039169405,-0.055343279986213939,-0.01839110948296966,-0.045946865629757222,-0.023646318863446373,0.011562813525918862,-0.0086381008442923887,-0.051021319463996052,-0.081067417210001269,-0.040560732574038569,-0.035030351140843193,-0.085558950903620007,-0.16431851996854907,-0.040280279927987134],[0.053989744058540644,0.011070492487618509,-0.010236773664415621,-0.034532208994122897,-0.027245741672443317,0.091917907634287588,0.011349991557097351,-0.06407444253114794,0.061431419094614172,-0.0065649644805095032,0.07363938509827192,-0.076959208877806384,0.043310169879558026,-0.13850724540800169,-0.016785936309045034,0.093855740799429571,-0.03074544792053438,-0.10319098183505082,0.088214159663847769,0.04949764672536771,-0.052615128829061414,-0.090152206190580647,0.0426434083468775,-0.14862937652861355,-0.025572553819603931,0.057559906394294306,-0.048264364234913676,-0.084814869282903188,0.0020909586060563132,-0.054185616833807806,0.0073840253697396163,-0.1057678790725429,-0.056080401013095332,-0.13878718502825185,-0.067236284418104225,-0.025466809951263041,-0.15779725191872526,-0.091125907519333665,-0.082592304292256655,-0.052849558406988364],[-0.068637112046111476,0.039379711518600639,0.066273852443498066,0.019231565430069229,-0.18882888471351489,-0.032260097585353996,0.01922349429104795,0.062081049468296727,-0.080656573487161237,-0.10418139835071655,0.097622794260192769,-0.062348445610861086,-0.0064610509610339359,-0.007133467975003676,0.032081888581189565,-0.080511333292108897,-0.083979044223658331,0.021341947704926673,0.017141369417928952,-0.03922161658678408,-0.092047786507921212,-0.093782668861977531,-0.021456874209208086,-0.079518275135577451,0.053032312787079337,-0.059425860495885857,-0.036307563049685382,-0.07523098411942801,-0.10289709344787523,-0.12284594211945135,-0.057290054714805999,-0.064758890512098488,-0.056692573019837669,0.071999909752040292,-0.012144307355137343,0.024967484043685685,0.0051925628949074723,-0.061146844598839838,-0.014744815758641738,-0.017039122978195202],[-0.078889686456219021,-0.068345083810005286,-0.068106375221239676,0.093474472852666746,-0.17576115485279614,0.025173650023133577,-0.048885119149090973,-0.11727754684420991,-0.10455101739196135,0.051171580736066404,0.01767198361477812,-0.051693992813289111,-0.13281647720048959,0.013289275793059191,-0.13167104590051032,0.079547867594813887,-0.021868798977962456,-0.01347646587687026,-0.05980431799521671,-0.076970019392735817,0.059266213386981757,-0.055045039250461447,-0.12390802652430111,0.021937036440820332,0.12496768302405276,-0.02179920626719474,0.042021175522654823,0.01894041472148477,0.0790574682442792,-0.14494852402795366,-0.10912444348370126,-0.11397107356606345,0.049793989355807818,-0.10316836850677286,0.0088837016418757339,0.13603736236705216,-0.071462378889090239,-0.14091198510742431,0.0035694436849636677,0.029285041844493424],[-0.034197197637268271,0.025359233311303152,0.10926515683457419,-0.060677844966144041,-0.034289991553074009,-0.085842553347038983,-0.0090511122140803958,-0.012244928329063279,0.024264069096553743,0.013675353510700185,0.0016545947922921786,0.053939892377802091,-0.040234677324595659,0.01713178814685444,0.089718196965444308,0.0036146512347729406,-0.13141429597646812,-0.12700331719904134,-0.022865004449545975,-0.080397203741395196,-0.080590041076588986,-0.056259554523215065,-0.024693062963496135,-0.015503496748918343,-0.02981499275388675,0.0051097449544749637,0.079306930848633606,0.062111156511169462,0.047064251092131464,-0.035047470345397659,-0.031664323952660695,0.017594210362552917,-0.15314681039773934,-0.10033449277497825,-0.0036926175115454783,-0.037660951068319334,-0.00098205007318086929,0.025116329163838741,0.018129134458898813,-0.072098259304946011],[-0.075070820047478615,-0.079278636986090917,-0.020870819125340431,-0.086447109096442723,-0.094959387397570955,-0.06010484655849252,-0.082333594839826357,-0.083928660081530701,-0.011310122457904401,-0.045093030367612953,0.061799611363667802,-0.0072277834198959563,-0.079188244386086404,-0.051888208757544921,-0.032639739101938833,-0.0049156031635028928,-0.11377544322909328,0.071511813168462945,-0.049210126682994314,0.0027754676372499787,-0.15563055204758749,-0.10748622724285942,0.0055606830616185265,-0.061571391813675602,-0.014362217161411842,-0.15986350164017343,0.019140527051075461,-0.13197568793884079,-0.029884810508617597,0.00370573306792428,-0.03389536311563654,-0.061165071831275571,0.028415606175562505,-0.10508524365142385,-0.00204904645221992,0.06837541672253461,-0.10256950145097693,-0.085833798360289759,-0.032878654031213997,-0.080375740133273865],[0.060333002846131571,-0.035473427742897169,-0.16424013130436585,-0.13912282157674105,0.0051023306404655785,-0.022972137724764856,-0.07032358380052825,0.08615343648909779,-0.090249112511136348,-0.1229727244983353,-0.078267016254781066,0.024766032054039967,0.081868706767408844,-0.02319331881574823,-0.13538467154472505,-0.060831407289176992,-0.059228351897862644,-0.028222793588762139,-0.066515091524519981,0.068824785872561661,0.019986847002874009,-0.027464937615200784,0.069550012984106624,0.054521662216508997,-0.076845851462358034,0.027666481129435393,0.070057492967673884,-0.1479258802190386,-0.12989064712936238,-0.05741200260835732,-0.033021466026590826,-0.028913900375971101,-0.086367788054633299,-0.077162320359566938,-0.022828070818599715,-0.065101631605076649,-0.084521494975797959,0.035735741723855886,-8.1960806384492879e-06,0.00108749013874853],[-0.032677378731480321,-0.040964990240057668,-0.067891825280030349,-0.01165942109485919,-0.046888834647505581,0.024114000806122519,0.057730574764826285,-0.046347916433783665,-0.073925383394388394,-0.074618675034726134,0.082784280425518109,0.1155309754143117,-0.11117214899265901,-0.024480774123186985,-0.056801500500675929,-0.0026232714515686123,-0.027875103886897706,-0.0019565725123758052,0.034102680451893984,0.048495756652099035,0.0465703377662064,-0.13945023827593594,-0.027053182128189364,-0.04349083113244509,-0.097503987017510563,-0.070774135443070152,-0.094842780282321959,0.037100362643389027,-0.20680802535310086,-0.071153531585403912,-0.16620217785167024,0.059304230298807901,0.022522947369820842,-0.12244370618097586,-0.065413971883794483,0.04793055381436629,-0.069601620482128035,-0.099263168336646612,-0.0034571770075217598,0.00095278015052523146],[-0.057328560311250679,-0.0011621366923311033,-0.15999180922613396,0.0605253299639665,-0.013450045139069493,0.03881212926999477,0.00066301286749270716,-0.098045401147688643,-0.075071603104040596,-0.09718940454674177,-0.20156207236852458,-0.11989444592925136,0.058732686990100542,0.093761229031446319,-0.079460253621819688,0.0081440551149545917,0.098870716368587547,-0.044656245535520785,-0.062407384660189975,-0.087208456189325753,0.093017492609915653,-0.12724411960132506,-0.079253809592787799,-0.14255304496240342,-0.03942695619701421,-0.00064184697950809416,0.003893679144460746,0.047256012090919584,-0.048734881167842532,-0.094476010240968605,0.075921875142981654,-0.015051528876016136,0.034759133579935604,-0.079382438790386561,0.005341187391714762,-0.17008638313309415,-0.066276797584444436,-0.14885295106911184,-0.053435275996210944,-0.11586782877016466],[-0.028698120685472069,-0.10176995796086249,0.0074179982142485792,-0.01190491246798641,-0.10279263852752885,-0.098343268297794134,-0.084680596831211957,-0.0080170994616839721,0.0083902772462231406,0.044744845986931105,-0.047099100241524978,-0.022372711751501274,-0.02561827973865867,-0.037455944391954904,-0.12488108134682013,-0.038800327635796772,0.099189571739493831,0.085865429059216625,-0.042074774942618048,-0.081734630746964826,-0.034900576982114004,0.014684563627006916,0.010893166430394188,-0.020504003930972167,0.083529802957714783,0.078646992854312203,0.014586600263215344,-0.077900011163811067,0.0027129042819092966,0.0037538125341968279,-0.0519823687906402,-0.079169694108024741,-0.041422920760643668,-0.074367642726870284,-0.08800635072835826,-0.14644396055781622,-0.064996815015555293,-0.040223981279883358,0.084757923123349732,-0.026738863249342597],[-0.056333983807965823,-0.004522586805201307,0.031367177969889158,-0.058842076620610723,-0.12442054377641382,-0.086344785366751498,-0.093790375242738006,0.065385518160189532,0.052095179470421242,-0.025160292889188564,0.027001187219301656,0.043668838326985808,-0.071956957873437005,-0.12898613106486781,-0.070631079799394314,0.0059512531622985462,0.030351493488441482,0.027761555002793779,-0.0026579645862413771,0.064592950420666428,-0.075341577225054662,0.010445416422532001,0.15781251216346054,-0.050242080817140933,-0.17913536093125146,-0.086003872961415401,-0.11765997014601037,-0.12040865236389653,-0.11283468321870521,0.15506931572772462,-0.03900834108703724,-0.063047459281927259,-0.093131127941920119,-0.10899054113698825,-0.11896116433085199,0.04718565426723572,-0.028946057468926093,-0.0036095993541247311,0.01190373040844582,-0.093127787061400846],[-0.11741918358958761,0.0057431813341140975,-0.015833213658027416,0.02894203129080427,-0.14623110386191177,-0.032538458580180826,-0.045499314130306154,-0.092994536159213034,0.071106866212641645,-0.049069787218737185,-0.10873910011570465,-0.097930655221227902,-0.06211925240663408,0.06624406272698169,-0.12603020246978508,-0.12378427839999093,0.11738491869688339,0.052713243735331004,-0.0018552107569011211,0.081414470759981206,0.035005503052139571,-0.13389334576681269,-0.0034010573378777456,0.11167765087358397,0.010179958974474303,-0.028979802288287147,0.029872212641790567,0.0066598637555679505,0.075436320326389805,-0.13121288780435095,-0.098787171986059796,-0.046895809053162457,-0.097054672455483881,-0.046500220772002637,-0.019875799046572724,-0.067138742427997708,-0.043828766528360333,-0.044384540518771547,-0.04436983500487765,-0.07281488961125071],[0.019107927268782667,-0.0038219190175804614,-0.029535722559340723,-0.036536546968102032,0.0716023885414247,-0.029275755113559329,-0.094565176062913675,0.051007681024756522,-0.021339934262949362,-0.052174638105618114,-0.06518064402137122,-0.037203894790203314,0.023648987968914417,0.034637688924036909,0.014654687529708048,-0.021891940037311462,0.045589596079099647,-0.08120528922871556,-0.15682256678775724,-0.063205400510201848,-0.055832153813437674,0.042451077238261782,-0.062333049237518173,0.07567159967279169,-0.071332651171883699,-0.12748721817646846,-0.018563931405805277,-0.034785227807327013,-0.13340091754070019,-0.055044612430695784,-0.083251106699791633,0.045578658710979485,0.054496949765928358,-0.12102564159312443,0.026737535967644513,-0.042778231928537545,0.03623645365462199,-0.041861578291675076,-0.12116818538012158,0.083166936711073614],[-0.047766649168666353,0.019845419996063644,-0.10460975451494023,-0.032623200159611378,-0.032221266030048018,-0.074485312474961679,0.025220830049276902,0.024214741625208071,0.11105871349505692,-0.066321741853462027,-0.016885342897789327,-0.049833050928047226,-0.15415972143502099,-0.083529041620177519,-0.019485236356131516,0.023821534804765038,-0.045209734600223567,-0.052866169770429697,-0.00087405463981009984,0.032394945742197305,0.12011583960887345,-0.048923200588302435,-0.065680948933973943,0.019230047481020585,0.019021714469317254,-0.064333773014847939,-0.11598199769355222,-0.15842870808444992,0.18794193953065713,-0.012553076795661328,-0.061995718352855521,0.004908538969223851,-0.17276043821173478,-0.033081498272278638,0.0038456869457613452,-0.091200392764327287,0.060930065170866028,0.12928409934341356,-0.040836659746052925,-0.015513949920927667],[-0.069556381195098715,-0.022943676045275564,0.10112817809308883,0.0097599231128404976,-0.057321464673255024,-0.084623446592489146,-0.02790654203283895,0.0085317092831130037,-0.11674945407490522,-0.015921075648213049,-0.04962980135847507,-0.0023400755737317605,-0.017110073186511216,-0.076489617816952793,-0.042574007181551729,-0.023646448705918838,-0.11622298880024434,-0.040503992055204607,-0.085540334105440333,-0.018487453818162705,-0.1314002383127188,-0.03910647865548611,-0.077073819884180217,0.052352874255496347,-0.051918250046613816,-0.0078096754554490486,0.016855363040213255,-0.041865044453540209,-0.17002353038192794,0.019459404477025752,-0.055299522088338576,-0.056360129665784103,-0.051590155580077603,0.026342094779578662,0.0275008595138381,-0.10226770671519092,0.0042258553041020219,-0.022787769183507778,-0.050545083613524597,0.094958273599501292],[0.05328674623866974,-0.080907382509052175,-0.076560711032717929,-0.044410285848515758,-0.078100497136823627,0.0066400283127092674,-0.07295098055302271,-0.11888541415087542,0.057514057874177481,-0.12147733672791466,-0.039438759897699342,-0.084204495042118133,0.019350131035598912,-0.067679849425125921,0.064935568089593082,-0.092354521562277192,-0.027854494844256148,-0.071624706858611081,-0.089263649743690526,-0.12081278418699376,0.099452894995096325,-0.030017113125627441,-0.13291752134143994,-0.11522038661219186,-0.13793241523083521,-0.043392885558317135,0.079837437935046773,-0.027651486376406385,-0.01652206507122584,-0.035290371600832898,-0.022160581660890456,-0.062821116170535554,-0.21194268927491311,-0.11268370710092027,-0.16665435676042351,0.11245253317712497,-0.051642135655808191,-0.066688751949067038,0.020852783507091119,-0.0074761445817717459],[-0.045638278582820241,-0.12639115746555157,-0.042826981922044351,-0.12246268605575644,-0.050738202029093987,0.01213576477133909,-0.098519119824237444,-0.092349846563577892,-0.017532194371442641,0.083886432477824124,-0.0089442330902939453,-0.18516399226460029,0.034229895084315516,0.0011530121250683464,-0.0035535579351178535,-0.1172814021313402,-0.080690358282686475,-0.049587840948379397,-0.059516779374861307,-0.011315924042859925,-0.067712574671771386,-0.06007633980356189,-0.16584841906981768,0.094737166725364974,-0.085380156427721454,-0.044254121352937242,0.036983887388860638,0.088489413221150004,-0.037451881897326809,0.027242545205061607,-0.1314976126861786,0.057369811202100239,-0.028705243011339546,-0.021956581188945341,-0.10168707260675056,-0.081534981720576716,-0.15385955254160974,-0.048202566167956727,-0.11681022747891234,-0.13460987490211687],[-0.040126227238283241,-0.031155322843208794,-0.016519975976726255,-0.034861753993141197,-0.1061878599055065,0.040042799341503697,-0.10386905678586525,-0.010456572381864343,-0.10749154762839405,0.01143815728848737,-0.068544214300030354,0.033403443701621689,0.017823853593720157,0.031948804472119084,-0.15144411611040565,0.0023277636866992218,-0.05232084198371216,0.058960463587710642,-0.057025711216538919,-0.10638931893688963,-0.055967548276694937,0.079442948496264765,-0.013503124895892653,-0.1009256863894652,-0.012767251742587787,-0.13495447548196926,0.057783755068937105,-0.071745802089754451,-0.026138708965620368,0.019934480872018961,0.05263099542233738,-0.0088138424557397885,-0.020667934267006298,-0.095295946658439254,-0.060783062790985415,0.088892025330661456,-0.052856818271228123,0.10964770084405898,0.033970406054137335,0.059558792951270763],[-0.055225007065866256,-0.0045321242172599065,0.038330245514509177,-0.033218538372853885,0.0091534514857109991,0.044338633555686464,0.029061429629216984,0.0091887018075245269,-0.071296617623153674,-0.016480643936635241,-0.12746525598531611,-0.060441553803919426,0.013113614726578578,-0.027119764666176001,0.079395481227303499,0.06958367331066484,0.013609063892324538,0.081577751742779425,-0.041412453704292029,-0.055669625319890434,-0.08181916437691189,-0.029025256733289921,-0.0011517368392612234,0.002643803559041813,0.0013285557282031943,-0.023579719420006078,-0.10393847937435222,-0.059219073740454237,-0.089851819792514387,-0.081265281849705981,0.047375590146981748,-0.015030860211149639,-0.0094412550795652493,-0.057457726372633459,0.01103281406976106,-0.023249142564033376,-0.023465460287098734,0.029486438551739345,-0.10525976710119506,-0.049373764039492035],[-0.034611163112168067,-0.01558818358897179,-0.052288161872549963,-0.055877186793379011,0.0011497278360181537,-0.0079615370130921362,-0.19410520876148085,-0.02609512997161377,-0.098447575194686221,0.045341665730750637,-0.026455047206289457,-0.098975290878656058,0.099321710337497648,-0.15634966351769028,-0.029422632472888132,-0.077325973673104037,-0.021575192610445347,-0.016134565186404905,-0.001413383620912631,-0.038082967078051179,0.066003543139648402,-0.10274879347592691,0.035424997714613556,0.10011610898839052,-0.094363642054409655,-0.058652739403818391,0.060514327387326615,-0.05489936021574883,0.04751027825716251,0.016362997679510244,-0.096106888916176969,-0.087448407624309055,0.021098731554331333,-0.04501924316007723,-0.15524480005769536,-0.10872040783540124,-0.027933274921037032,-0.009859897927170614,0.014059221103020443,-0.14782282680628123],[0.04178626421501027,-0.010252219052498079,-0.17242566583455265,-0.075697855288491947,0.040343233600045471,0.064154086720622533,-0.083737765650998344,0.0097615494643501152,-0.00041115631109159279,0.0081181431790784547,0.013217424830427323,-0.036772285561208408,-0.0030422143051356924,-0.11687113030054913,-0.16342906449541211,-0.052590116556991431,-0.072467133522492622,-0.087415728302405862,-0.090842634088699067,-0.048258885791623497,-0.016092758743921021,0.020162217906869721,-0.065687779963182868,-0.18503383082079464,-0.098003807515052194,-0.057222270890979574,-0.08494498344968851,0.039705452170010168,0.0054286061389196213,0.048770365586237312,-0.059515299418552263,0.029867899506223601,-0.021941562228609473,-0.0066128010801466616,-0.072349774798855404,-0.065059218079528275,-0.078587462564507118,-0.090911601999627389,-0.046493974442064143,-0.14786117646068858],[-0.066885625021161021,-0.029336458507503278,-0.136651840443029,0.077608470095893223,-0.059944965730981972,-0.026299853211742788,-0.20157057928135128,0.0072408365926670062,-0.082978841364649586,-0.15458506993215992,0.1401217363058592,-0.025354258837546273,-0.061356461533111653,-0.11665083670286278,-0.069926650241692867,-0.1432606830628903,0.087444024839557766,-0.045207863949173664,0.044523336462221529,-0.077220855662830226,-0.036427840748451762,-0.00024556423262104415,-0.048786079132195084,-0.068935522903948665,0.0097736879361256523,0.016868827064820568,-0.01290709007130391,-0.093502573063093258,0.041577165860698102,-0.022344504086926526,0.021848987896611709,-0.0087402005496464499,-0.04700558944573946,-0.052788730739226436,-0.079707468581203172,-0.051949668459974098,-0.086702324177346024,-0.11798024813679081,-0.011123142712108659,-0.1513409632546695],[-0.10873850356629342,0.059346002468347418,0.049840131481752543,0.028727726761559401,-0.16170284491773682,0.0036169846548091897,0.018521930139947275,-0.076355800489166986,-0.022724333449777648,-0.035914619161685875,-0.13069509118874204,0.0020555462166559138,0.0087200134988541372,-0.0017062061390246894,-0.087735711372056768,-0.12774385965534912,-0.034222905328214315,-0.10529357781117513,0.019645517856031872,0.0016398917959549245,-0.10351474519699175,0.000636802317447005,-0.014925979111743353,-0.036040759545741423,-0.02983701439265591,0.028119132413823675,0.0064312266369708423,-0.1697766416108612,-0.17542063257150992,-0.12459673212252756,-0.09352904059561068,-0.030769949920002124,-0.11758924686645686,0.0081758829360449453,0.052120404146414105,-0.019651701080243753,-0.12055899371740708,-0.064873841255064207,0.0023897163885732917,-0.036188634850331795],[-0.079379626082297677,-0.021025002153806371,0.069049388214541457,-0.042256790079786333,0.019904423443993811,0.01511612105029992,-0.087959080548353163,0.096023453846737883,0.047741433204032048,-0.17508357830765989,0.003702368920567696,-0.044208279431127602,0.038785382812990925,-0.04224504628348761,-0.051324946698590959,-0.17431329726962957,0.017882789812739032,0.018754538975858027,-0.13320532999425541,-0.04155168708317418,0.065712785671134699,0.0087824360701561355,-0.013165276412846694,-0.065459785772190249,0.027406113660215052,-0.18507309867497893,-0.044814305582796816,-0.083507120605683827,-0.076602416538316176,-0.033488871315041802,0.12737650057875341,-0.032974094554439635,-0.062516913008877975,0.017952243084865864,-0.0082068975489123612,-0.02186662538363035,-0.048394298820392985,-0.17976647566856688,0.085612798246620242,-0.013612077166551797],[-0.012212076348526776,0.032834927391551465,0.041257405994147407,0.046724204702095061,-0.022335864483087907,-0.092405637708727881,0.10688503046648906,0.054025174694913074,0.0061389169506734578,-0.05127976555810216,-0.099518532335701793,0.015822774336670745,0.028579358515043472,0.0049133512015289565,-0.0708445391336016,-0.05249504509664215,-0.012944288488773794,-0.059758699077974681,0.036357079635411078,0.028466994314276725,-0.15089683111556254,0.0018800124390437739,0.051008317613396546,0.086353443263781804,0.059909535421264003,-0.024063037240971606,-0.012752662283282819,0.012257829853336427,-0.024276032443404101,-0.036294552973488561,0.03732008591075265,-0.029145130040434654,-0.0062627798014894716,-0.043733942425546263,-0.027840553978999642,-0.084934996344950775,-0.12617446463548065,-0.06836998612161585,0.036395898084904836,-0.079985160751611634],[0.083812957682901479,-0.00010346001878527161,0.021083693186615592,0.0026254916792814026,0.012411110092512868,-0.077206075707787647,0.006123277352726858,-0.015089362141245358,-0.04301165979304207,-0.18005148256636544,0.020118020545926117,-0.0080779758915400686,0.0035296141678859,-0.069180614007205543,-0.029000476752876266,-0.089441337481568628,0.068046420175596922,-0.074385645852898113,0.087347565105200614,0.027199189838182695,-0.025769152557200404,-0.084302080420505979,-0.11376163031540262,-0.026996675102306217,-0.089068660217853091,-0.027316156180596296,0.02442524436591266,-0.044941084488073442,-0.045963064143201511,-0.020162806778919781,-0.022871303009835614,0.0028520850435350895,-0.027208438550010445,0.032899756046767155,-0.0047825491631459487,-0.029515974079952365,-0.091222504396219539,-0.12424456895299926,-0.024624064388950824,-0.019513587861285486],[-0.13921420726698761,0.032554187659378335,-0.11625581643476582,-0.11925691540371,-0.074898556474464334,-0.037716377832383366,0.020104271382654582,0.050824941161300714,-0.013621845045546307,-0.023973920677508143,0.0076093775014348664,0.031714133882121319,0.020041548754625771,-0.03913166623555106,0.020616171905704458,0.034270755672907875,0.032333714081567343,0.0013863997703397538,-0.052032468744837607,0.037497236515620598,0.0094463559654652182,0.026334034258692095,-0.11220881802130955,-0.035405727284294183,-0.011967144631134366,-0.12981243984246946,-0.064216998296526759,-0.12666720172810392,-0.066717143692654149,-0.021957477113904441,-0.05115654100901984,-0.036910551099477322,0.013046825602063522,-0.13342747851402681,-0.088929861142471395,0.058439614120325702,-0.07844007304210715,0.0051875640844887896,-0.13708814793705554,-0.096102197121574751],[-0.11494055101575162,-0.030345308460607498,-0.067335624367815788,-0.076788852768569671,-0.02984604695725783,-0.044599861244321679,0.046332035943397069,-0.03384827690758338,0.053643916947924954,-0.07727502174792461,0.0091369405745071394,-0.11203036947155537,0.039623364429382878,-0.082146617316224607,0.016164876112982958,0.056855665447731039,-0.010155870211317648,-0.11780405977307842,0.034826223847471437,-0.14066083960927334,0.011956734306586975,0.033508344895220914,0.075383520750992861,-0.0047813190434744003,0.062412680349785234,0.030091833867223451,0.086101783486503769,-0.090286234577119401,-0.047800209224057935,-0.10992909754505592,-0.067971212662106872,0.014949217498060108,0.035865360525015828,0.034474524368521574,-0.027086850311636042,-0.072566001207030023,-0.053385808459982829,0.00231957924369533,-0.035503167319435314,0.069305535973094246],[0.022988894566185906,-0.18786595246284746,-0.050198250988413809,-0.040416191934471699,0.10324298948226013,-0.1202725352341118,0.032115536205443489,0.023573572681732977,0.030528019745413353,-0.019907943713256437,-0.039283960518076325,0.00071081961507032249,-0.040993863578266211,-0.036313106855831362,-0.035812334694052372,-0.045764777237971808,-0.13191364593374058,0.0010951321237948689,-0.10296446193680128,-0.095789347654869073,0.015136134467992765,-0.021747991558944375,-0.19926891180120546,-0.030629120101719112,0.002932413666355195,-0.061144969941101378,-0.033921034254490723,-0.0069381735430912653,-0.050947808416712974,-0.0049754668587579272,-0.063779739139920161,0.095024932032302473,0.050319096209510521,-0.062156664728146904,-0.10080053713537013,-0.0081044731136746297,-0.010647868467152932,-0.09856404223771828,0.012775072992495147,0.034492958899451677],[0.13594693693263107,-0.036821611250741279,-0.11089212918715111,0.011493895350822139,-0.035340454068122015,0.088187488347469589,-0.015220178691319964,-0.024457070732092974,-0.052801414943740022,-0.15647082544048857,0.09931080848100951,-0.090922458706111681,6.9350753340448323e-05,0.0028967368835821766,-0.14117689410947859,0.080310415651046518,0.043184069590202746,-0.12342800495991785,-0.0087114100076991531,-0.032803123864992657,-0.020807039012464956,0.002878973396238757,-0.01379002674846375,0.035639225429387945,-0.027947777406748114,0.020962615051277361,-0.0052718881309074782,-0.13341522462853392,0.10533346704316029,0.024630439497157861,-0.021158155024975128,0.012367477703653838,-0.093450583037514967,0.050498093443114157,0.054313123949198787,-0.1067415641511289,-0.04448893686102838,0.019640680940017065,-0.04742814694487283,0.008733597176146031],[-0.06157087494330972,-0.032517629970303386,-0.021470893401975864,-0.081875413707138286,-0.11014453021784398,-0.008973804207321516,-0.057843404053027653,-0.00095489010545030811,0.082957778032277135,-0.083043641837244275,0.10304577794249681,0.0020831994855554162,0.080742344775272368,-0.082481082822108392,-0.083358275206052046,-0.017158814604691958,-0.068112447213544147,-0.075787555884774899,-0.024793407339557455,0.0062295041537762386,-0.084415041402592872,-0.025331943359600768,-0.16889022154341893,-0.063685697908327843,-0.092340714426173698,-0.074394048896363307,-0.082415037647152745,-0.11440999891112497,-0.019886665056844645,-0.14645647527605477,-0.064105415042188932,-0.073999780303532936,0.09731466096210023,-0.027785838192314241,0.0065576041178794578,-0.0053008770338615792,-0.058628241009328848,-0.05661606546426004,-0.06687236753100656,-0.07849170938253533],[-0.091977713195534092,0.094949826647605734,-0.13712412071071198,-0.010572986244724483,-0.071092668227668604,-0.1339226706375683,-0.018440996450996942,-0.083815027433450928,-0.028404187615137601,0.072105570618881426,0.13341933619291987,-0.033128378168426412,-0.057918943945456061,0.027471751791000511,-0.028089427483222844,-0.083816622901883991,-0.058930811958686158,-0.011650419014623416,0.049782517173836756,0.018632895872809273,-0.023600721306414156,0.0074000854956871934,0.037342916743755679,-0.11344382310012624,-0.1091502775942175,-0.023327780764406111,-0.1240227004715182,0.02973622356532004,0.096846530594245583,0.11817113132285051,-0.14010539567478408,0.010190630805677468,-0.090379352087441522,-0.088384944464867998,-0.063035098054655569,0.015102029040633742,-0.11313169169323095,-0.037697543471284491,-0.0027310559369339571,-0.038052058096383845],[-0.10346875097242189,0.016507994659730317,-0.024137399662021743,0.12222605970043843,0.072541659197183167,-0.15820766306614142,0.017910642292542946,0.020554658220475065,0.067765155993814108,-0.081662319598881844,0.058707800542981699,-0.079656733510724748,-0.019020759544667115,-0.12791256193738559,-0.021090295819866475,-0.16686287320027043,0.0044334752418456469,-0.11506168423521751,-0.2088246974854468,-0.03783242347291093,-0.051996566532300066,-0.01326316468921938,0.021443884726151531,0.044884328081494805,-0.13522771477283488,-0.10670315607721939,-0.043095060086963448,-0.043509555858762407,0.082632721737455589,0.059352342918077429,-0.14859758726612302,-0.017840363709463212,0.064264208525366268,-0.10569735532010777,-0.0025329706009876093,0.017389041370624345,-0.079363772542211428,0.040821729371395145,-0.073804582525629048,-0.047919356655685079],[-0.081930879133399498,0.045644488023730702,-0.025416742338224288,-0.034049650204384406,-0.035475940917537557,-0.076162135666753228,-0.053105058078477249,0.04711158413447606,-0.098240963233587802,0.022613837622569494,0.039570379397029072,-0.017712317522777528,-0.042272210286005807,0.076139626020588325,0.030933660634632799,-0.070315187727082229,-0.050155368083640295,-0.0059684228900495594,-0.04600153599735271,-0.040423390310777081,-0.051948811147599361,-0.052943098414824544,-0.028895693277112004,-0.08563592193533559,-0.0071787992350062571,-0.092343370546324494,-0.028161939486030671,-0.11971669977434737,-0.10479870180004916,0.063425540231628469,0.0027182574872521154,0.054979028194601244,0.011981092025934552,-0.16185510017866522,0.065913254237303626,-0.019993556505421499,-0.056508071489508906,0.022625674772790302,-0.058582377226034835,-0.0016667518027122172],[-0.097787242574616906,-0.16276317643802127,-0.096899195683533251,0.0010942586394876372,-0.014125699343946509,-0.093339588932038184,-0.044333032168378708,-0.13902950367105277,-0.12040384802104004,-0.23639215569749164,-0.015377499610203224,-0.076652276975027384,-0.11726704315996475,-0.11692544666175017,-0.097060067900059721,-0.15729668618377959,-0.042473310153094031,-0.034337093254843243,0.0019877169172972317,-0.12050558451878338,-0.20719434051075222,-0.0011577915900349151,-0.022894388369266903,-0.057168517858928354,-0.098868409628531162,-0.0049112447129506173,0.0019302522954893347,-0.015880758738628438,-0.084058291737750895,-0.031780171486639114,-0.041484697892022235,-0.11079659851222076,-0.054478011591242728,-0.039407411489810792,-0.051048663583656596,-0.018944070961222699,-0.035177395866548451,-0.080718708918326276,-0.035592387759022154,-0.044044107165832187],[0.021377442173709273,-0.082702178965999656,0.13274505325335309,-0.056624644713717462,-0.094278671208466502,-0.11333313674184092,-0.030810029829271862,-0.13771002532056323,0.10711459843545915,-0.02207528728271882,-0.12654580881956212,0.044741003614683396,-0.11629820028083121,-0.017346753655450752,-0.031012730422775046,-0.073217542636704741,-0.062135344658054509,-0.11651626881924382,-0.095090257759398777,0.065609046095509549,-0.0042410169311409771,0.038131857536182943,-0.046535183971570512,-0.10375789666494453,0.0037505189550377654,-0.008656023185398716,-0.025449147078129862,0.068081393553603459,0.0065836762883754382,0.025789882921629828,-0.011791108128351872,-0.056999415387823368,0.094450489801090554,-0.052640704950324552,-0.046312186173203047,0.010278446983354533,0.090575930829371404,-0.060541679919333416,-0.036382957356572244,-0.11764067335251563],[0.057778662158838305,0.015112383137907255,0.072978672765777824,-0.012551069022862422,-0.026155767777717397,-0.037125979386590673,-0.0032116883833331958,0.11483029754822272,0.093793075545974242,-0.0014787656076714062,0.061408312753306708,-0.082054732858390905,-0.16222506139627418,0.14827257528728868,-0.032444667726703819,0.010554258952797449,-0.097293060143649773,-0.15185440382451984,0.058432839273723593,-0.065946121323830528,0.1142810270053721,0.10295178550425035,0.03294100669713753,-0.030214124678644601,-0.14402562548269932,-0.19110545045754621,-0.050662882218667354,-0.046315673561436919,0.077680086143250282,0.031561865104576668,-0.0012625619562907225,-0.16044515192305858,-0.052325034706179288,0.092088243365026051,-0.012517127492099302,-0.13110050970639389,-0.062000678091423345,0.027146868392043534,-0.059232402139191204,-0.036714070615327991],[-0.00088317701940698184,-0.037432213851856244,-0.031183613436087616,-0.0080155708347719075,-0.14995147041652873,-0.1587067147266224,-0.039866663504097725,-0.039133743506424991,0.036965975497341479,0.064425858131587882,-0.075096140740881487,-0.11822982408015173,-0.046889788948015293,-0.080822857181328256,-0.24870164265397388,-0.023887404165353104,-0.077530981121893633,-0.22160930020478917,0.023549856453994641,0.00022076293490475712,-0.046996526602736226,0.01806814505184328,-0.031070279614911926,-0.11111747910553035,-0.091408134860187312,0.046665660582385311,-1.1073159690080936e-06,0.027222816175435691,0.037134115214261403,-0.13778313407767537,-0.082154106285662609,-0.061194444683859955,-0.039059047538265543,-0.066511110913198765,-0.14389758558946419,-0.1095746714130868,-0.16148022485964553,-0.0076802170630218998,-0.039682287689483446,0.015304064614797462],[-0.020867838513993132,-0.016507202848250069,-0.049925525278009975,-0.2231603678636094,-0.052512058692164548,-0.038954567310763515,-0.011495330744455717,-0.10019716113786134,-0.099176623402410458,-0.056421952543404208,0.0032891657739415672,0.072207484606662459,0.027371019106566544,-0.037015119920558115,0.018165071390046784,-0.063026935862014702,0.10389460472413278,0.060503164278808731,-0.067294197105944892,-0.10649638579927387,-0.066729175120764483,-0.066856495640933197,-0.041654790705316525,0.010767070183253603,-0.069122502167862837,-0.096552465379310753,0.013320141138659473,-0.053010157262292856,-0.20023126238519642,-0.080852423178995048,-0.050647293476553598,-0.092590935144143627,0.0040412205587943492,-0.10914247032630595,0.0089134366095745682,-0.023193700349732196,-0.088430410048224217,-0.063107300691051124,-0.023560833575435893,-0.078184588104106223],[-0.051768142638200357,-0.16972574616362698,-0.13469072432797857,-0.032950865226470248,-0.12532622155061962,-0.080519722012988404,-0.042246731659971483,0.11147265774251286,-0.14251819007486871,-0.08620254776712119,-0.13278078177897626,-0.094983100005720161,0.083702236149413634,0.037467503723250549,0.047920757174935068,0.015166030193084781,0.042947399398041035,-0.097329789201840156,-0.10917161106190942,-0.078885852995143391,-0.045429004743719366,0.060201394974395896,-0.059059893427844339,-0.018654086453676527,-0.068874607116854794,0.029742339028894775,-0.011092229389423381,0.011718391839043683,-0.0040780466519338802,-0.074101037016558013,0.025641375195503704,0.022145844187340502,-0.0071135028382969361,-0.087022288668702014,0.062217001785713134,-0.018899363407786609,0.018499565393968666,0.031251738957369234,0.033143667507854392,-0.045594578314105863],[0.060866204272795828,-0.020797136775111445,0.095521569025287578,-0.042795288258628661,-0.061503115140633433,-0.097634639913186383,0.01683508951808152,-0.11987735643762015,-0.069236777347374018,-0.023112338964821403,0.019148009924699456,-0.0083118728251993304,-0.1489425453444902,-0.099499413485401811,-0.021961810126120935,-0.072192063916066945,-0.0034360411565365762,-0.075426369435088431,0.026379374576735136,0.020498544092440424,-0.0464494352561678,-0.1205054477897913,-0.063611522324192524,0.098072378748939315,0.071478837426020458,0.0033791907453886161,-0.059634565355144643,0.031853233132628798,-0.026021121665987912,-0.018011756251688646,-0.050528446216598695,-0.038681037832820106,-0.097423865760110945,-0.079072430098676733,0.0068215661191632845,-0.084661835983729186,0.061786515003182059,-0.16482440298288042,-0.017440520293504867,0.036051714762505287],[-0.045923800319480665,-0.01151469759494219,-0.13537887715659522,-0.03105520985138489,-0.087360295487526829,0.030668786046278339,-0.036835638604909286,-0.052787629810644346,0.0018423066443678873,-0.15504176717457757,-0.041448190272515215,0.043067940696068292,-0.048279433078991837,-0.088590507787725634,0.042024354852820432,-0.04395759920458326,-0.074589409570999021,-0.0012236687005395402,0.11555281439687332,-0.042754984190491646,-0.0091580058900924757,-0.057015971000130714,-0.098034937521366244,0.019353353177617917,-0.048204891628240196,-0.079489953689668963,-0.013530237372458051,-0.019916238395248538,-0.10775053147977479,-0.070163092986757949,-0.12547678020229255,0.018535770875202535,0.04653987159107812,0.035918155363339747,-0.15634066545659389,-0.059802202102231049,-0.05048229789215708,-0.050847738476558595,-0.086955245580530388,0.038466299082651693],[0.057811425365757653,-0.030082262725478259,-0.085261446051787773,-0.025241414232664256,-0.026474868189949541,-0.026688495869515369,-0.056818076293272873,-0.095206547532934116,-0.052768878031931588,0.042685158223542775,-0.12056580754206628,-0.082409267514679113,-0.16724832403104251,-0.18487370242188919,-0.14934723683047946,-0.095154216809173298,-0.093697102426101631,0.031441101403445658,-0.038414615099178678,-0.03434795285026062,-0.14716433282909391,-0.040716395535009588,-0.14196993225759844,0.020201762411994152,-0.006524898478040695,-0.037491239653866922,-0.098386273594261747,-0.037706704292876078,0.11971226028865742,-0.041969848444392187,0.02251473505839386,-0.010784999486322402,0.049012802156328798,-0.022955115908985656,0.051715070992289607,-0.068590556912676903,0.018679305166307392,-0.071549720874314632,-0.14947353256639151,-0.037658471151753165],[-0.052529980846268545,-0.074543239488100793,-0.070902548482184358,0.089827832604754465,-0.066039882214403572,0.039313669197182995,0.089813978874531936,-0.08071132735051384,-0.10898902655664733,-0.10964711207894434,-0.080666338411206212,-0.012825552440596185,-0.045449587200033476,-0.12303287682736971,-0.065440945709889287,0.022775369929710729,-0.00091287203136872913,0.023362720356805949,-0.076739020522597207,0.012605936983638592,0.013680454667482418,-0.016244581644895055,-0.060609748120361913,0.07368719643019947,-0.013406059288253492,0.025411819828764177,-0.13805955802375403,-0.063206500222526468,0.055942555656428701,-0.064180776079755808,-0.07287648420836107,0.024984732449525676,-0.068112664451687788,-0.072678675255832992,-0.20642425596962233,-0.056677721423567778,-0.099810246123477026,-0.015701859731221051,-0.026277287382291341,-0.027313187329231152],[-0.076820391619640965,-0.02404429395702061,0.11430794124087396,0.029419731131418332,0.11224433771302667,0.022762985841344861,0.030877708441289807,0.0039133380659842482,-0.10284235252291896,-0.1102143018694057,-0.00031414127344574216,-0.001772390871123547,0.0037062096057958599,-0.0511586103804611,-0.0863640187707677,-0.028902633973992498,-0.10531169592817471,-0.061049221292570954,0.016194510533029581,-0.099319505673631403,0.12658454278770462,-0.11049698021779372,-0.030158423214464557,-0.084604397449885987,0.018383523629882624,-0.059286789822325853,0.057049417489251138,-0.058904587003245579,-0.025182384779633069,-0.083641379635675417,-0.00083794781387497991,0.0040500737482485547,-0.0049657848570505113,-0.092866637852913436,-0.038058939595640696,-0.012305984265502154,-0.08917095574534506,-0.10900548915694658,0.014938070500733855,-0.049085431825892471],[0.037006337349398545,-0.023794020135616496,-0.16883489186942946,0.041045592850116296,-0.0060180227871620591,-0.099185332872082643,-0.13380161114679917,0.036470877094210326,-0.028235354730016697,-0.055036558591256002,-0.08681105618626711,0.039270926829072801,-0.01174175823889069,-0.094044414574820712,-0.056004546151285389,-0.0019710906538596557,-0.047351229419722675,-0.12878074544495952,0.019988676217437863,0.023278334656799807,-0.025876611813791587,-0.045619885800762053,0.00073167640828897262,-0.0081544765161511851,-0.031331589231667942,-0.14488830337934094,-0.14789327594240959,0.03656291667204447,0.025189162965332322,0.011042430253524131,-0.033502291595619904,0.016935128953921262,-0.046552955044471385,-0.064002896814599017,0.050560038882956439,-0.10498390913228339,0.068088708756209093,-0.085279213222178712,0.062706227641385975,-0.033747273939745408],[-0.072465009122782781,0.025552137086206364,-0.0085422335633008155,-0.0024625898248667767,-0.051990612277550141,0.072644999953375478,-0.10772387128443422,-0.14933837870069214,0.038148072809200857,-0.073297347026215126,-0.042743467024157308,-0.011388770517838258,-0.087418736607755176,-0.038110062318544732,0.0068582574754596226,-0.042412488718062177,-0.10498361818415766,0.01309708797270679,-0.053295075591689112,0.069083446986667296,-0.10108392810303155,0.064450539317332078,-0.13045344562330902,0.013692815235344317,-0.15543657401620975,0.026300254208334067,-0.075663027213824258,0.056228912893033771,-0.14600581682612612,-0.0093779570709406831,0.044112326941218881,-0.053704769316749168,0.024444845265885647,-0.04526935097189632,0.057436701643725448,-0.0012519052534040176,-0.10017037829087613,-0.051820621202230965,-0.072135662589767918,0.018552562031888896],[-0.17009716649227652,-0.0035196535929190031,-0.017926288709104853,-0.027940898361397071,0.019899707606517297,0.097743073158704535,-0.073475118269481804,-0.064341077114307227,-0.1124780233164433,-0.061901744614344327,0.027650418434937978,-0.03763765771384147,-0.099766837101733896,-0.048526375824050463,-0.045193675154344956,0.068186451002411247,-0.035699422322497516,0.01376703394303027,-0.042904233006833992,0.087035613257752414,-0.055594504123686606,-0.056421028844733503,-0.060864941306631254,-0.060916300635590809,-0.13807786124901514,0.026407497247225319,-0.12200352238805612,0.10294896616399093,-0.0065091687533816514,0.049669506833468234,-0.1022356021506193,-0.066000009325629244,-0.051477850247053022,-0.054071465437918798,-0.065441273372614572,0.077432972779559517,-0.031908152942044646,0.029861057520358024,-0.010326285191662149,0.068348387149096884],[-0.027683811593724288,0.020179789766350591,-0.023369820696226201,-0.052651579921307493,0.0029418303813791083,-0.04244538092368387,-0.08054755527915361,-0.069255704105761928,-0.12045492199669935,-0.063712835248665695,0.083778537275745635,0.051644210910297507,0.02388837990988088,-0.007907709432281286,0.10123108114738844,-0.24325562642422857,-0.0496263154335463,0.024334342230931519,-0.10867902861800086,-0.023845588809433271,-0.042391013947800829,-0.046339259755634674,-0.054784507386506684,-0.039676623146857076,-0.035509853146890896,-0.087478827043116714,-0.063126082500860881,-0.011267047978992528,-0.096124450287383922,-0.13422171238753705,-0.038733897751609042,0.10445839387454212,-0.041729686702278529,-0.14973454955696336,0.13079494779663556,-0.070562811239191406,0.00028195781892532273,-0.0089110061969670529,-0.023299581828492708,0.0013596331785014695],[-0.018827479408595506,-0.063942809763402497,-0.12304766957958554,-0.017099871573924983,0.034457594068734478,0.06929599894922564,-0.031986958905011333,0.10342370738529061,-0.035670150610668042,0.01419918288234491,-0.071483545329038334,-0.1083175559151108,-0.099320286373366207,0.061294904123150952,0.089498448852389251,-0.074050042769707433,0.014679296789430911,0.066406106479748761,-0.069212280419988281,-0.03400615485145482,0.014193400835398211,-0.077703220956122462,-0.053555206605083561,-0.02495325000050104,-0.038551161592889349,0.015314763308079259,-0.086767866700613455,0.013332669236672007,0.16380166655047587,0.01295214487910977,-0.12893778676876086,-0.029400206931371582,0.066030797120349372,-0.0093495458390762849,-0.0072079341028604763,0.0029941505468072602,-0.040210780970584885,-0.063673353107998168,-0.21180749006450042,0.035894354961089524],[-0.052708028884612831,-0.12870246337286498,0.026343840911028593,-0.054834171007103846,-0.0569861808264054,0.016141327933014461,-0.049355147232231583,-0.041610140451222966,-0.12733388919477817,0.093292660160129576,-0.00074418195437718493,-0.080062466921862502,0.089819513454060224,0.0039868278971496515,-0.033502917014387457,0.011888302597535372,-0.046586620173325655,-0.017858231396325218,0.066559926401660863,0.041786448889493573,0.018529642326648103,-0.045577962195642745,-0.12551395409616831,-0.034971712228977762,0.085560098154272179,-0.073913324621457055,-0.012161066424761183,0.020653622948919592,-0.061881223118525723,-0.018723451421645346,-0.063977077363627594,-0.11585764060418416,0.026483197494513715,-0.0047521162933956834,-0.054815066299719051,-0.014057499138540725,-0.0092237088254772115,-0.077269070949451332,-0.13552987719415208,-0.090751651507769954],[0.012304362174240163,-0.082137477188605507,-0.20571245984405864,0.0076818970409790813,-0.029103035855173133,-0.17440888569192786,-0.178049648870686,-0.033182331902912171,-0.025897241384577361,-0.07732943474758848,-0.20232684426223807,-0.063868631945231652,0.070878815281946311,-0.048800103774784116,-0.07733530356020013,-0.019322984041719421,-0.056663192296637625,-0.092661205502322513,-0.036957272510805717,0.062458189577296604,-0.20330287986024229,0.031350802560063278,-0.054434859065950705,-0.066668238759730325,-0.15306975037871759,-0.021876967388089606,-0.042616593477828153,-0.044098881160450243,-0.099770925550625139,-0.0083492514436180748,-0.017601879000997279,-0.088756058455339293,0.035548074908231357,-0.04961169718909364,0.011988177161068259,-0.017308424861722932,0.019026588951074577,-0.12536470943237593,-0.0093874676223846994,-0.057202894071266566],[0.0078985216956319049,-0.041564155164431127,-0.08857426462150042,-0.042068946999190969,0.036965506293391036,0.030976695690462679,-0.053682904674346194,0.029814975002819218,0.026785822097493382,-0.017619196328615833,-0.14477499955283812,0.092478276782084812,-0.070534775956717061,0.021048521131700637,-0.10501954168552238,-0.028478612652085133,0.0019535245479744209,-0.041692833268476781,0.021369989272380242,-0.08125107454546962,0.024697566736907262,-0.063384002166348333,-0.084089748886330321,-0.092938120516139644,-0.053666535445211848,-0.0059877211145606853,-0.023442866515525351,-0.085609363829635091,0.026965792352367658,0.024821669536027526,-0.097565312964429163,0.029140442254362089,-0.019540157101877422,-0.099261290591128093,0.11228131680911085,-0.034206939654949614,-0.035717387397877901,0.059216771790351098,-0.085229116326543591,-0.052588284741359473],[-0.072463221393247054,-0.17022434315279117,-0.046012785063123895,-0.030268316197403531,-0.074530634535144469,-0.10390301068973856,-0.045544060888999371,-0.024471065886172816,0.0036298653519186985,0.00026124001201920793,-0.028043156595905651,0.020976851952729504,-0.095115999430293058,-0.021469911752636357,0.052800894540538205,0.10160036301785669,0.0069097829344089839,0.0091534144539968873,-0.067106592384249014,-0.070489963894991264,-0.15093050691542123,0.12274803253288938,-0.14056590361815491,0.066454349292368625,0.025503152870728615,-0.04790282176515552,-0.048856586429808099,0.036125463974554663,-0.13515786185362386,-0.070832108842847991,0.02845008804049786,0.016732237500794181,0.098443287912810123,0.068286108816819846,-0.085355492131713007,-0.091857855067577543,-0.049572234383077944,-0.10362733134120278,0.02216595622048189,-0.014162269833614332],[-0.054048556531035213,0.051656055717532796,0.04578195191211986,-0.057932692660209853,-0.016249453259974716,-0.0080003906600564917,-0.062651535698360281,0.034217332459842216,-0.12625140646808675,-0.035099762775906068,-0.18961927198458625,-0.077930337968286967,0.028000644297968592,-0.078486731549359451,-0.062852994969029144,-0.1056437987262964,-0.067456853955421475,0.042029234717001103,-0.11672312495626358,-0.024291535463526685,-0.10958568067215677,0.018252736279216253,-0.0049898205069813621,0.012734650792319641,-0.12182407072201784,-0.055255289709458436,0.11358807127496637,-0.053204343360279835,-0.068634450472042835,-0.077341889244048279,0.0072476473318815321,-0.13182410928463778,-0.060410235230843136,0.021920720177149175,0.096052785235997307,-0.056791312424259499,-0.10923796935458541,0.039812176587242933,0.035459766906755945,-0.093608957771700127],[-0.00096287925919059242,-0.032056547075529532,-0.058025894490135677,-0.077982487424787875,0.090701384645965832,0.023634432265895497,-0.039483995103547671,-0.0791802814142957,0.12544424339623275,-0.010310726689868356,-0.14074845207702952,-0.10775771069389206,0.039330725077312924,-0.078447775008481962,-0.034570169087750666,-0.083892256431153028,-0.055786428206470111,-0.11105742773940272,-0.055637951424673947,0.097778317708860696,-0.088385936105566887,-0.071100497082138642,-0.043434964732005157,-0.0089537512127478222,0.030508451816923819,-0.051964852641463617,-0.11403608664960821,-0.043866521427800231,-0.12517148896924535,-0.066595802171970628,-0.11166522919079835,-0.02127432417075014,-0.058630715088715174,0.027800227655522695,-0.041018942402234151,-0.068230475355634951,-0.046825063230850901,-0.061453340571798958,-0.018564690417161907,-0.06632416116834644],[-0.044351529548760628,-0.062498940215279165,-0.058667550901702191,0.091416736593186498,-0.092664237771153762,-0.11965059121801566,-0.050980355468142141,0.027812525407402124,-0.041069062501091359,-0.0074767937570756962,-0.13917383386455381,0.071478224719222716,0.014520523620953102,-0.034111055771423773,0.08334042769190006,0.036080978387324193,-0.058236947011906473,0.05666771611228117,-0.052670115582241196,0.037481082324752509,-0.075840736597677399,-0.053822433262663297,-0.027678349083485734,0.0021660593443368972,-0.043321297426665004,0.02569731389181823,0.00023080185891743987,-0.028241741561891513,-0.14915135349454381,-0.059968143511957575,0.037248263612168882,-0.012737565547064861,-0.049592663897553624,-0.014989752935664052,0.097986054838418823,0.040397836193074681,0.037158072739943045,-0.096784969265643839,0.068935960765852899,0.0083610520323652987],[0.047294261576959075,-0.044429270014740785,0.013241406855868387,0.029057215199334706,0.0076854947370374252,0.041734510675240193,-0.030312171180257728,0.023284071382279815,-0.11301266899569673,-0.11935020184745376,-0.11206213331228174,0.037973111497446983,0.03118427790178948,-0.090696068441996985,0.078703663413292851,-0.084195800780836619,0.019596527886648563,-0.01483784719426727,-0.04397985176475043,-0.10124675625603707,-0.11046228582671147,0.073546903659992641,0.054034288932628426,-0.022192364591052116,0.0093865758128315463,0.041822289345819864,0.024224513574390392,0.0179306502261177,-0.10936437730505666,-0.059245107534990349,-0.0076199021462184727,-0.032232739424548768,0.054626363442376348,-0.051481894536254971,0.048153289814396684,-0.090562993740053332,0.016089736183614645,0.018221820759157605,-0.060759949956414899,-0.16777670552128107],[-0.096927837728865762,-0.063721913834430571,-0.084290322056661232,-0.069789896469433066,-0.067199947760717818,-0.065165384678520066,0.049821915235930457,0.0015942680893817757,-0.049280448943199558,-0.046585429376259604,0.015872138249732347,-0.027631439286970233,-0.03498257229137014,-0.050151106314285904,-0.077354433841346076,-0.099614087435488385,-0.056606336791731972,-0.097565424973620807,-0.00608619048726999,0.049399466653646522,0.0023099523888592891,0.014290847528691683,0.066163934310107114,0.00065508677638614898,0.018451068250252979,0.053957143797357589,-0.01389332107632656,-0.15042243615566317,-0.10851127880778269,0.027199801174952486,-0.042842895840277111,0.033920590785692172,-0.00067363791997011868,-0.091025042384004343,-0.13256872186694699,-0.074229040099520027,0.0082797852428454985,0.038275018568146919,-0.018346662532094798,-0.10168757985512189],[-0.17818753333804577,-0.010522409977472093,-0.0011263856033134206,0.021352370577495644,-0.10872791118031738,-0.11425250423617342,-0.025816982099185114,-0.035705920509846209,-0.040046930074978802,0.014200942539577356,0.047038838038800553,0.0062257520897924454,-0.042083832414190288,-0.032501327710059168,0.021511865821721841,-0.049714531501929234,-0.098156923297934878,-0.070308749810923249,0.013585514871670056,-0.031695992918667787,-0.0068885884408563282,-0.1097851552960693,-0.098276013717717547,-0.17683739304831148,-0.15847643848341214,-0.089594910487868579,-0.12736803249766188,-0.078964762387279813,-0.069225414692453233,-0.10728711073910246,-0.07291373046559213,-0.0080798691621573604,-0.061049722913761893,0.0062931399053465301,0.048402210506344655,-0.013623685455702753,0.0044739739642244147,-0.13722452314633846,-0.064997222656605319,-0.042252714203634058],[-0.065657583553049834,0.030980928689702154,-0.12001530786536446,0.043041699470693438,0.096530066698640116,-0.038877737294447538,-0.11290173741449511,-0.028783645105549833,-0.14999862735865624,-0.07606869886994988,-0.048872328652026752,-0.081413758482281495,-0.022713459709806275,-0.0031381027172369229,-0.04877021742438669,0.02122845558864421,-0.067438378387700226,-0.19308034286512091,-0.12243875648792879,-0.11379364197120614,0.02481877040437,0.08390676578217901,0.0046190728670145106,-0.057055761663802738,-0.087009186619355028,-0.011046741357541197,0.0016437331504314673,-0.010937831132530135,-0.070220919470069781,0.0075243030346532694,-0.14089405639442065,-0.089680539184084113,-0.045421384069367514,-0.049230429070134127,-0.11813242553193781,0.083269253586218672,-0.076289780569214816,-0.019104289391749595,0.034019868632255139,0.0043464871653052864],[0.02262254601849082,-0.12645270422992022,-0.00047014447116985186,-0.081666552746553517,-0.019181446983653878,-0.11371522984022783,0.05402462070554493,-0.045467010336333546,-0.018697621032478538,0.052006188910939936,-0.14481272878275014,-0.042450814215628976,0.0028349508025807338,-0.035658469920724328,-0.021050538621664082,-0.09332468482429257,-0.022124663298442288,-0.073604750987294132,-0.003138128625708482,0.06561794142339078,-0.070122741142597228,0.048059942805566948,-0.063458576726995286,-0.088895348211684336,0.09479634119888089,-0.073352328940061398,-0.10834765159580484,-0.03250204087728336,-0.017591320921290773,-0.1006307691613437,0.088375547716739666,0.12054121661176029,-0.011779081376234502,-0.094076016930599554,0.11739570374550795,-0.075128675720835036,0.036704885827802826,-0.043856689616883,-0.10253073939834764,-0.081511349063112498],[-0.077083415149912959,-8.1423193053938026e-05,-0.045671015074004742,-0.099248003149931402,-0.052187065879635605,0.017230728919115437,-0.014779026475127903,-0.035820533666303042,-0.04511446314764464,0.019800258345889304,-0.029233117566123765,0.016833330713596079,-0.094426537497368068,-0.12114169211105849,0.0038866379496769327,0.093440384582446162,0.013204110913986843,-0.15039805673575452,0.0087590002505888859,-0.086950707235549582,-0.074796083203434727,-0.083008950967562903,-0.13271990761464772,-0.014411420728148099,-0.14803843261961569,-0.14819952133451389,0.018818284724141737,-0.0056368642564969332,0.081012493600223667,0.052994072745697306,-0.14864636466098022,-0.16995006765735851,0.063932720619706535,-0.02801952962131108,-0.11442086809433877,0.080086820075898707,-0.097832366669121734,-0.052772267847886543,0.10983799665570768,0.027778565716846858],[-0.061631643515334587,0.02517728834437534,-0.036924565296222921,-0.012880143139837923,0.039054480200933696,-0.065877003707471654,-0.001945618167636616,-0.026580212647835777,-0.010708518328703866,0.013085963587881132,-0.0051429959297017921,-0.15094303464110759,-0.11014393880017803,-0.065531452586331113,-0.070178969831451027,0.010103108685573368,-0.12884025233635107,-0.061758019203413755,-0.089920695717993743,0.015441882615165145,-0.017455899764941409,-0.051140410109061694,0.068813915820372801,0.10081517253995115,-0.12721890099269079,-0.18852594295318759,-0.015178372326695739,0.10308230613716243,0.014482041200358002,-0.054462016683009006,-0.036388182096555199,-0.086572937357478216,0.033708831239828395,-0.026670917831769,-0.085003968976609459,-0.12038010699693769,-0.0370757778996176,-0.082517213795986477,-0.067905007697402681,-0.10446906076564463],[-0.11527964080003975,-0.031286818371302212,0.0016666421898372599,-0.07829816017743868,-0.10037165913544652,-0.053480347347369533,0.034051048287673143,-0.0047998258375332413,-0.15177655728401143,-0.075131914482269163,-0.22529844993891598,-0.19039711524039948,-0.074006906891679811,0.063938372836780222,-0.032205277346934569,-0.073554247844558385,-0.12727205802691399,0.015594911439598652,-0.027358530636482505,-0.049826367553619105,-0.0995304694116671,0.083417809389563558,-0.050814764858462182,-0.07796899490332089,-0.08165736847132879,-0.076241485022753075,-0.13403137196339657,-0.030205861244817236,-0.031455335514787297,-0.047392582350335576,-0.060588103127661136,-0.031466026327545131,-0.052527936879552595,-0.10876389824702937,0.016888206541933098,-0.017613441564144842,-0.067380548209759972,-0.045259941277999524,-0.12820396364142264,-0.048174710403154762],[-0.06711010282733075,-0.081631778325554225,-0.077162762524228073,-0.089750990611117118,0.015028899701376691,-0.039855000015587935,0.04792086310256944,-0.061795517637042885,-0.035960389963583438,0.1746853557892471,-0.065291563473509201,0.070953931053990726,-0.070952095306770963,-0.067594108636374967,-0.013656654711160975,-0.14664418827952189,-0.026817769877186978,0.021673791596371381,-0.010067537775926668,-0.010384539460631278,0.038273057017495608,-0.047054956066297844,-0.057670627494327095,-0.0040780983348136929,-0.010514952155165892,-0.033573216383166335,-0.11117506912768757,0.069568824193412621,-0.1472180963207661,-0.082316555854526435,-0.0090353406354250591,-0.046476100308199472,-0.001033789849887487,0.047873596122981067,-0.082778341855537674,-0.1278923145122631,0.05572649594793639,0.064156709027903575,-0.10317255041331161,-0.138651639345167],[-0.10503306879185978,0.022620541269841379,0.099781707258939978,-0.11895569516124005,-0.014835632993782339,-0.023289564906525367,0.032457046578802141,-0.011054022933538802,0.083668504028616475,-0.15169592681017316,-0.05685966144173063,-0.15575010177952806,-0.158272070784582,-0.055136762620773064,-0.034455670695281493,-0.16350464424170991,0.024153823359972092,-0.087903230827145892,-0.08004477451939071,-0.032377782058942692,-0.13271279361084642,0.036502226463383143,0.032632807534173032,-0.067539351065078967,-0.04253603130119335,0.034598501741644604,-0.098024741727722992,-0.034845726368637572,-0.018947989226816266,0.03879948893668677,-0.062520312015327886,0.025934328461173231,0.038239640413232211,-0.017985313078216783,-0.0038349834344414066,-0.055505892658198913,0.011457172154440559,-0.049864671562234411,-0.038967150509193145,-0.090561932746987955],[-0.043539364307529124,-0.06399382741833981,-0.089611022174781646,-0.090389086647854278,-0.015799980787501153,-0.10347364211320098,0.057995620548803008,-0.0020680289548023617,-0.0086081268296023701,-0.097158214331392323,-0.13689922937398696,0.14677352693349668,-0.091148844054859679,-0.05181443524126135,-0.081498995597397428,-0.038902204960233458,0.0068728583897181492,-0.03720816895685139,-0.071704440531613747,-0.011748602563280267,-0.17462555587538847,-0.12245400972170373,0.045243161809267886,-0.11314545503634396,-0.12803129848192155,-0.079937933089128943,-0.037690466992245257,-0.065800473687501249,-0.011775525303076555,-0.045150895118238749,-0.15068266283037235,-0.065740245484382009,0.043785190223030047,-0.0078754717597153828,0.052954619010051808,-0.088995066001466561,0.030367568610533503,-0.023161536778218157,-0.083419164486478778,-0.026108800481125037],[0.02217413107228583,-0.091059952754280304,0.0043311704762962963,-0.011912652368480665,-0.065172849888272905,0.0023216787417460819,0.12469851030456322,-0.087036077875977808,-0.059921062757297312,-0.13083303973878699,0.024863007177728297,-0.012493567305253958,0.090067184485519314,0.013274700510223218,-0.13076156672156258,0.032881280658902397,0.037478951966461956,-0.027934354255814899,-0.088173322563739553,0.048339071898072995,-0.033425136825712222,0.048882414750780236,0.0076894678766368102,-0.036510283705550713,-0.09624468483715104,-0.015435332447164513,-0.093509918402007536,-0.10231420940822683,-0.091130212568247562,-0.043822905390624563,-0.039806733829032437,-0.031078888444172427,0.057108948447944834,-0.1096626358820621,0.02988327558732317,-0.00086969215250538162,-0.065675716990063054,-0.13697941043574957,-0.07553097429309194,0.031522635973160691],[-0.036335890014195973,-0.14366373172476565,-0.06599805112869625,-0.12089453397033431,-0.013155900364849146,-0.045644797766933559,-0.090668773754679133,-0.044321089590822177,-0.086409550128996246,0.078215962994990701,-0.026642199559672137,-0.13829419142553423,-0.042847671257396643,0.012533252409374966,-0.081295300977468399,-0.1928144785535264,-0.05122738223721119,-0.20572514166423281,-0.012941090299746598,-0.019003963293154211,0.09856816455256448,-0.067033600714816621,-0.098153259435486417,-0.046442921779939458,0.18413236742059352,-0.079553315677447251,-0.052741141632516753,-0.041471398886844119,-0.052845701806225165,-0.13409622572053995,-0.040971547992850729,-0.14356977221976849,0.0092796546483774264,-0.16915747036499013,0.0712250413048508,-0.11575599602047004,-0.018653366427278162,-0.085366043392003363,-0.094706804333581807,-0.061014482227595632],[-0.045623748033901984,-0.086131224408054444,-0.052097201435452628,0.0075002087100829867,0.10653668566486005,0.043550140636768007,-0.12152650675713356,0.024701935236675854,-0.019841184697349343,0.052192940970289599,-0.037745861936721851,-0.053333529501282971,0.01819023835458615,0.075280830534765142,0.0035130448505715436,-0.11851849300668682,