{"nb_inputs":900,"nb_hiddens":22,"nb_outputs":62,"h_biases":[-0.47499534375034769,-0.52039133336374521,0.12860054805597684,-0.18948502513607435,-0.27450210431126398,-0.06989139591141301,-0.7830170132996247,-0.31347542835864872,-0.3348878249024968,-0.30883703134151158,0.28880834904323521,-0.24497841917554095,0.1337418767063005,-0.81558777410786909,-0.41344392287667764,0.50512665101023702,0.7459066079758655,0.0039993842889478317,-0.69297574708757737,-1.2240283273733039,-0.32620476287478306,0.36500737244470133],"o_biases":[-0.3421038369434623,-0.53721209479725707,-0.71749627125149595,-0.78052239578001104,-0.60612604404214232,-1.1995406242771998,-1.0348705875268021,-0.24781295112628679,-0.59778510898535619,-0.52374649755590652,-0.36369089691543305,-0.49445683332162588,-0.62921652277964313,-0.68293392624934446,-0.58811249580548353,-0.6204034548684122,-0.29010148676045683,-0.53149460796366488,-0.30812118929590904,-0.17314000176253344,-0.66905810298833324,-0.64644656149788604,-0.89594102867064973,-0.26648162409632609,-0.48795098024186651,-0.55535343730812337,-0.55161364510395638,-0.3859218986611842,-0.43617720075881666,-0.49730640203849574,-0.48418662947937169,-0.66822583049485196,-0.26137023090860456,-0.61472504796672045,-0.48567950655537562,-0.57317045197262451,-0.48720069242001479,-1.2626897053484627,-0.55902219149370069,-0.84293329871748168,-0.72820725289991806,-0.43651644839864617,-0.83554727958420094,-0.39002323312410209,-0.52951926233116919,-0.28259320743030725,-0.54595498471026538,-0.41458878578866182,-0.43041507998840745,-0.44448395380776212,-0.33313536187193626,-0.80666994687553273,-0.082548037015286485,-0.45602874941556215,-1.1062622881638178,-0.73443967719102998,-0.38660927783664639,-0.45717792110296263,-0.58376618790271062,-0.36083365147671159,-0.54671414001860608,-0.97527437164388397],"h_weights":[[-0.064326175414062103,-0.01936264085190359,-0.024053844613810223,-0.022068293468504082,-0.1339628117185663,-0.089248094239935682,-0.12767624732705687,-0.015299809201583303,-0.046280825018667933,-0.13648080238069746,-0.024786744894478206,0.011027090150788281,-0.13762385874706662,0.071110475133117329,-0.032720576576939255,0.0075803966315531879,-0.052155790344979219,-0.095852179534977433,0.044732427802184178,-0.019348060758670689,-0.023912986305064755,0.036732139291017978],[-0.096883846778945681,0.0047156071534927152,0.1127818439693494,0.031456063511530956,-0.096122521518115234,-0.052048444076870107,0.12167093842920113,0.043550843331033519,0.077663382483577681,-0.015414691247002239,-0.13836112254999652,-0.027326463086113133,-0.071428727871372999,0.03933877566397153,0.044631044463280527,-0.037915400924998947,-0.040944036637885768,-0.071639988683748185,-0.0042808238277770964,0.028958178928963733,-0.053065657609486311,0.056394789574544683],[-0.070747569115071518,-0.050217713727660603,0.0052030525438077208,0.042575394867131862,0.0024636014530449793,0.015893296709714885,-0.016183006577886346,-0.014662016131493826,0.062314662418604151,-0.090539465016793885,-0.045982515468149368,-0.049675227198435583,-0.020680748620345552,-0.053348651583890287,-0.095809215987282675,0.071327998150012756,0.066459192948789797,-0.028136783568284838,-0.022607465949729857,-0.076439995325035592,-0.067657309445447927,-0.02173367646475681],[-0.030908353641062425,-0.047807631812185204,0.0033071181802969418,-0.037257703283301774,0.11118437443931933,-0.19368376258515244,-0.025581787127355368,-0.038207388707218168,0.026543141094361053,-0.029479610977032659,0.062718649819992506,0.033860195535294076,0.0098911963210150042,0.0018184038360235313,-0.030868011208350393,0.05542555068577782,-0.03326567199200111,-0.0106375357332496,-0.029160559287182513,-0.001791354307342799,0.16212009153404938,-0.0045006015639702385],[-0.13200695971049345,-0.021273720908830559,-0.12360542354679324,-0.099911576930583557,0.013443003408130233,-0.029895926544392933,0.069381918944626503,0.016911567167422682,-0.068378347794240735,-0.035712083606774775,0.0025903691515245797,-0.016415558483500205,-0.033861688464671934,-0.0034370260304669061,-0.093335145125656077,0.027749166917803637,-0.0046977973865306964,-0.032572496310587715,-0.024949128288203854,-0.056271583768720553,-0.021756147116224457,-0.13527179939112638],[-0.10048593882056292,0.042715211572480961,-0.13526794019344435,0.0076476372785354574,-0.10165054279204672,-0.054835557619409475,0.023348546037263808,0.052725311392830009,-0.11256700864264091,-0.029264600872289083,-0.092049401324510477,-0.06059776077404129,-0.01074280584710692,0.029521809965974609,-0.062809741923590831,-0.071757918178858598,0.0053934637566619356,-0.079632905368106952,-0.058299219941198743,-0.018047059474057357,-0.044118841492238756,-0.036141423699449393],[0.030451435830995015,0.045136919787828293,0.014781963684978236,-0.12346347190182971,-0.091625098372258393,-0.047819256862565933,-0.044678694665630472,0.0033731690229279881,-0.021500281776494885,-0.053437657419049767,-0.14560891395493988,-0.01641572319157197,-0.048686612237878103,-0.087111856877004012,-0.019317085345721428,-0.013590506767058658,-0.022875871857765042,-0.076607989251899961,0.052525711442376756,-0.012949457319506513,-0.10318808316554029,-0.052347064778842475],[-0.069256830112170653,0.014805038402396803,-0.053473054486139662,-0.082916073198358503,0.00080189978201621048,-0.10030012660958773,-0.03971478106123074,-0.011635427721918109,0.023580427954147679,-0.11815487722399662,0.057630737486862961,-0.054360261996243248,-0.016815276204259266,-0.073504486729178087,-0.082629031355002353,-0.037047513123617849,0.083015988329185525,-0.11801775291672936,-0.055916798294025447,0.049940260910838703,0.046339923052386038,-0.040044472252453778],[-0.028829769672647519,0.010641829864231823,-0.05674735395574055,-0.013307108257464256,-0.097784614552721305,-0.065400661934148618,-0.084779071757987684,-0.067437979095090861,-0.039467266815705518,-0.012993665868792924,0.055543666562225778,-0.026221589876971683,0.045093174765590084,-0.039824236731715867,-0.1886798677622451,-0.036210005454207023,-0.14937735874538038,-0.0035228223102331951,-0.13948908034055915,-0.090197394259526054,-0.0039683311995298322,0.11997675472035801],[-0.017269198745953472,-0.086846698351824014,-0.14961662724107927,-0.10184136477934122,-0.077260280424701816,0.045377261424434066,0.0058481622436339711,-0.098782570704089828,-0.087067684649588611,0.021313352123692571,0.091676402941160667,-0.020488628390594045,-0.020974350689265855,-0.043766921193287268,0.035687430713745215,0.0052817070693042811,0.025956486671370384,-0.013937091065450012,-0.00010053366911787903,-0.01480345987916399,-0.12459309436989463,-0.097269352502808215],[-0.042243015787013338,-0.13056708636914055,-0.12599546377622886,-0.11929647718093256,0.0088205242999227149,0.038663568852767387,-0.1017762100823458,-0.041448851987841373,-0.097800760436399348,0.030232498208328872,-0.012098566493900804,-0.054793250982241193,0.028956712223523889,0.0082812891795959673,-0.074135423756029994,-0.09534775073080004,-0.051801661680599423,-0.052744318400540655,0.093124214417249218,-0.09483924239546393,-0.12278295804391115,-0.084572205394587541],[0.21217409023522527,-0.040793176890596174,0.0050023842684581432,-0.10024603591941861,0.010119032095904798,-0.057134386780081065,-0.020487505453765306,-0.16156050495441976,-0.051722021628480795,-0.022512161456090127,-0.058114871640456006,-0.067117362535902364,0.013925922632641814,0.06854465235080226,0.033132243819071532,-0.10818451888363603,-0.026082183621303871,-0.068768796234325566,0.027723983215835739,-0.044291974214210633,-0.062605756430183845,-0.02963133227783293],[-0.020093455845952016,-0.11971414088516585,0.0074670870623487068,-0.0034919308492314845,-0.051128819124469926,-0.10098597907708765,-0.074640182530851251,0.010884699115341137,0.034869598544408582,-0.089172250000009945,-0.073506072743453249,-0.17236328639561824,0.040429388096146178,-0.065321338915183325,-0.093735728414862038,-0.14549287515170303,-0.12622971545547235,-0.071687270201017117,-0.0062574711358893871,-0.09877936203616719,0.047704330234252405,0.10844092335459238],[-0.084844620835434426,-0.011528026480261411,0.023469370246113876,-0.08389792645756286,0.017233664709959039,-0.013631760723026451,-0.030052403958246869,-0.12950090727168453,-0.14834291056035032,-0.054243938100253034,-0.00097223925480383055,-0.1518066277497242,-0.028488139496934579,-0.034754188371111425,0.014578421712245972,-0.11430411243896385,-0.1008822869225374,-0.0098149196501933975,-0.085009872055214736,0.019857362323656244,-0.12559759560890088,-0.0056845464172720662],[-0.0038658864815192644,-0.085333397416053641,-0.081796152561640328,-0.18054573154234066,-0.030026731192367085,-0.1377627444575866,0.14806272744869406,-0.024620116469374884,-0.003540919971630592,-0.15159054973135691,-0.010933420028239667,0.028298882073907752,-0.067585675263135803,-0.055567532628107576,-0.033788897576615282,-0.045028254877540488,-0.017461865060695983,-0.058938325156393162,0.014878602696921643,-0.058042866511475055,0.0033826038543651876,-0.0044936983399584234],[-0.014281962373940783,-0.011399529069408679,0.059580792702247316,-0.082651782494356424,-0.010719953062340561,0.026124588510833102,-0.12433176504550575,-0.056333821503844,0.062091836472166671,-0.0074508893201846831,-0.19055986857629151,-0.032424103263749532,0.062424757950337771,-0.20359062332779307,-0.096189315653908536,-0.059728458309821264,-0.052846402587855029,0.059579544790204698,-0.017353204010558756,-0.056750828027592404,-0.044860018526922035,-0.04824775195738619],[-0.017134988746565622,0.031211053269974358,0.045134031725611666,0.040081923618537275,0.030735875323773719,-0.0029518902795479494,0.10937752826083097,-0.03692420261286139,0.00025721303488217273,-0.10165219789011734,0.0047275278386893008,-0.098983021726652187,-0.025125986748594228,-0.10599169329422062,0.040472082736270683,-0.04777836781768259,-0.15069381134811527,-0.065015324950840281,-0.069186709278649366,-0.04347224128623417,-0.061172423563505704,-0.026569186747856539],[-0.077809419354439843,0.074408388616088117,-0.063706884178159201,-0.0828426903336138,0.010259803472909439,-0.037674729606576245,-0.18514562591274802,-0.057971458626728867,-0.0008305196739342019,-0.034938690625678892,-0.095390346664173842,0.13147640037650327,-0.24934527234072196,-0.060418758343263587,-0.075269074670669775,0.039141262795063712,-0.15400382606666418,-0.0076977761260489871,-0.028545227557007509,-0.075453653633367757,0.10779695075397461,-0.015447830955836163],[-0.029617781644715173,0.013918375726483995,-0.039258222048201286,0.012015928587337556,0.000454343557982545,-0.015558429731439158,-0.026149751725011078,0.0024823512777392143,-0.042002982617113549,0.082048533741491209,0.0071373291481018758,-0.025996338281202021,-0.067895985873320547,-0.10982805052968719,-0.060873974428743323,0.012764908086288725,-0.14092419286088137,-0.10465024420710983,0.068258564479227263,-0.016459777362465851,-0.092200531385812745,0.061966583602156615],[0.0015219899984854832,-0.20289667170944398,-0.011729680437466673,0.011571002582560171,-0.12688033001843538,-0.16011796994393149,-0.16511249501964753,-0.0053123518110756059,-0.051796784931288788,-0.013913558800060243,0.11673118979602642,1.5807654114595449e-05,-0.013407225914129156,-0.10881897832190973,-0.052722455161783588,-0.095017359137180402,-0.07015241409617004,-0.028571093592941802,-0.065603255617807638,0.042350658090679318,-0.066407830874636406,0.013264002359691676],[-0.014668644411920631,-0.069436126393353559,-0.087666506776163708,-0.10215927366962196,0.025109164817379133,-0.073732744448779641,0.0485338844919165,-0.012704116933778382,-0.036908201015803846,-0.094637543073322977,0.046730657832340129,-0.0073692227283173803,-0.043621399269903383,-0.061440082903498873,0.024348710133252044,-0.1489037861603337,0.010124873201931867,-0.06975759699967865,-0.077436945679737718,-0.029602577424588113,-0.074045280708436662,-0.017771817877675553],[0.013708750674750365,-0.083929374122989786,-0.025849236304147115,0.060343642286932155,-0.017602090887253924,-0.11203158384579723,-0.094870469721130862,0.016792515091356333,0.034765583079353964,0.019461699464198359,-0.033410710025751481,-0.093877081489837894,-0.045973919202127275,0.027987996029802287,-0.060972765705485807,-0.048581175287315183,-0.11502429853682811,-0.016600199440057407,-0.13225113784861334,0.039201679760598095,-0.083573991362180897,-0.0050128840109750633],[-0.0087356624427192726,0.0083970916649791227,0.15208743402789979,0.0044983939382181801,-0.056983453242275391,0.086173440857308686,-0.030335829293626604,0.056262446738117276,0.084864438477603277,-0.070049547017029562,0.0057039452893276471,-0.040877609382918061,-0.0021846699029164571,-0.010994049807586441,-0.059854323697139056,-0.12828713946157588,-0.086347452390341917,-0.086000198836746283,0.040498346840271961,0.0054232104909429993,-0.086902825586768623,-0.098100008701698604],[-0.10121068518063486,-0.10213626578486279,0.059265147375502057,0.019450282882623363,0.00040421665807419127,-0.049597777713083685,-0.1115619996524245,0.018580321769311202,-0.020213341019488927,0.025126574073777455,0.035966403250590286,0.032624079057910295,0.062117936117808241,0.0081349613190280431,-0.11386848644176104,-0.11519668822992235,0.016915213764394844,-0.016900648467181072,0.14230456820273557,-0.0083547689246062755,-0.1812843408499582,-0.010229361744529219],[-0.067161617998314632,-0.18117164696374016,-0.11967246460492717,0.0010592624677336904,-0.012217213933841193,-0.05396971603923216,0.11564939982316236,-0.094171876048320363,0.053317328519342448,-0.011197415262685344,-0.011714651476765713,0.073350279509890093,-0.011649910487414074,0.007724145340841107,0.044132455402479905,-0.061544541765371961,-0.038135285638050263,0.01606218761185365,-0.065111339662209319,-0.040975861784503062,-0.066186850189580371,-0.047273136243260225],[-0.091018503882868834,0.17229211869553873,0.051260134563521763,-0.046480646049910847,-0.04466273795071117,-0.048885195890699895,0.059228697281181485,0.010106105253586704,0.11695563804872805,-0.11293445742019254,0.082873390774333505,0.0070899076888250659,-0.13554960614704761,0.027682926292442421,0.054296657681989109,0.020486704596664809,-0.104535020458215,-0.0021027482628485604,0.055096993621501035,0.014227499043084846,-0.10447081899128202,-0.052551144703220642],[-0.10393477880442997,-0.088727062274063268,-0.060272088983665706,-0.14434653027511463,-0.055937760146458397,0.027002031648916021,-0.084159243385238183,-0.085580510369301033,-0.012881176082942421,-0.083668056471268445,-0.0071396506787211218,0.077386026501636895,-0.14862837988362398,-0.12151489047287722,-0.00091009885557431086,0.086969189050282308,-0.083529058453563995,-0.031899330263320189,-0.1446029737061037,-0.016009981130197786,-0.13170777467680889,-0.084583052570530656],[-0.17498081739409474,-0.016348794649235047,-0.03981875055617988,-0.053803158006241802,-0.11488115187729936,-0.12154944660744393,-0.06749856855794345,-0.042395750643432331,0.028874970331714031,-0.067713784099905194,-0.067074180336124417,-0.03724171885703545,-0.068547784454159905,0.022674340909148896,-0.042791083532851326,0.034056083419962475,-0.079166102562848478,-0.057105124184232747,-0.003439302545927822,-0.027242872524225855,0.034285533260318933,-0.074846710412601769],[-0.014024274139180171,0.033985770750179493,0.0090505093483166169,-0.051899640407445019,0.0053234379220971489,0.10015829699288717,-0.073043857460729056,-0.084570614907949038,-0.027732139009098586,-0.041141463338637572,-0.095887689384626024,0.075463806130129152,-0.0038512504850584661,-0.10711331273864783,-0.010970333426324322,-0.06213104326111011,-0.0086193769999340225,-0.051868193527181555,-0.011135681381693664,0.13409239475918647,0.066996075002827171,0.072380492377331462],[-0.0949376191189895,-0.080122926789211318,-0.13267468828195397,-0.12427741145263693,-0.18004652896304824,0.0065826559505968441,0.065872594479742586,0.0044957269984255491,0.075517538139763196,0.030779712091495416,0.059914598872882953,0.014873188686465706,-0.020152168347903267,-0.15392984273334365,-0.071085391340234394,-0.097270652045049033,-0.045623168416442358,0.061183510042898924,-0.063133954773485185,-0.0085870353361703761,-0.06657384818544887,0.0015895854226353548],[0.052684825099034237,-0.13110404524807642,0.11748416162377373,0.017530217339024809,-0.11389899732794795,-0.095931749180634518,-0.039250475125796463,-0.0062703967539747725,-0.093014275673122385,-0.12279446107613182,-0.067794652565524055,-0.085410325462095898,-0.082163371518504225,-0.12053588966155354,0.0024516696228149074,-0.023092248957705584,0.17047972775644527,0.017502496511319798,-0.038122803470882066,0.088992664532045074,-0.045812014185479852,-0.039432524249767321],[-0.032989171864780079,-0.016453005635401297,0.018755749447482907,-0.080824248605705529,-0.12379516994802703,0.065712196377889359,-0.058270101944376061,-0.026586659975438732,-0.09306339520610904,-0.042816903000932507,-0.050529106082727954,-0.091733524167201097,-0.034626643130717165,-0.084180598229248005,0.0275740941406864,-0.1167928621534306,0.12331579567434645,-0.020816735601631539,-0.19958454386370367,-0.1231344411510216,-0.19236823602760428,0.034430277934880842],[-0.034403872259864458,-0.077264817875519864,-0.049844545980306659,-0.012351176915583666,-0.12028415203846854,-0.10634440670713563,0.06889395378369717,-0.071984468034077709,-0.083320795626014438,-0.021036199101317168,-0.084526993395922748,-0.098377596486660529,0.07805799385691789,-0.028248612311564576,-0.12852689547680324,-0.0032064442320709,-0.0039716674275013693,-0.095068538968336044,-0.10119164552188276,0.041479560155720276,0.12238009130861202,-0.070600161853361154],[-0.048777148931757074,-0.044718553990523192,-0.041066879954616047,-0.10878554010599459,0.066539941486899568,-0.068278203489570338,0.12830776912454053,-0.095711060621758132,-0.084626096047062338,-0.073090879794122793,-0.016566393420603627,0.0093605597851150885,-0.055912829166176445,0.038397917727634047,-0.12838715448869814,-0.096187709956095518,-0.033233098300535238,0.12875712474071652,-0.13394047239775339,-0.075376383706740935,-0.087561759750200724,-0.032137268882998303],[0.023998501032612016,0.062710687139562071,-0.034460803247656317,-0.013779456780987277,-0.035002759520156052,-0.049790723903873735,-0.05993412797360978,0.035781561787548523,-0.049880891683627658,-0.0047904100704522674,-0.073083435866973467,-0.053949773103717388,-0.038718198890967122,-0.18202519501690423,-0.060423230002468201,-0.10277909227381066,-0.084907860854705738,-0.11017172474828232,0.075487179245387837,-0.020557523091171412,0.073304884234039774,-0.022646694222884137],[-0.14274319357917345,0.012008438658410107,0.084563732629475918,-0.060589381977253734,-0.096959872133750319,-0.05465217609157861,-0.045351335194855159,-0.037539462504673826,-0.033886277276628893,-0.078566232998508373,-0.071537563861302431,0.092873665655676702,0.005375044739310636,0.01246885730282727,-0.010605421515844548,0.026816490406568319,-0.085798133212550518,0.039712725558908903,0.044336479943666622,0.010857227146313077,-0.027660487309955524,-0.16923851615395849],[0.1155625742771168,0.080749518953048299,-0.080530163604161348,0.018097225963201,-0.012975152678735342,-0.20156075741581675,-0.038980214033454773,-0.13096562833830483,0.050913012359268352,0.025155833506686848,-0.073590648557628979,-0.018747437910466784,-0.082586093865091109,-0.014136615638827822,0.011677326402978118,-0.026244652438420189,-0.00061722215109210471,0.057867527599912975,0.083568382788051482,0.050134770487818593,-0.017252488566404055,-0.07000346431336478],[0.053127303658226661,0.047081924305227583,-0.032075036900034312,-0.043591948011380471,0.029336479863514724,0.081727867869519771,0.036785263728793739,-0.12884587074241691,0.02183833197220228,-0.09528367052784395,0.0019071989199084954,0.033568786329351723,-0.041881507883064079,0.020333266935371304,-0.012138783522931618,-0.052289395413380658,-0.056995530003282335,-0.0055723743932335097,0.037237289392367263,0.046218346586156027,-0.036675742114700101,-0.033799486081933131],[0.032006044353242676,-0.0055633203302766984,-0.092586268365750513,0.058419642076253421,0.057092452172095305,-0.024883256384050062,0.00087012677566836172,-0.047216362140706181,-0.2176201262394348,-0.004124188496247249,0.079044830552344486,-0.09730022886502035,-0.033379979891519605,0.061932657341426271,-0.047520989700252148,-0.00068424201079879399,0.038328575008622225,-0.20628788048205079,-0.099642209510751784,-0.11333822937828919,-0.13643200389262955,0.0020732911983417715],[-0.090511346653796482,-0.11103281041352436,0.13440153404839203,0.022397660428887009,-0.012207297146492567,0.023252747580172206,0.0058794838653779685,-0.011451276773314336,0.034241823238978501,-0.089332183530888898,0.085957118201141713,-0.048997959136994472,-0.069236253108163476,-0.046062084601789892,-0.10754786164754634,-0.048647357050817415,-0.018592186674412706,0.062927538385666087,-0.024270325360348552,0.02425285399843069,-0.036346763261839339,-0.040486946564982036],[-0.063660438499238539,0.032407759065132623,-0.046298896332120941,-0.00011893519251920948,-0.00051958483338244987,-0.0686756653404378,0.0064388428366374609,-0.12156891759329766,-0.14877399371769667,0.034782274279357282,-0.041412516411508865,-0.066454956008686145,0.0025193556662149591,-0.15717413265859548,-0.016976152519281196,-0.11877792699574488,-0.029221850961797552,-0.050346199805819773,-0.06137390931699091,-0.062569241736400799,-0.037148142450023985,-0.023250939290972859],[-0.15886382215484846,-0.051995748079959277,0.054479952805146621,-0.12168681968725145,-0.099913760678306457,-0.0043807297567173796,0.021136382920489631,-0.10282300809850181,-0.051210558839316446,-0.039403777767513359,0.00061139043032316931,0.028347623192826341,-0.084926461358239627,-0.085098979942691014,-0.030113818986853683,0.10611186442622356,-0.12418237104271024,-0.13210036935934508,-0.044645483666810856,0.15378168803711012,0.028612971661821786,0.043188184989833879],[-0.050710091286516566,-0.12281521461637246,-0.11120355128826831,-0.0096866111080530053,-0.074909075812080672,-0.083904781176366169,0.14563131671270607,0.0037549119969327444,0.017866152997101224,0.17301530616870311,-0.073081617583057909,0.029096184558314746,-0.17591768594622692,-0.036114647616598765,0.045757701612823852,0.039631685110108304,-0.081056229313595601,-0.00049805014083472571,-0.16851404116660273,-0.043496641585680257,-0.038555211811232962,0.017144833448230749],[0.012178635781184749,-0.070502040928146686,-0.03051647292861899,-0.071885643316501074,0.11133083382263606,0.028120753950136558,0.0010336728760200614,0.052334112612516547,-0.14064114776111747,0.099781419367230811,0.026587664997883328,0.026454909693045731,0.023124541740285817,0.021673384191744582,-0.038024491566281772,-0.068067586428038257,-0.084657155407258378,-0.053164530043764646,-0.10959990913092657,-0.080193349601799066,0.056965935219528245,0.030033244177295977],[0.084799446461912537,-0.055190852321190378,0.028973071160054507,-0.082051998483351513,-0.057910267815730943,-0.0084936556708694322,-0.079953281609919366,-0.086091812409485644,0.07485455467415067,0.031857018731170493,-0.01275220579399618,0.069661770099502862,0.029034384214143227,0.046379688708418874,0.083607666560311572,-0.033735189932665076,0.067022520077749642,-0.03378628550612478,-0.020124175846863684,0.015368530527993404,-0.025086135442191754,-0.043028006268313115],[-0.013561674517488537,0.082450566712307466,-0.14075445628536729,0.00040200074510821776,0.015035334269390806,-0.03178879421003792,-0.13837690363033464,-0.031500911189551214,-0.0064745454072175565,-0.067762170490948431,0.028791275785514069,0.049929737565343059,0.014731413040454784,-0.0026178330118293257,0.082848016533778518,-0.018702270409598411,0.0031858154654209117,-0.050198231083313491,-0.13717078281154993,0.055646155791492534,0.0099764256421948291,0.044355416335106791],[-0.080912500933596698,0.10492983664292344,-0.093528332784398427,-0.067908421580164968,-0.0060363550657841873,0.017047078124467138,-0.045261763474201515,0.097232686296688964,-0.050562836358468949,-0.075641836693621248,-0.10472411335096055,-0.035233461606813773,0.10033517247202964,-0.0120778509293707,-0.033052633832385582,-0.063968234333030435,-0.03848899653312117,-0.062247254641844212,-0.12502266550959643,0.044580543791059614,0.034248270688479639,-0.1403076104485019],[-0.069188963347062593,0.033190000945887164,-0.17800039035527673,-0.1048914995069074,-0.038716902540304333,0.042665859877151539,0.051175063739941316,-0.060082300616477527,-0.086462236697412903,-0.0070399899177526759,0.041604428252706403,-0.080700137521193371,-0.037678128273749778,0.008875645601142193,0.018848687855156594,-0.04952173532128154,0.049291379102134929,-0.095190536879269899,-0.0051681410489530719,-0.062970627376908714,0.0044662500917726153,-0.096727885916580936],[-0.16027691714257794,0.028601625329957303,0.02469283050106056,-0.098612495995853144,0.12133804218559541,-0.14141854941617957,0.00015187238211507303,-0.13572932205341948,-0.020561226774537554,-0.0036093394801117069,-0.0064280678914317366,-0.1055891971717875,-0.060008888002421615,-0.01170914166288663,-0.092321813051634172,-0.044642316283338181,-0.15718923132179308,-0.041677642276942269,0.0067042693728000882,-0.016536992022241594,0.020566425392877612,0.069857697915752831],[-0.090783013808674262,-0.12097916026831546,0.0052719944280343808,-0.015747253167514387,0.024484365069736627,0.007229745083625963,-0.096431206864840691,0.036016360078503208,-0.057674494411616886,-0.043476369241837461,-0.12257024315125939,0.03739051770821792,-0.048066050404662872,-0.0569481432534195,0.11049690503278969,-0.016954796084642329,0.044610576513570595,-0.0061086043234586211,0.092915578692638612,-0.038805811246976019,-0.12269289776799774,-0.05258167736791873],[-0.042748058187947885,-0.058271519732294927,-0.03627512586661498,-0.039120271770586863,-0.022362703312561349,-0.057716114867615048,-0.10354135306107218,-0.10821771631207092,0.022276007191985726,0.04956188581099704,-0.040222730166342265,0.0028860331308713932,0.00014766484279069014,0.017971323933988856,0.046463755377543499,-0.058809505988464461,-0.077473483938711465,0.00083637753631881501,-0.046875752552234189,-0.042606950008992117,-0.038516737966473688,-0.042221422798051779],[-0.078086888839478757,0.037003077283668383,-0.15094312431366882,-0.0058629980798532398,-0.03117525982015068,0.092268160221054774,-0.093825313468356597,0.0062123947239854441,-0.072136706883708601,-0.060668526925427457,-0.0067311861228932963,0.032979531052230997,-0.10310188761706249,-0.13820147268453389,-0.03484526863321017,-0.2065607831401445,0.013935930620841079,-0.013957841648982033,-0.01597557248165166,-0.010120812071939274,-0.01428727732561616,-0.075640837527489319],[-0.099798164021917352,0.008245255495593011,-0.058556365933068982,-0.063783213906178193,0.069380361574633842,0.0052295340849605326,0.021883802134293119,-0.021208621869048851,-0.15260125494604887,-0.060422856251702808,-0.099870997162563618,-0.0088488924246976006,-0.062234472232096827,-0.059265617323306964,0.02405848804589264,0.03590739878611978,0.048710906567080985,-0.036244376491606514,-0.12583368586545227,-0.13912835800523152,-0.076803888913121329,0.03504322839319849],[0.026581425380569658,-0.04866645770890804,0.046520168445238062,0.038153564607003067,0.012348117158408729,-0.16263229364261628,0.031263500649087193,-0.15444235183008037,-0.27686611988300908,-0.10967136798384297,-0.11477778598377431,-0.03227395862257193,-0.027411195288691143,-0.11188094219201281,0.038627680646516206,0.044257725599979196,-0.059315303478625375,0.0057935337390581515,0.045853363153813602,0.098730028141017279,-0.016816626780752596,0.00013183625984259512],[-0.073865353153966612,-0.043331160730020413,0.040455532972181608,-0.089642892145779862,-0.10033718212961659,-0.14189896810909702,-0.092876694958198558,-0.048424287785336619,-0.089552708218701357,-0.078079352057744994,-0.050568476854153069,-0.010030308211568209,-0.12431705124896694,-0.06338025896229553,0.0021421217705637832,0.045098818088013339,-0.014118940490231345,-0.090454370284760027,0.053629294617493183,0.08486722429302837,-0.11541651269552605,-0.094134467776988029],[-0.093969280244363823,-0.089435980418955438,0.017944016426601886,-0.20002376784269899,-0.13855587749834719,-0.080603500770961664,0.10773348537618194,-0.028233272082254575,-0.062745885484102717,-0.069264618061978228,0.03430463237218228,0.13136930024070875,-0.025253263411972419,-0.042468916697167153,-0.060742349252105823,-0.037606304148190335,-0.022850450645765887,-0.08899654912404667,-0.14371722888584035,-0.070059955450290284,-0.049012849348035091,0.13112935440039106],[0.04176098752594435,-0.041438333165912215,-0.12185229234946351,0.01448045150835485,-0.059962304578084033,-0.070798914270356589,-0.034470007239685255,-0.082021993457124368,-0.095847116098462026,-0.064846112118177035,-0.052458223786420982,0.10913022313525753,0.077431567925089845,0.045047787178607808,-0.1297007618958631,0.01445703423009382,0.048594389521384999,-0.038187596581372607,-0.036520218022752356,0.019589004554539456,-0.11901799329743754,-0.068000169614043482],[-0.076713091084381235,-0.042770072134106177,-0.02876388966956913,-0.028010989002816386,0.014517143613774805,-0.028448435837338529,-0.059296947620326668,-0.039274003786815302,-0.020864802815734041,-0.1647196825873373,-0.017434532117225093,-0.14800551199005085,-0.024324184934959289,-0.075447559023977706,0.060986569951182658,-0.092595927289151253,-0.12333084575264644,-0.066329904395886638,-0.015724870038763623,-0.11686431303594244,-0.036878611349276912,-0.017116894365613478],[0.017796102674317797,-0.072211432017832505,-0.022744368249793596,0.056770667430054635,-0.062503577260516113,-0.0018823857272187855,0.027382443250765102,-0.086240843660913252,-0.026916384130302576,-0.039740474890836416,-0.052859769149919272,-0.080939198995868225,0.043349038256097407,-0.055416158380286414,0.083323374820567619,0.10165143760167786,0.072538710699230458,0.027340477318445931,-0.0053872319155846629,-0.065497337843426179,0.038013364854752117,-0.013016342254210302],[-0.036902665664738744,0.019926397766676096,-0.10481481829415723,-0.052628029913429242,0.030158969650693208,-0.077866757981121359,-0.078870399843002356,-0.011212754501529549,0.046789548038574859,-0.055946621575873969,-0.12893942567627747,-0.11138294270956728,-0.091913189253556946,-0.20986231389321139,-0.013899773817217225,-0.09314642659064433,-0.010328575761945846,-0.097243940849282839,-0.087646799968813097,-0.022952169049393137,-0.116002336002614,0.0061926735085824428],[-0.15348370610268872,-0.15763770443581249,0.033192063998487543,-0.047437271752244797,-0.085041334918695644,0.08017366102652565,0.00025742846157323501,-0.071128594184317384,-0.035446373794190154,0.0027083793851508317,-0.041820387555366871,0.0027612680941560691,-0.073150280190561051,-0.030988807724915302,-0.14148663026388328,0.033680154003873301,-0.078277842112166568,0.0014764271656979092,-0.086945626568392734,-0.073331840885039717,0.091016749989481421,-0.00026231183780729],[-0.019545856052039554,0.046770815609294851,0.057686660269360542,-0.0086941187801925016,-0.13635039482498076,0.091798717066908508,-0.031583593839835715,0.047708302478304258,-0.023319683681330632,0.056666073603264554,-0.0042085485315362728,0.070875486338040583,0.057123384119425448,-0.089462946061149379,-0.0045634750196759111,0.049154731558057031,-0.12187560519036181,-0.085419140078439731,-0.11306300610607339,-0.075815942488991872,-0.12955203107503688,0.0065424066842793144],[0.013193900379919236,-0.070965038056934771,-0.047830184311760997,-0.041731701421191057,0.073806109174473139,-0.13437206496909984,-0.025406372083035325,-0.00070151178539930997,0.016235865482200282,-0.023041057231802428,-0.085212866879596061,-0.003827721427959372,-0.11905091802613985,-0.057840945787619724,-0.036908687963451224,-0.066930104367503906,-0.11664061367284545,-0.19134009826661805,-0.016721335928087177,0.025251708768346932,-0.0064680851811393242,0.034855950168351267],[-0.074349364419215136,-0.16792042491720602,0.045775573552752906,0.039976518905459162,-0.084106117265728142,0.021506488977640383,0.043366016055499716,0.030990115846010989,-0.10536347596541848,0.027863164137222014,-0.17196868389319725,0.072279779859320159,0.06544947339882784,-0.032091065076763951,-0.05582101929145325,-0.068768389633418289,-0.056312355482521483,-0.12700278759803055,-0.11371274610238544,0.022700289587617217,0.12069789671793096,-0.0075019827194404906],[-0.10926131372932865,-0.12659484318712705,-0.019752787706543797,0.057534554358655766,-0.091328350441866629,-0.19057063763749432,0.033411906629064812,-0.071932465174027863,0.020800183652674498,-0.13986036546592817,-0.097619565677033004,0.0066373767463248148,-0.0054963257086842257,0.075704059288437958,-0.054980623246836252,0.078956122802576634,-0.10040139641626911,-0.10141254137227251,0.060344646811955248,-0.071121083125959689,-0.092535113940990732,-0.014176084023271251],[0.022738996876320278,0.00534028807761084,0.081236504690349043,-0.026525623045653625,-0.098828021874521305,-0.052171897647891555,0.041576520755727132,-0.14741562204024553,-0.11409319398140916,-0.0087420104615209375,-0.018268706226928395,-0.024342924002673787,0.072934216928773637,-0.032774419114975577,0.0070169427519656685,-0.018711205806704538,-0.036602067056241444,-0.16435830932144196,-0.049612743205884324,0.0052297143598891496,0.1123968099772655,-0.10481502671433024],[-0.034592207326483451,0.034312655713447306,-0.11180184010632174,-0.022529843559382177,-0.05122312044764004,0.079142899454918064,0.049290174775285293,-0.053659856663459918,-0.068773161929922139,-0.081943277446362789,0.027718551712629769,0.015314351878242441,-0.063335200026413213,-0.083674504531515329,0.044499522098636814,-0.083639153265586075,-0.04784871930538618,-0.035957629028147434,-0.056149594029822149,-0.025654586474668787,0.008840074647338908,0.017371604231511094],[-0.17650975031805491,-0.072615659393155785,-0.15539840370687275,-0.052279563252534036,0.066371448838179137,0.0029763964160404374,0.0034904290279059585,-0.067278147214386436,-0.0075746704264075121,-0.034430454287066259,-0.18908727823890373,0.048311105095285654,-0.029844690864291083,-0.021717266390529184,-0.15745963463181886,-0.035295020240489451,-0.044878456538523237,0.0067475923002991781,-0.042627869434049781,-0.053789814368586708,-0.10133929230511002,0.061174210269369124],[-0.026187182193284343,-0.005171650052184406,-0.10023810078359563,-0.08881000821762973,0.12478927603953008,0.029655930435007354,-0.12841599053032901,-0.065144249315039926,-0.048917426766311917,0.01898072500214202,-0.060670267418040991,0.04174446092073545,-0.024533774778331671,-0.1080674744014849,-0.062777388180892374,0.059453095590904038,0.03655715421344586,0.0020930785335386698,-0.10103682244216383,-0.094757351108459911,-0.038849844541667351,-0.076726602017604117],[-0.083540443637851708,-0.17911484599892386,-0.097006436628528731,-0.028726903872708487,-0.048678095522195278,0.011696947545473547,0.046692743868260576,-0.08794515008319817,-0.082091578671771429,0.014795621880028573,-0.098674367426490162,0.10868104321791522,-0.033998848427600592,-0.094804963599736281,-0.032081209035202993,-0.11708609160822214,0.029842175747487105,-0.12690976962323636,-0.032760643116868757,-0.034504866783015321,-0.029723078503665491,-0.076808378619343573],[0.048648694821643836,-0.032499703838220442,0.046916340245110384,0.0072811922989671554,0.027690019623819145,-0.18560205559586448,-0.086086087521123955,-0.15330752460924751,0.019142692545353876,-0.027253534398721267,-0.1458365530720401,0.0021103780296483771,-0.08598497295546606,-0.071597800126535688,-0.032160956608822948,0.06716330527913969,-0.15350445775556007,-0.072156279903057924,-0.077933545430292905,-0.018170952378860426,-0.086306101597293544,-0.029114441911158067],[0.0081551090690742609,-0.0094024026292180603,-0.030877866770811103,0.099014092583564389,0.007157168571029944,-0.019466944269722671,-0.088557172339363124,-0.076343401370002478,0.001424100030044409,0.029350249779349739,-0.07773562415395284,-0.052760862775582437,0.11768118158173493,-0.10117531372570526,-0.053195265642602602,0.0028710157313662776,-0.057489944401592254,0.0092322086934141998,-0.015511007295054363,-0.030219768565740154,-0.011139233128504518,-0.053526471333491692],[-0.030622234153117225,-0.093186819711097657,-0.052933621911719797,-0.14388825703530675,-0.026370994932499565,0.0055027010746383151,-0.048317762723593359,-0.087678414755771872,-0.096609515837364351,-0.037259442948512793,-0.072443560722743078,-0.0022434910081107762,-0.069047669597268935,-0.022428566495982714,0.01885549001612627,0.012854727642023785,-0.012717208059410668,-0.12318964158376203,-0.082330266904115962,-0.23161575573396545,0.0063668791817630757,-0.03921898746951484],[-0.02972037076464731,-0.029310099036717975,-0.060307345316290839,0.031218667903289608,-0.023970815061088304,0.087258234587334865,-0.0068444205223382147,-0.1894079718357039,-0.026784451095677224,-0.098007197026629023,0.035403498748935745,0.13605332817009666,0.02597884763319936,0.03097935099878129,-0.01586217684378562,0.066306933412948965,0.0096834026885536453,-0.00037231701459031208,-0.04530810389655434,0.078745343897649728,0.030740676106175667,-0.19606511325912848],[0.09090955775198728,-0.011661367829355715,-0.066679163879530906,-0.10592946802389533,-0.10089155549755352,-0.021977036467992914,0.025503084554438962,-0.13213275051495027,-0.11452950036700038,-0.07194851120914364,-0.022096760711056995,-0.043542761232825841,0.01158526229096532,0.053766735228809433,-0.055021969808707813,0.052815197701198462,-0.08094711990902273,-0.17703377571852869,-0.059758249444658337,-0.071013739515915913,-0.12484373588809844,-0.055092966663449483],[0.051198371662760277,-0.070228097339071649,-0.091376611710603656,-0.10999275518343393,-0.015527234318772475,-0.041254822069892616,0.097534530197482427,0.074891673783314461,-0.06794841024150941,0.1294989683511267,0.13836487766389058,0.041583577024065614,-0.070836943267166552,-0.065152016285742853,0.001925730642528739,0.021420790079484713,-0.16472836333301591,-0.0306115916426603,-0.020716575961340376,0.052425290733104986,0.022051282765350295,-0.16007476936784903],[-0.045439274590808931,-0.11766076106962206,-0.17761790266597582,0.018899541819841763,0.024588757061422252,0.1158383930060809,-0.11482803490213286,-0.0089523903997976925,0.0087576907882089758,-0.027756272021817026,-0.0043770160925216579,-0.044027891492748134,-0.067596452595058115,0.00049512936220418025,-0.0390588376324996,-0.13752728812961143,-0.060283525369378019,0.009993660172304894,-0.080620558015539953,-0.097233369391838714,-0.058185061572147853,-0.042153935685137714],[-0.07476223075032723,-0.11202423589179877,-0.029184832256643291,-0.04505232297363386,-0.038406349976831358,-0.037653143107411392,-0.10919653334250834,0.084988359791178109,-0.1305194722948978,-0.11295140009678253,-0.15408243432412549,-0.066006390455030692,0.08107972001846353,-0.022205303366319366,-0.062756707916396273,0.029805630463471407,-0.0326378794795881,-0.010425349637073245,-0.019429746943823913,-0.1781216794919559,0.039656997722401006,0.0040122951802270546],[0.026728205341197589,0.0042084156508188364,-0.071838603024135944,-0.098847568684244935,-0.004984473256932756,-0.014731133961993249,0.10274020646025001,-0.15229041133953117,-0.087387386508686632,-0.00081860915612702589,0.049784185675811533,-0.062038753726210392,-0.042582212309168373,-0.14937304375650548,0.0081526149078525664,-0.11965546755860146,-0.014971435918515411,-0.061424100391749843,0.0066609742116581841,-0.048728604603628642,-0.019021472005641974,0.053246567464373541],[-0.077528544631397509,-0.11244839861789377,-0.0087932343499713891,0.054689733165314398,0.070910164556230226,0.01197297829935743,0.02140691482691362,-0.081329977212207485,-0.027941460039169405,-0.055343279986213939,-0.01839110948296966,-0.045946865629757222,-0.023646318863446373,0.011562813525918862,-0.0086381008442923887,-0.051021319463996052,-0.081067417210001269,-0.040560732574038569,-0.035030351140843193,-0.085558950903620007,-0.16431851996854907,-0.040280279927987134],[0.053989744058540644,0.011070492487618509,-0.010236773664415621,-0.034532208994122897,-0.027245741672443317,0.091917907634287588,0.011349991557097351,-0.06407444253114794,0.061431419094614172,-0.0065649644805095032,0.07363938509827192,-0.076959208877806384,0.043310169879558026,-0.13850724540800169,-0.016785936309045034,0.093855740799429571,-0.03074544792053438,-0.10319098183505082,0.088214159663847769,0.04949764672536771,-0.052615128829061414,-0.090152206190580647],[0.0426434083468775,-0.14862937652861355,-0.025572553819603931,0.057559906394294306,-0.048264364234913676,-0.084814869282903188,0.0020909586060563132,-0.054185616833807806,0.0073840253697396163,-0.1057678790725429,-0.056080401013095332,-0.13878718502825185,-0.067236284418104225,-0.025466809951263041,-0.15779725191872526,-0.091125907519333665,-0.082592304292256655,-0.052849558406988364,-0.068637112046111476,0.039379711518600639,0.066273852443498066,0.019231565430069229],[-0.18882888471351489,-0.032260097585353996,0.01922349429104795,0.062081049468296727,-0.080656573487161237,-0.10418139835071655,0.097622794260192769,-0.062348445610861086,-0.0064610509610339359,-0.007133467975003676,0.032081888581189565,-0.080511333292108897,-0.083979044223658331,0.021341947704926673,0.017141369417928952,-0.03922161658678408,-0.092047786507921212,-0.093782668861977531,-0.021456874209208086,-0.079518275135577451,0.053032312787079337,-0.059425860495885857],[-0.036307563049685382,-0.07523098411942801,-0.10289709344787523,-0.12284594211945135,-0.057290054714805999,-0.064758890512098488,-0.056692573019837669,0.071999909752040292,-0.012144307355137343,0.024967484043685685,0.0051925628949074723,-0.061146844598839838,-0.014744815758641738,-0.017039122978195202,-0.078889686456219021,-0.068345083810005286,-0.068106375221239676,0.093474472852666746,-0.17576115485279614,0.025173650023133577,-0.048885119149090973,-0.11727754684420991],[-0.10455101739196135,0.051171580736066404,0.01767198361477812,-0.051693992813289111,-0.13281647720048959,0.013289275793059191,-0.13167104590051032,0.079547867594813887,-0.021868798977962456,-0.01347646587687026,-0.05980431799521671,-0.076970019392735817,0.059266213386981757,-0.055045039250461447,-0.12390802652430111,0.021937036440820332,0.12496768302405276,-0.02179920626719474,0.042021175522654823,0.01894041472148477,0.0790574682442792,-0.14494852402795366],[-0.10912444348370126,-0.11397107356606345,0.049793989355807818,-0.10316836850677286,0.0088837016418757339,0.13603736236705216,-0.071462378889090239,-0.14091198510742431,0.0035694436849636677,0.029285041844493424,-0.034197197637268271,0.025359233311303152,0.10926515683457419,-0.060677844966144041,-0.034289991553074009,-0.085842553347038983,-0.0090511122140803958,-0.012244928329063279,0.024264069096553743,0.013675353510700185,0.0016545947922921786,0.053939892377802091],[-0.040234677324595659,0.01713178814685444,0.089718196965444308,0.0036146512347729406,-0.13141429597646812,-0.12700331719904134,-0.022865004449545975,-0.080397203741395196,-0.080590041076588986,-0.056259554523215065,-0.024693062963496135,-0.015503496748918343,-0.02981499275388675,0.0051097449544749637,0.079306930848633606,0.062111156511169462,0.047064251092131464,-0.035047470345397659,-0.031664323952660695,0.017594210362552917,-0.15314681039773934,-0.10033449277497825],[-0.0036926175115454783,-0.037660951068319334,-0.00098205007318086929,0.025116329163838741,0.018129134458898813,-0.072098259304946011,-0.075070820047478615,-0.079278636986090917,-0.020870819125340431,-0.086447109096442723,-0.094959387397570955,-0.06010484655849252,-0.082333594839826357,-0.083928660081530701,-0.011310122457904401,-0.045093030367612953,0.061799611363667802,-0.0072277834198959563,-0.079188244386086404,-0.051888208757544921,-0.032639739101938833,-0.0049156031635028928],[-0.11377544322909328,0.071511813168462945,-0.049210126682994314,0.0027754676372499787,-0.15563055204758749,-0.10748622724285942,0.0055606830616185265,-0.061571391813675602,-0.014362217161411842,-0.15986350164017343,0.019140527051075461,-0.13197568793884079,-0.029884810508617597,0.00370573306792428,-0.03389536311563654,-0.061165071831275571,0.028415606175562505,-0.10508524365142385,-0.00204904645221992,0.06837541672253461,-0.10256950145097693,-0.085833798360289759],[-0.032878654031213997,-0.080375740133273865,0.060333002846131571,-0.035473427742897169,-0.16424013130436585,-0.13912282157674105,0.0051023306404655785,-0.022972137724764856,-0.07032358380052825,0.08615343648909779,-0.090249112511136348,-0.1229727244983353,-0.078267016254781066,0.024766032054039967,0.081868706767408844,-0.02319331881574823,-0.13538467154472505,-0.060831407289176992,-0.059228351897862644,-0.028222793588762139,-0.066515091524519981,0.068824785872561661],[0.019986847002874009,-0.027464937615200784,0.069550012984106624,0.054521662216508997,-0.076845851462358034,0.027666481129435393,0.070057492967673884,-0.1479258802190386,-0.12989064712936238,-0.05741200260835732,-0.033021466026590826,-0.028913900375971101,-0.086367788054633299,-0.077162320359566938,-0.022828070818599715,-0.065101631605076649,-0.084521494975797959,0.035735741723855886,-8.1960806384492879e-06,0.00108749013874853,-0.032677378731480321,-0.040964990240057668],[-0.067891825280030349,-0.01165942109485919,-0.046888834647505581,0.024114000806122519,0.057730574764826285,-0.046347916433783665,-0.073925383394388394,-0.074618675034726134,0.082784280425518109,0.1155309754143117,-0.11117214899265901,-0.024480774123186985,-0.056801500500675929,-0.0026232714515686123,-0.027875103886897706,-0.0019565725123758052,0.034102680451893984,0.048495756652099035,0.0465703377662064,-0.13945023827593594,-0.027053182128189364,-0.04349083113244509],[-0.097503987017510563,-0.070774135443070152,-0.094842780282321959,0.037100362643389027,-0.20680802535310086,-0.071153531585403912,-0.16620217785167024,0.059304230298807901,0.022522947369820842,-0.12244370618097586,-0.065413971883794483,0.04793055381436629,-0.069601620482128035,-0.099263168336646612,-0.0034571770075217598,0.00095278015052523146,-0.057328560311250679,-0.0011621366923311033,-0.15999180922613396,0.0605253299639665,-0.013450045139069493,0.03881212926999477],[0.00066301286749270716,-0.098045401147688643,-0.075071603104040596,-0.09718940454674177,-0.20156207236852458,-0.11989444592925136,0.058732686990100542,0.093761229031446319,-0.079460253621819688,0.0081440551149545917,0.098870716368587547,-0.044656245535520785,-0.062407384660189975,-0.087208456189325753,0.093017492609915653,-0.12724411960132506,-0.079253809592787799,-0.14255304496240342,-0.03942695619701421,-0.00064184697950809416,0.003893679144460746,0.047256012090919584],[-0.048734881167842532,-0.094476010240968605,0.075921875142981654,-0.015051528876016136,0.034759133579935604,-0.079382438790386561,0.005341187391714762,-0.17008638313309415,-0.066276797584444436,-0.14885295106911184,-0.053435275996210944,-0.11586782877016466,-0.028698120685472069,-0.10176995796086249,0.0074179982142485792,-0.01190491246798641,-0.10279263852752885,-0.098343268297794134,-0.084680596831211957,-0.0080170994616839721,0.0083902772462231406,0.044744845986931105],[-0.047099100241524978,-0.022372711751501274,-0.02561827973865867,-0.037455944391954904,-0.12488108134682013,-0.038800327635796772,0.099189571739493831,0.085865429059216625,-0.042074774942618048,-0.081734630746964826,-0.034900576982114004,0.014684563627006916,0.010893166430394188,-0.020504003930972167,0.083529802957714783,0.078646992854312203,0.014586600263215344,-0.077900011163811067,0.0027129042819092966,0.0037538125341968279,-0.0519823687906402,-0.079169694108024741],[-0.041422920760643668,-0.074367642726870284,-0.08800635072835826,-0.14644396055781622,-0.064996815015555293,-0.040223981279883358,0.084757923123349732,-0.026738863249342597,-0.056333983807965823,-0.004522586805201307,0.031367177969889158,-0.058842076620610723,-0.12442054377641382,-0.086344785366751498,-0.093790375242738006,0.065385518160189532,0.052095179470421242,-0.025160292889188564,0.027001187219301656,0.043668838326985808,-0.071956957873437005,-0.12898613106486781],[-0.070631079799394314,0.0059512531622985462,0.030351493488441482,0.027761555002793779,-0.0026579645862413771,0.064592950420666428,-0.075341577225054662,0.010445416422532001,0.15781251216346054,-0.050242080817140933,-0.17913536093125146,-0.086003872961415401,-0.11765997014601037,-0.12040865236389653,-0.11283468321870521,0.15506931572772462,-0.03900834108703724,-0.063047459281927259,-0.093131127941920119,-0.10899054113698825,-0.11896116433085199,0.04718565426723572],[-0.028946057468926093,-0.0036095993541247311,0.01190373040844582,-0.093127787061400846,-0.11741918358958761,0.0057431813341140975,-0.015833213658027416,0.02894203129080427,-0.14623110386191177,-0.032538458580180826,-0.045499314130306154,-0.092994536159213034,0.071106866212641645,-0.049069787218737185,-0.10873910011570465,-0.097930655221227902,-0.06211925240663408,0.06624406272698169,-0.12603020246978508,-0.12378427839999093,0.11738491869688339,0.052713243735331004],[-0.0018552107569011211,0.081414470759981206,0.035005503052139571,-0.13389334576681269,-0.0034010573378777456,0.11167765087358397,0.010179958974474303,-0.028979802288287147,0.029872212641790567,0.0066598637555679505,0.075436320326389805,-0.13121288780435095,-0.098787171986059796,-0.046895809053162457,-0.097054672455483881,-0.046500220772002637,-0.019875799046572724,-0.067138742427997708,-0.043828766528360333,-0.044384540518771547,-0.04436983500487765,-0.07281488961125071],[0.019107927268782667,-0.0038219190175804614,-0.029535722559340723,-0.036536546968102032,0.0716023885414247,-0.029275755113559329,-0.094565176062913675,0.051007681024756522,-0.021339934262949362,-0.052174638105618114,-0.06518064402137122,-0.037203894790203314,0.023648987968914417,0.034637688924036909,0.014654687529708048,-0.021891940037311462,0.045589596079099647,-0.08120528922871556,-0.15682256678775724,-0.063205400510201848,-0.055832153813437674,0.042451077238261782],[-0.062333049237518173,0.07567159967279169,-0.071332651171883699,-0.12748721817646846,-0.018563931405805277,-0.034785227807327013,-0.13340091754070019,-0.055044612430695784,-0.083251106699791633,0.045578658710979485,0.054496949765928358,-0.12102564159312443,0.026737535967644513,-0.042778231928537545,0.03623645365462199,-0.041861578291675076,-0.12116818538012158,0.083166936711073614,-0.047766649168666353,0.019845419996063644,-0.10460975451494023,-0.032623200159611378],[-0.032221266030048018,-0.074485312474961679,0.025220830049276902,0.024214741625208071,0.11105871349505692,-0.066321741853462027,-0.016885342897789327,-0.049833050928047226,-0.15415972143502099,-0.083529041620177519,-0.019485236356131516,0.023821534804765038,-0.045209734600223567,-0.052866169770429697,-0.00087405463981009984,0.032394945742197305,0.12011583960887345,-0.048923200588302435,-0.065680948933973943,0.019230047481020585,0.019021714469317254,-0.064333773014847939],[-0.11598199769355222,-0.15842870808444992,0.18794193953065713,-0.012553076795661328,-0.061995718352855521,0.004908538969223851,-0.17276043821173478,-0.033081498272278638,0.0038456869457613452,-0.091200392764327287,0.060930065170866028,0.12928409934341356,-0.040836659746052925,-0.015513949920927667,-0.069556381195098715,-0.022943676045275564,0.10112817809308883,0.0097599231128404976,-0.057321464673255024,-0.084623446592489146,-0.02790654203283895,0.0085317092831130037],[-0.11674945407490522,-0.015921075648213049,-0.04962980135847507,-0.0023400755737317605,-0.017110073186511216,-0.076489617816952793,-0.042574007181551729,-0.023646448705918838,-0.11622298880024434,-0.040503992055204607,-0.085540334105440333,-0.018487453818162705,-0.1314002383127188,-0.03910647865548611,-0.077073819884180217,0.052352874255496347,-0.051918250046613816,-0.0078096754554490486,0.016855363040213255,-0.041865044453540209,-0.17002353038192794,0.019459404477025752],[-0.055299522088338576,-0.056360129665784103,-0.051590155580077603,0.026342094779578662,0.0275008595138381,-0.10226770671519092,0.0042258553041020219,-0.022787769183507778,-0.050545083613524597,0.094958273599501292,0.05328674623866974,-0.080907382509052175,-0.076560711032717929,-0.044410285848515758,-0.078100497136823627,0.0066400283127092674,-0.07295098055302271,-0.11888541415087542,0.057514057874177481,-0.12147733672791466,-0.039438759897699342,-0.084204495042118133],[0.019350131035598912,-0.067679849425125921,0.064935568089593082,-0.092354521562277192,-0.027854494844256148,-0.071624706858611081,-0.089263649743690526,-0.12081278418699376,0.099452894995096325,-0.030017113125627441,-0.13291752134143994,-0.11522038661219186,-0.13793241523083521,-0.043392885558317135,0.079837437935046773,-0.027651486376406385,-0.01652206507122584,-0.035290371600832898,-0.022160581660890456,-0.062821116170535554,-0.21194268927491311,-0.11268370710092027],[-0.16665435676042351,0.11245253317712497,-0.051642135655808191,-0.066688751949067038,0.020852783507091119,-0.0074761445817717459,-0.045638278582820241,-0.12639115746555157,-0.042826981922044351,-0.12246268605575644,-0.050738202029093987,0.01213576477133909,-0.098519119824237444,-0.092349846563577892,-0.017532194371442641,0.083886432477824124,-0.0089442330902939453,-0.18516399226460029,0.034229895084315516,0.0011530121250683464,-0.0035535579351178535,-0.1172814021313402],[-0.080690358282686475,-0.049587840948379397,-0.059516779374861307,-0.011315924042859925,-0.067712574671771386,-0.06007633980356189,-0.16584841906981768,0.094737166725364974,-0.085380156427721454,-0.044254121352937242,0.036983887388860638,0.088489413221150004,-0.037451881897326809,0.027242545205061607,-0.1314976126861786,0.057369811202100239,-0.028705243011339546,-0.021956581188945341,-0.10168707260675056,-0.081534981720576716,-0.15385955254160974,-0.048202566167956727],[-0.11681022747891234,-0.13460987490211687,-0.040126227238283241,-0.031155322843208794,-0.016519975976726255,-0.034861753993141197,-0.1061878599055065,0.040042799341503697,-0.10386905678586525,-0.010456572381864343,-0.10749154762839405,0.01143815728848737,-0.068544214300030354,0.033403443701621689,0.017823853593720157,0.031948804472119084,-0.15144411611040565,0.0023277636866992218,-0.05232084198371216,0.058960463587710642,-0.057025711216538919,-0.10638931893688963],[-0.055967548276694937,0.079442948496264765,-0.013503124895892653,-0.1009256863894652,-0.012767251742587787,-0.13495447548196926,0.057783755068937105,-0.071745802089754451,-0.026138708965620368,0.019934480872018961,0.05263099542233738,-0.0088138424557397885,-0.020667934267006298,-0.095295946658439254,-0.060783062790985415,0.088892025330661456,-0.052856818271228123,0.10964770084405898,0.033970406054137335,0.059558792951270763,-0.055225007065866256,-0.0045321242172599065],[0.038330245514509177,-0.033218538372853885,0.0091534514857109991,0.044338633555686464,0.029061429629216984,0.0091887018075245269,-0.071296617623153674,-0.016480643936635241,-0.12746525598531611,-0.060441553803919426,0.013113614726578578,-0.027119764666176001,0.079395481227303499,0.06958367331066484,0.013609063892324538,0.081577751742779425,-0.041412453704292029,-0.055669625319890434,-0.08181916437691189,-0.029025256733289921,-0.0011517368392612234,0.002643803559041813],[0.0013285557282031943,-0.023579719420006078,-0.10393847937435222,-0.059219073740454237,-0.089851819792514387,-0.081265281849705981,0.047375590146981748,-0.015030860211149639,-0.0094412550795652493,-0.057457726372633459,0.01103281406976106,-0.023249142564033376,-0.023465460287098734,0.029486438551739345,-0.10525976710119506,-0.049373764039492035,-0.034611163112168067,-0.01558818358897179,-0.052288161872549963,-0.055877186793379011,0.0011497278360181537,-0.0079615370130921362],[-0.19410520876148085,-0.02609512997161377,-0.098447575194686221,0.045341665730750637,-0.026455047206289457,-0.098975290878656058,0.099321710337497648,-0.15634966351769028,-0.029422632472888132,-0.077325973673104037,-0.021575192610445347,-0.016134565186404905,-0.001413383620912631,-0.038082967078051179,0.066003543139648402,-0.10274879347592691,0.035424997714613556,0.10011610898839052,-0.094363642054409655,-0.058652739403818391,0.060514327387326615,-0.05489936021574883],[0.04751027825716251,0.016362997679510244,-0.096106888916176969,-0.087448407624309055,0.021098731554331333,-0.04501924316007723,-0.15524480005769536,-0.10872040783540124,-0.027933274921037032,-0.009859897927170614,0.014059221103020443,-0.14782282680628123,0.04178626421501027,-0.010252219052498079,-0.17242566583455265,-0.075697855288491947,0.040343233600045471,0.064154086720622533,-0.083737765650998344,0.0097615494643501152,-0.00041115631109159279,0.0081181431790784547],[0.013217424830427323,-0.036772285561208408,-0.0030422143051356924,-0.11687113030054913,-0.16342906449541211,-0.052590116556991431,-0.072467133522492622,-0.087415728302405862,-0.090842634088699067,-0.048258885791623497,-0.016092758743921021,0.020162217906869721,-0.065687779963182868,-0.18503383082079464,-0.098003807515052194,-0.057222270890979574,-0.08494498344968851,0.039705452170010168,0.0054286061389196213,0.048770365586237312,-0.059515299418552263,0.029867899506223601],[-0.021941562228609473,-0.0066128010801466616,-0.072349774798855404,-0.065059218079528275,-0.078587462564507118,-0.090911601999627389,-0.046493974442064143,-0.14786117646068858,-0.066885625021161021,-0.029336458507503278,-0.136651840443029,0.077608470095893223,-0.059944965730981972,-0.026299853211742788,-0.20157057928135128,0.0072408365926670062,-0.082978841364649586,-0.15458506993215992,0.1401217363058592,-0.025354258837546273,-0.061356461533111653,-0.11665083670286278],[-0.069926650241692867,-0.1432606830628903,0.087444024839557766,-0.045207863949173664,0.044523336462221529,-0.077220855662830226,-0.036427840748451762,-0.00024556423262104415,-0.048786079132195084,-0.068935522903948665,0.0097736879361256523,0.016868827064820568,-0.01290709007130391,-0.093502573063093258,0.041577165860698102,-0.022344504086926526,0.021848987896611709,-0.0087402005496464499,-0.04700558944573946,-0.052788730739226436,-0.079707468581203172,-0.051949668459974098],[-0.086702324177346024,-0.11798024813679081,-0.011123142712108659,-0.1513409632546695,-0.10873850356629342,0.059346002468347418,0.049840131481752543,0.028727726761559401,-0.16170284491773682,0.0036169846548091897,0.018521930139947275,-0.076355800489166986,-0.022724333449777648,-0.035914619161685875,-0.13069509118874204,0.0020555462166559138,0.0087200134988541372,-0.0017062061390246894,-0.087735711372056768,-0.12774385965534912,-0.034222905328214315,-0.10529357781117513],[0.019645517856031872,0.0016398917959549245,-0.10351474519699175,0.000636802317447005,-0.014925979111743353,-0.036040759545741423,-0.02983701439265591,0.028119132413823675,0.0064312266369708423,-0.1697766416108612,-0.17542063257150992,-0.12459673212252756,-0.09352904059561068,-0.030769949920002124,-0.11758924686645686,0.0081758829360449453,0.052120404146414105,-0.019651701080243753,-0.12055899371740708,-0.064873841255064207,0.0023897163885732917,-0.036188634850331795],[-0.079379626082297677,-0.021025002153806371,0.069049388214541457,-0.042256790079786333,0.019904423443993811,0.01511612105029992,-0.087959080548353163,0.096023453846737883,0.047741433204032048,-0.17508357830765989,0.003702368920567696,-0.044208279431127602,0.038785382812990925,-0.04224504628348761,-0.051324946698590959,-0.17431329726962957,0.017882789812739032,0.018754538975858027,-0.13320532999425541,-0.04155168708317418,0.065712785671134699,0.0087824360701561355],[-0.013165276412846694,-0.065459785772190249,0.027406113660215052,-0.18507309867497893,-0.044814305582796816,-0.083507120605683827,-0.076602416538316176,-0.033488871315041802,0.12737650057875341,-0.032974094554439635,-0.062516913008877975,0.017952243084865864,-0.0082068975489123612,-0.02186662538363035,-0.048394298820392985,-0.17976647566856688,0.085612798246620242,-0.013612077166551797,-0.012212076348526776,0.032834927391551465,0.041257405994147407,0.046724204702095061],[-0.022335864483087907,-0.092405637708727881,0.10688503046648906,0.054025174694913074,0.0061389169506734578,-0.05127976555810216,-0.099518532335701793,0.015822774336670745,0.028579358515043472,0.0049133512015289565,-0.0708445391336016,-0.05249504509664215,-0.012944288488773794,-0.059758699077974681,0.036357079635411078,0.028466994314276725,-0.15089683111556254,0.0018800124390437739,0.051008317613396546,0.086353443263781804,0.059909535421264003,-0.024063037240971606],[-0.012752662283282819,0.012257829853336427,-0.024276032443404101,-0.036294552973488561,0.03732008591075265,-0.029145130040434654,-0.0062627798014894716,-0.043733942425546263,-0.027840553978999642,-0.084934996344950775,-0.12617446463548065,-0.06836998612161585,0.036395898084904836,-0.079985160751611634,0.083812957682901479,-0.00010346001878527161,0.021083693186615592,0.0026254916792814026,0.012411110092512868,-0.077206075707787647,0.006123277352726858,-0.015089362141245358],[0.06958275232325653,-0.14808083256430998,0.20765552808221466,-0.042285720050515702,-0.0032958540226383868,-0.12813823188551632,-0.14038015246599186,-0.18529997540707005,0.024276673642094456,0.040735134711001139,0.22287937481702594,0.10072231442383874,-0.1618355709146452,0.0059717759638426744,-0.32348397799347667,0.16533302632387448,-0.034309911755733953,-0.13399326774962875,0.098450813816644139,-0.42197931797308902,-0.095862845013145459,-0.12098560313078624],[0.089723109106462723,0.034822735045448548,0.16032906898627358,-0.0013079881122114053,-0.011608017353673795,-0.088473591958230707,-0.2026021801093367,-0.22010320687849988,-0.068393810922490028,0.095607192702561128,-0.0036823975551632479,0.10607731224504145,-0.25232223479220589,-0.028983059019369976,-0.2846209041525169,0.15461332359382052,0.074863019844790782,-0.055852170407786055,0.060403724405080128,-0.4010121541625275,-0.042290403368496821,-0.069108662469740095],[0.12858436512956117,0.027519792159017765,0.2892690715437316,-0.012781991675735419,-0.0023421188137496989,-0.073064359075271521,-0.22433632741927825,0.024448697601120156,0.022490734072148737,0.12467567210978076,0.10243902425006748,0.062341138335224464,-0.20421624168433933,-0.094247293021379547,-0.067168288386820429,0.22716383574861282,-0.085083390377224108,-0.15335002838338588,0.022469196782255511,-0.0067587467884366844,-0.074070375372734407,-0.21749826527434191],[0.10146020232572026,-0.073770162999345856,-0.033484203208809384,0.0084343240201440236,-0.15190480826255856,0.027867426995880958,-0.47044274695275756,-0.062719937348872462,0.015910722209519664,0.021204308904011447,-0.022115877801110122,0.069968904029976367,-0.05073087605818058,0.10606795820341111,0.13550621340882357,0.26967548203108543,0.20500606488791934,-0.27575050631683551,0.17359572609363125,-0.3845211702839969,0.044577550263157462,-0.12530568753676652],[-0.086960260937735651,-0.22703866751952956,0.32200886913563154,-0.30845053488725338,-0.046463488434405481,0.10569751494800587,-0.33478482329714221,0.056887238044933154,0.28691127155647717,0.008312152427650453,0.1066504557942498,0.057019809279571648,-0.17591940047482463,0.2009337426435906,0.43396340075793682,-0.045744554800472632,-0.31934136704837673,-0.16900603471163755,0.24253006847048758,-0.43141615693840668,-0.0040123405535525125,-0.034150791045770436],[-0.23790236976749754,0.060002911850930277,0.27100345214123439,-0.29135149912257419,0.11790035536981155,0.056459890740504268,-0.16314051199991975,0.12322503998841795,0.4103663986309804,-0.069394879884088628,-0.30283746920054261,0.042085838928411522,-0.024942951384393681,0.067019557073798836,0.53053762535359583,0.31435134059100639,-0.44751137602711832,0.32030160564887539,-0.0304496475523745,0.17513536164272855,-0.016726517970288571,-0.14599960575557364],[0.21592779226514955,0.058952589715598726,0.32668247075115703,-0.3442019167039434,0.30587785667647238,0.2170222257812032,0.21085732001666235,0.16844412437445211,0.13819528292348315,0.060987001531118544,-0.24555025554110896,0.24679184078439897,-0.089250610634297955,0.13673996983530848,0.063638456742191693,-0.097782350947827598,-0.18893065449775498,0.3379309354771835,0.049149820398169765,0.28959275708268156,0.098681806566973979,0.27596203077302689],[0.20863322168888496,0.048215398624695135,-0.24109357643505666,0.12455491215097826,0.20618994065210139,0.26089220122142776,0.045693191014229508,-0.16891573229687604,0.06709581389595809,-0.022532018818182543,-0.1312772453443552,0.35602026604107689,-0.32631111646274097,0.13493920331026224,-0.029019487411650505,-0.33267033802793811,-0.13081959100933149,0.10302078307751707,0.26617887395323325,0.15641680191914631,0.010463469703798117,0.10832180407857951],[0.19349029644446245,-0.19051169157364994,-0.17572835320241148,-0.16955875568842979,0.26549230343838731,-0.06076417590647442,-0.035799285177112707,-0.32928134019328886,-0.16398282957230001,0.15430883370687726,0.32301118805588425,0.1924824373699415,0.36353978965982514,0.06583812699093107,-0.39732298098210089,-0.065012779588873887,-0.39627344634582801,0.25343523517352284,0.18788965123187484,-0.14578011647273711,-0.14167215787787812,-0.069353940923927604],[0.066383540761137005,-0.12491899364332745,-0.21981862763431942,-0.19598807204639687,-0.047052711891720701,-0.18411160672494514,-0.075896172296003928,-0.32855730761948609,-0.17567073921993123,0.086739323028441603,-0.11985364764800652,0.21417801133728684,0.020379192888475253,0.049147182989906529,-0.21674987517564936,-0.16797723721644489,-0.29584556850790367,-0.017963024434128349,0.071544012917840474,-0.060081870641118598,0.11963410112765897,-0.19470357468806726],[0.018681642727301061,-0.089441678882524744,-0.2607632894860944,-0.32173933404682681,0.035283877301604843,0.015149979613580637,0.15795201435171582,-0.12817346630376039,-0.10694010480648634,0.044831346935513758,-0.41759502655885633,0.10443929057106609,-0.19675959017533551,0.12702687609703539,-0.054894879948202774,0.17809436005342094,-0.15750994825570686,-0.010018561513898681,0.083338582496061728,0.50930837712704125,0.13815925812716098,-0.14414675164864052],[0.18674748050948206,0.092856004395599268,-0.21429921130822296,-0.18354102078413173,-0.14514924417047087,-0.026630191769616694,-0.084704958708872138,-0.25251576228875783,-0.099763954390951134,0.14650813106939378,-0.19672518505303357,0.2649302688170378,-0.012147638186388893,-0.12750278733986029,0.022894855428307468,0.18021484065816057,-0.13978000160918724,0.15915508232206207,0.25102214102474235,0.64403256103732576,-0.053368639184291113,-0.13090329874391657],[-0.067138234274086966,-0.11418457070429366,-0.28820999315740969,-0.068857383662372082,-0.078860805349833599,-0.073107697451034181,0.085071253628579466,-0.38506998341730564,-0.11945641412114312,0.14438037902506928,-0.23954242097197267,0.37386402195311208,0.011635090392730843,-0.16446108381855779,0.063126633011204192,0.05181403863014522,0.14762414131688029,-0.05678467016792197,0.21300468220508736,0.26739251769430167,0.04456819777953655,-0.095029375606346084],[0.10012901091978102,-0.15696492631368969,-0.27468761067436009,-0.22608110246038363,-0.1272579571046856,0.20915917033435502,0.028393023649943297,-0.41214644675468548,0.074491007382558677,0.17268656382940087,-0.053927671752028984,0.10840811876643724,-0.04010250619880678,-0.049982793940341573,0.38423671742211957,-0.088566155170413302,-0.12310426173818871,0.12012455524805554,0.17634629763010398,-0.022644039858361803,0.34051020249154335,0.02114183573722643],[0.31353157600726533,-0.085275820731117405,0.12365590797799342,0.32633816133254845,0.14370904013673266,0.21553958282335567,0.069558950612781736,-0.38068018549048455,0.12153212077830208,0.051342910845072184,0.12130243517462441,0.27203798088046266,0.16185852199236564,0.027972339572487678,-0.049210890454231861,-0.24129987047850465,0.19609414598753427,0.25080437426032226,0.15847445435106691,-0.46156505336458337,0.24488379757045603,-0.1492732696692203],[0.3246424342576088,0.1685884831815368,0.11126041801605155,0.20842418390481238,-0.23917568340230089,0.22494591745029457,0.099778091733865523,-0.25699486049918019,0.13860680432931813,0.030000142548527606,-0.2020837979012689,0.23490663909268084,0.028523077724598528,0.14517289943388437,0.049758061104117443,-0.26133324726618029,0.27045039024549983,0.14720417897739424,0.21052029941969788,-0.59519688466399945,-0.060125855405738921,-0.065437649358137284],[-0.068570337952099061,0.076757023792138501,0.045951360385835326,0.35367921926050011,-0.16675528420501615,0.1566321124371908,0.14212492266210874,-0.12390580726314923,-0.016673074315336097,-0.1085414850357715,-0.4058566763510536,-0.0020996667766121813,0.02051212897525324,0.41275840767168936,-0.16222536493022544,-0.12212206574526521,-0.22421543356833304,-0.11999047269871466,0.099068178806452176,-0.5875893189157162,-0.34509682521773921,0.16199487705234544],[0.17315387990335379,0.23969312988753838,0.21167792650640638,0.22532460238257157,-0.021900996671947118,0.34820092742155445,0.30443097303125316,0.11735068577505844,0.18808194007125589,-0.1220409223803979,0.29434297240368035,-0.2955991025389334,-0.20034422333314736,0.47737789206840453,-0.043617323772062795,0.068025230633357872,0.018350786546807236,0.27646794801681651,0.01919969496388561,0.14454431096049822,-0.72146774236325384,-0.24442873306816465],[-0.065421362217417331,0.15781536086594652,0.076322204596068588,0.01747054873795463,-0.016088168157884278,0.17354473245390023,0.24110365438184578,0.052715684066529683,0.17933102348892641,-0.0074035919632741073,0.16459008516743792,-0.1122005512098761,-0.1517706336631065,0.3771652988502297,0.23068637380593457,0.38375621611402255,0.05983556843325729,0.33933172312486365,-0.013662140019880954,-0.018388913747893001,-0.43653820959182726,-0.20743588672995844],[-0.13909408730402192,-0.22415175535478454,0.0069901496521694636,0.036559223067326944,-0.04028814003444485,-0.036314088914091595,0.57914221304700852,-0.3156520698046415,0.26327333736002961,0.1268053259802705,0.061926999769204523,0.23758523685020444,-0.4052456171104058,-0.10097763448905663,0.219354091390876,0.34830565485843973,0.098574460319012527,0.33711923255737758,0.18220886764043404,-0.29140389311782483,-0.40995175431341413,0.16846490272903394],[-0.19604226813086675,-0.11874387261454808,0.048762325525501006,0.012703530353849513,-0.31896698418352104,0.023876484502952315,0.032307957029776055,-0.19491764193303868,0.07401885378713402,-0.065185591833581108,0.19520400640420485,0.27836521391516517,-0.25477053671764577,0.0140682668961439,0.41697202300929187,0.47234298460758023,-0.4891092008644955,0.3603685183798061,0.14137185297086552,0.19780965573759471,-0.2305773732631001,0.027530832869374355],[-0.0047670356324302733,-0.056015186319479583,-0.07556699643206892,0.21454371205509934,-0.12589850428667632,-0.085514111949404573,-0.24264142075259651,-0.019310443403553725,-0.14797644049808281,-0.020039501028047003,0.01707395640544317,-0.0048945977785832548,-0.11768548957506407,0.0057341310765067132,-0.20788399637961805,-0.14722797070586158,0.058258272606727904,0.021144548990758596,0.039720928585387255,0.10139897764084525,-0.10274177287459883,-0.059063852222776339],[-0.046889788948015293,-0.080822857181328256,-0.24870164265397388,-0.023887404165353104,-0.077530981121893633,-0.22160930020478917,0.023549856453994641,0.00022076293490475712,-0.046996526602736226,0.01806814505184328,-0.031070279614911926,-0.11111747910553035,-0.091408134860187312,0.046665660582385311,-1.1073159690080936e-06,0.027222816175435691,0.037134115214261403,-0.13778313407767537,-0.082154106285662609,-0.061194444683859955,-0.039059047538265543,-0.066511110913198765],[-0.14389758558946419,-0.1095746714130868,-0.16148022485964553,-0.0076802170630218998,-0.039682287689483446,0.015304064614797462,-0.020867838513993132,-0.016507202848250069,-0.049925525278009975,-0.2231603678636094,-0.052512058692164548,-0.038954567310763515,-0.011495330744455717,-0.10019716113786134,-0.099176623402410458,-0.056421952543404208,0.0032891657739415672,0.072207484606662459,0.027371019106566544,-0.037015119920558115,0.018165071390046784,-0.063026935862014702],[0.10389460472413278,0.060503164278808731,-0.067294197105944892,-0.10649638579927387,-0.066729175120764483,-0.066856495640933197,-0.041654790705316525,0.010767070183253603,-0.069122502167862837,-0.096552465379310753,0.013320141138659473,-0.053010157262292856,-0.20023126238519642,-0.080852423178995048,-0.050647293476553598,-0.092590935144143627,0.0040412205587943492,-0.10914247032630595,0.0089134366095745682,-0.023193700349732196,-0.088430410048224217,-0.063107300691051124],[-0.023560833575435893,-0.078184588104106223,-0.051768142638200357,-0.16972574616362698,-0.13469072432797857,-0.032950865226470248,-0.12532622155061962,-0.080519722012988404,-0.042246731659971483,0.11147265774251286,-0.14251819007486871,-0.08620254776712119,-0.13278078177897626,-0.094983100005720161,0.083702236149413634,0.037467503723250549,0.047920757174935068,0.015166030193084781,0.042947399398041035,-0.097329789201840156,-0.10917161106190942,-0.078885852995143391],[-0.045429004743719366,0.060201394974395896,-0.059059893427844339,-0.018654086453676527,-0.068874607116854794,0.029742339028894775,-0.011092229389423381,0.011718391839043683,-0.0040780466519338802,-0.074101037016558013,0.025641375195503704,0.022145844187340502,-0.0071135028382969361,-0.087022288668702014,0.062217001785713134,-0.018899363407786609,0.018499565393968666,0.031251738957369234,0.033143667507854392,-0.045594578314105863,0.060866204272795828,-0.020797136775111445],[0.095521569025287578,-0.042795288258628661,-0.061503115140633433,-0.097634639913186383,0.01683508951808152,-0.11987735643762015,-0.069236777347374018,-0.023112338964821403,0.019148009924699456,-0.0083118728251993304,-0.1489425453444902,-0.099499413485401811,-0.021961810126120935,-0.072192063916066945,-0.0034360411565365762,-0.075426369435088431,0.026379374576735136,0.020498544092440424,-0.0464494352561678,-0.1205054477897913,-0.063611522324192524,0.098072378748939315],[0.071478837426020458,0.0033791907453886161,-0.059634565355144643,0.031853233132628798,-0.026021121665987912,-0.018011756251688646,-0.050528446216598695,-0.038681037832820106,-0.097423865760110945,-0.079072430098676733,0.0068215661191632845,-0.084661835983729186,0.061786515003182059,-0.16482440298288042,-0.017440520293504867,0.036051714762505287,-0.045923800319480665,-0.01151469759494219,-0.13537887715659522,-0.03105520985138489,-0.087360295487526829,0.030668786046278339],[-0.036835638604909286,-0.052787629810644346,0.0018423066443678873,-0.15504176717457757,-0.041448190272515215,0.043067940696068292,-0.048279433078991837,-0.088590507787725634,0.042024354852820432,-0.04395759920458326,-0.074589409570999021,-0.0012236687005395402,0.11555281439687332,-0.042754984190491646,-0.0091580058900924757,-0.057015971000130714,-0.098034937521366244,0.019353353177617917,-0.048204891628240196,-0.079489953689668963,-0.013530237372458051,-0.019916238395248538],[0.0038799147979646426,-0.098713654913895083,-0.12216722879495071,-0.015654861878664564,0.080104482813296532,-0.047076418588432499,-0.030677436726772457,-0.026033651470690533,-0.029129010247250221,0.064235954920456015,0.060721512982386219,0.086300872334121967,-0.017736421348236241,0.053986314459859207,-0.14908455785296482,0.23812745411331393,0.014195867134292132,-0.09826811053880509,0.017207515212553016,-0.47224699537397613,-0.15253263833024674,-0.060726916800777145],[-0.0079713954263120161,-0.045065091394677535,-0.10633567840999388,-0.21906429999975868,-0.1529090161605175,-0.15411293932786371,-0.096403905646094704,0.065209651004006414,-0.017189059421727437,0.080734789470288101,-0.011631105896835674,0.034180036017882234,-0.21751688735967514,0.11047596728505374,-0.22117739495556987,0.23105899727390011,-0.057561218540597717,-0.10921007876750474,0.19373784813391889,-0.41900808192941413,-0.076370684877561074,-0.11771506007845056],[0.15755561853078387,0.049069868603676785,0.19374310871507516,-0.11562615768023878,-0.01273283886855479,-0.1460015843603393,-0.21310451874768965,0.07892017745997236,0.025509699471355292,0.023760360119872224,0.143746711009623,0.18894800519145988,-0.19776951601224821,0.074879164507208384,0.081932539984755928,0.34934024562802884,-0.14128896664969595,-0.20586592625402425,-0.0070405822253930351,0.017326251870395333,-0.18155242724084941,-0.21321092782794485],[0.12494911775761473,-0.10406088107182332,-0.082581864113336054,0.026626626873528698,-0.088291991987674054,0.13657445646069061,-0.2331488687763866,0.08100797699294017,0.087631900667937829,0.17164231985930725,-0.0056744729116738023,0.14135389207042384,-0.1746030067699913,0.076710083377390784,0.13287470331785611,0.35899026320092225,0.10905894669655368,-0.10356166730097575,0.065859715607105559,-0.37505322822361975,-0.22699722088544166,-0.2449463386483402],[-0.17661463683393069,-0.11744471823547861,0.2608632273996771,-0.19487991391458712,-0.17171196546108577,0.0035963303124815008,-0.28661517743540543,0.051888024022218128,0.33674292891962426,0.00098330440181188471,0.0050313544509997038,0.15121938796703649,-0.26349350433994606,0.20064853831907059,0.50189943656259806,-0.039999131147681742,-0.2565601594860728,-0.25463197923657882,0.18325290001137873,-0.38387663676990819,-0.04795394440800943,-0.075043875444908259],[-0.18620469189906522,-0.10113038055375333,0.37455696985657777,-0.21375955818474821,0.1014688320432873,-0.032276860558183171,-0.23875475248046213,0.14501052120261429,0.4353002799147927,-0.15187303956924753,-0.40494290002361449,-0.021647590949744347,-0.019028899246521777,0.070358811206806149,0.56684466849074877,0.28026484161588311,-0.35481762244718629,0.35376758884529019,0.012293042636028621,0.068910893297402784,0.10916029808098299,-0.076819973789458582],[0.23779799516246186,0.064398310381086551,0.35707436017676225,-0.27230423505920764,0.26045606912246688,0.13443331706694797,0.12022196849624853,0.17265291081413564,0.16090773661019475,0.010925909799052043,-0.31497659888551266,0.19103784162512363,-0.18384342564903206,0.10485221998841729,0.10871341214226099,-0.069181936466037111,-0.13069365696887753,0.30772142249424272,0.056363423623158812,0.28225428577547057,-0.055157458565704573,0.28963947236013188],[0.39091646093130422,0.044499033224155701,-0.22378071879861303,-0.10321110511516553,0.088074964034787762,0.27380416227341953,0.25539990714561517,0.032790164270192358,0.011953961364917691,0.086107844171156592,-0.42589302220441838,0.28853825383939163,-0.17561052387256915,0.21394758299266356,-0.0633760291517865,-0.3202021930470178,0.028443203943207845,0.041551290708349703,0.18006834486224862,0.49441399605011088,0.072062948835186311,0.092265104794670025],[0.24348040008563815,-0.15505394637896663,-0.2199120435888916,-0.17499384056454628,0.066557107517184216,-0.15466047692050369,0.036830099047707655,-0.48373718038319374,-0.082644360020564189,0.24137546883231642,0.19427362825070871,0.26210552599995524,0.32154538094160212,0.27931980227288883,-0.41737159319695999,-0.078501756528366801,-0.20997330311555462,0.25174126918368583,-0.010306764557816874,0.30790009733076795,-0.070862070373088407,0.09839397267033731],[0.12259685609642473,-0.091451579594331422,-0.39047179921955988,-0.11205728677683997,-0.20126461347994007,-0.19131954423455738,-0.047224200953240841,-0.38284490354004908,0.040430860751774982,0.27832102326529135,-0.1867992457587839,0.24343895317212486,0.024069170809513433,0.28149550911749177,-0.31689264824934671,-0.24247080622172498,-0.014008797765060041,-0.080887550388983223,0.094570571382208229,0.46629108333942737,0.23669186819472052,-0.034636513849775161],[0.007310386509828566,0.063992005863997642,-0.026900125670905609,-0.24766303720983679,-0.25424198280746918,0.017905556146345571,0.12490652055023001,-0.12053757315905396,-0.0015779151435410478,0.30663366868642045,-0.55120683790073133,0.32126008381743221,-0.063369419289500864,0.21885743983039427,0.045158729201128303,0.020920131452625987,-0.11988435357125915,0.10138683566466043,-0.11696293520155812,1.0922817779590752,0.24433179692265813,-0.083812803630085711],[0.037485003417519397,0.33430066228574007,-0.088605105556596009,-0.2239239515380205,-0.25968054596613682,0.182165791074513,0.035131840896969323,-0.21707839882647817,-0.092649541213274303,0.42675012725243683,-0.31557380690155173,-0.012728267777780579,0.022171849570938821,0.18378932913721124,0.078681748985823141,0.18729185331561415,-0.013758196713631351,-0.043218586181263688,-0.14162489286849436,0.87467240656179246,0.25761257302407026,0.019838448175108884],[0.12296129056385743,0.18017025651499108,-0.13345200893405113,-0.31868212113140559,0.050938948782995888,0.0094149806805970786,0.17570254891646067,-0.23769328724098726,0.0040824150159436664,0.12142268250225692,-0.42897355915580543,-0.1303527569129013,-0.10689553840396517,0.17786891074295719,-0.15754988126756131,0.10487018067854045,-0.045424794144846084,-0.22433356560137738,0.0025038353878750032,0.77926992744648793,0.073046432278453491,-0.09076380838227649],[0.25201425453591547,-0.060664864352543597,-0.27883912809727573,-0.11993042442212895,0.058267158552253721,0.24835122698582263,0.061562110773648156,-0.46282609182886791,-0.070000546923168705,0.1107023641743482,0.11575763708953329,0.28440727379364178,-0.028994405016857436,0.096950469303538456,0.26593384507400081,-0.13371931520614302,-0.045990219801169067,0.029647363042414877,0.012761802731721247,0.1443482195849019,0.4325416219449349,-0.070297248403107845],[0.4106035322100744,-0.052656898859061538,0.12163712347949243,0.36365476812120689,0.28145109891924708,0.089664815542305612,0.041645581755006655,-0.40747599733164364,0.12090722324421982,0.10394437470199416,0.087758354453385728,0.21712649669048539,0.42382945942688399,0.018119108477399861,-0.15979981685509584,-0.2491990599051892,0.32559080234479004,0.14134489119657653,0.12045598234175239,-0.38834744085403322,0.34877523642909164,-0.23268440998697457],[0.16186536707316365,0.26302376635843161,0.10503996011996908,0.15606621818192878,-0.16080925341263419,0.2575694220918362,-0.0088771912674830804,-0.1597799021073007,0.11986390204050025,0.069231266753714243,-0.17069065906051234,0.24363659797683634,-0.031158471126489815,0.0099398659650465002,0.18644660303780211,-0.087389014668460691,0.16483534360431087,0.15511861040903901,0.22056487346381534,-0.59885675596435539,0.15896225193685873,-0.062547347334760861],[0.047746546959827114,0.20502523117584701,0.018486448418270102,0.31761124264274537,-0.085560369719128504,0.18040718876225956,0.11522389158668216,0.060399791314174826,0.041849532903225801,0.10912721924009079,-0.40064665576990655,-0.041309622158210907,0.10811495256977763,0.52493173804056403,-0.11904948258928855,0.025430725840034186,-0.21835835658123712,-0.16291956686063203,-0.038449415305197708,-0.52091962527271041,-0.12559917056338538,0.066158502884756512],[-0.0096641915607634053,0.31562653792965356,0.28259314672478864,0.055824955654043704,-0.2203717808504389,0.33524816627175541,0.3035190265653866,0.096423894471763527,0.027239776017165256,-0.075112955813375057,0.47350939761151817,-0.30499638657638106,-0.28277828036959801,0.4769989789871516,-0.064172239461516609,0.060396338589464582,-0.010406622545500222,0.3829731282923915,-0.20548062707017778,0.295513053118512,-0.90864870271317955,-0.2693290156831985],[-0.12421244137693133,0.26035452336179415,0.065665487392585903,0.11107968714902529,-0.2414645751562858,0.19161958030748388,0.29097458738136595,-0.056158906045941329,0.33117728099373683,-0.039668535496962157,0.26140059108588798,-0.056296025187389964,-0.12675611711395185,0.36831685823633814,0.31732004468346137,0.26525788048730259,0.0445825827195123,0.25963859395707428,-0.055701220669837029,0.080215796549952478,-0.40332427028412737,-0.18265985642309795],[-0.16732784490024652,-0.26241817390556832,0.027192295461280328,-0.0068498561829557648,-0.17327203145895181,0.11316360325581959,0.4141569472892101,-0.24196284372262547,0.20456598184812674,0.088048266344843085,-0.02669540651221099,0.25643408350145513,-0.3474926704814591,-0.064588035682003123,0.18627299596894606,0.26980926955418433,-0.058493961333087249,0.25673218106438206,0.15469809997293837,-0.26026563484579662,-0.43018293244561223,-0.031974758648822328],[-0.26286955132423995,-0.092443437470861964,-0.11021130019220872,0.12389870546674096,-0.17628207988920441,-0.22365738137545199,0.17703394156559005,-0.2396788405407809,0.13559452653295609,0.14588558378135208,0.051542050803949004,0.29172305049763758,-0.44151478511627046,-0.25910786176074829,0.33801823124894098,0.47228879308882232,-0.41961420991695542,0.44757095814753256,0.14649067430054585,0.2196542634128747,-0.30462759405441431,-0.0037697922231797014],[-0.031547630272044276,0.12540681755630775,-0.11835796115618365,0.10098555693743665,-0.06058048225403824,0.14718676077483772,-0.17373095972676481,-0.037303897341601978,-0.15585063074314029,-0.053815394307710603,-0.13297337349057561,0.15528564860616403,-0.22706777975712927,0.08020405120364453,-0.032429373092354788,-0.036424077744395378,0.049268349681017343,0.096403756471740015,-0.13240290876557387,-0.033858989333567617,0.0008044559067782852,0.075898209358172306],[0.098443287912810123,0.068286108816819846,-0.085355492131713007,-0.091857855067577543,-0.049572234383077944,-0.10362733134120278,0.02216595622048189,-0.014162269833614332,-0.054048556531035213,0.051656055717532796,0.04578195191211986,-0.057932692660209853,-0.016249453259974716,-0.0080003906600564917,-0.062651535698360281,0.034217332459842216,-0.12625140646808675,-0.035099762775906068,-0.18961927198458625,-0.077930337968286967,0.028000644297968592,-0.078486731549359451],[-0.062852994969029144,-0.1056437987262964,-0.067456853955421475,0.042029234717001103,-0.11672312495626358,-0.024291535463526685,-0.10958568067215677,0.018252736279216253,-0.0049898205069813621,0.012734650792319641,-0.12182407072201784,-0.055255289709458436,0.11358807127496637,-0.053204343360279835,-0.068634450472042835,-0.077341889244048279,0.0072476473318815321,-0.13182410928463778,-0.060410235230843136,0.021920720177149175,0.096052785235997307,-0.056791312424259499],[-0.10923796935458541,0.039812176587242933,0.035459766906755945,-0.093608957771700127,-0.00096287925919059242,-0.032056547075529532,-0.058025894490135677,-0.077982487424787875,0.090701384645965832,0.023634432265895497,-0.039483995103547671,-0.0791802814142957,0.12544424339623275,-0.010310726689868356,-0.14074845207702952,-0.10775771069389206,0.039330725077312924,-0.078447775008481962,-0.034570169087750666,-0.083892256431153028,-0.055786428206470111,-0.11105742773940272],[-0.055637951424673947,0.097778317708860696,-0.088385936105566887,-0.071100497082138642,-0.043434964732005157,-0.0089537512127478222,0.030508451816923819,-0.051964852641463617,-0.11403608664960821,-0.043866521427800231,-0.12517148896924535,-0.066595802171970628,-0.11166522919079835,-0.02127432417075014,-0.058630715088715174,0.027800227655522695,-0.041018942402234151,-0.068230475355634951,-0.046825063230850901,-0.061453340571798958,-0.018564690417161907,-0.06632416116834644],[-0.044351529548760628,-0.062498940215279165,-0.058667550901702191,0.091416736593186498,-0.092664237771153762,-0.11965059121801566,-0.050980355468142141,0.027812525407402124,-0.041069062501091359,-0.0074767937570756962,-0.13917383386455381,0.071478224719222716,0.014520523620953102,-0.034111055771423773,0.08334042769190006,0.036080978387324193,-0.058236947011906473,0.05666771611228117,-0.052670115582241196,0.037481082324752509,-0.075840736597677399,-0.053822433262663297],[-0.027678349083485734,0.0021660593443368972,-0.043321297426665004,0.02569731389181823,0.00023080185891743987,-0.028241741561891513,-0.14915135349454381,-0.059968143511957575,0.037248263612168882,-0.012737565547064861,-0.049592663897553624,-0.014989752935664052,0.097986054838418823,0.040397836193074681,0.037158072739943045,-0.096784969265643839,0.068935960765852899,0.0083610520323652987,0.047294261576959075,-0.044429270014740785,0.013241406855868387,0.029057215199334706],[0.0076854947370374252,0.041734510675240193,-0.030312171180257728,0.023284071382279815,-0.11301266899569673,-0.11935020184745376,-0.11206213331228174,0.037973111497446983,0.03118427790178948,-0.090696068441996985,0.078703663413292851,-0.084195800780836619,0.019596527886648563,-0.01483784719426727,-0.04397985176475043,-0.10124675625603707,-0.11046228582671147,0.073546903659992641,0.054034288932628426,-0.022192364591052116,0.0093865758128315463,0.041822289345819864],[0.024224513574390392,0.0179306502261177,-0.10936437730505666,-0.059245107534990349,-0.0076199021462184727,-0.032232739424548768,0.054626363442376348,-0.051481894536254971,0.048153289814396684,-0.090562993740053332,0.016089736183614645,0.018221820759157605,-0.060759949956414899,-0.16777670552128107,-0.096927837728865762,-0.063721913834430571,-0.084290322056661232,-0.069789896469433066,-0.067199947760717818,-0.065165384678520066,0.049821915235930457,0.0015942680893817757],[0.18455234131128151,-0.21894216913771752,0.14908200727965587,-0.13289449662491404,-0.27637797477156284,-0.34020220716279398,0.15456387453781931,-0.023602073974889549,-0.0093617654143037018,-0.039431173150814749,0.23907642489471487,0.058279650449660055,0.083528560390602538,0.092656982429443077,0.16915720354318586,0.23755505085280562,0.04415245295583959,0.0062719373524165274,-0.031291985111949576,-0.49336583381864091,0.12775637043010957,-0.084550329381775688],[0.19239434093915625,0.045524144204191139,0.19052697240860192,-0.16765912960357379,-0.4175441688098116,-0.34014812555967111,0.0029049632355405844,0.11428514267047693,-0.073446389325707129,-0.043551368737985131,0.054928482133739007,0.024020283081864734,0.081101196911921039,0.10592494863807625,-0.29671989301508889,0.12524921368448044,0.0036289158853737092,-0.083546313024954272,-0.057445597816059235,-0.32874023975330041,0.28181429321492196,-0.12942728357917577],[0.10871171944751336,-0.032231293627753184,0.22740494221238758,-0.32599144187233575,-0.29996929866208522,-0.30559644905730782,-0.098130558072304974,0.056431785746062842,0.18558149988245989,-0.011475929218086487,0.22654380381457184,-0.11571633541622195,-0.2119791175497022,-0.055111153377145096,-0.028906333146462758,0.33081004470384723,0.019119096410960892,-0.20212434650263389,0.00065692697151940611,-0.067549768484329073,-0.13625414534577965,-0.19133903421293033],[0.28085110080100639,-0.25504328132051407,0.028647693324068833,-0.29098650210314536,-0.2943826935965137,-0.055613952842318598,-0.14004117130185706,0.25629821272946757,-0.023692279250952419,0.14059653562560992,0.28332336393115859,0.11944233106119666,0.15963140835720946,0.10633659039609515,0.035116366591256956,0.22225474149031327,0.30522598279885549,-0.19922116612775864,0.013767632164343126,-0.38733484335359242,0.11034562186239943,-0.26712078720940025],[-0.010063044162519236,-0.29813000718149418,0.12149519554915666,-0.46248808753184606,0.17094383474551936,0.085423079721670847,-0.3066160960946695,0.27175543486757919,0.00069449128808815445,-0.012671496864476424,0.4400733201139026,0.16768406375969075,-0.27771754309206537,0.38273966934059439,0.43515364177777383,0.1210674613455804,-0.30516809185832822,-0.036656238590086425,0.16250799605469252,-0.13933047597861609,-0.1809415252843499,-0.17410671162943384],[0.035459122944296331,0.28464889122037756,-0.10252718908148899,-0.44041274872182051,0.28381110683198502,-0.11507346865142255,-0.047374947764588574,0.24631219672327731,0.31203861108888958,-0.11896260925936333,-0.045022744696404202,0.18956741060367097,-0.31571847079038984,0.1975509516935802,0.44587006985948441,-0.070116425882723418,-0.50572517828565011,0.4790566125134253,-0.012493845182495557,0.86985241622868037,0.17165037765806127,0.033359888508611574],[0.20648503884039796,0.23392040190006747,-0.080511242462064508,-0.26339625921259091,0.33342435268822485,0.12849988655115158,0.12010178178056496,0.13639529505788683,0.21340169514435989,-0.036509159522926646,-0.26636026446774203,0.31383185347489123,0.017420330418448211,0.37356570794689881,-0.35188580243137502,-0.34844835398062507,-0.28269834674170286,0.35359603617734109,-0.16383318822609313,0.60156189620013478,0.3607663086921773,0.21822640517294969],[0.23221232597213468,-0.051390217517095604,-0.31059250558605944,0.3394224222942625,0.10135356411264981,0.26405284661416484,-0.00041667094576891274,-0.0203952639605436,0.09633959063071465,0.17154424395151441,-0.59121178206801439,0.24827346435472833,0.064871060835061375,0.43607167093331889,-0.58956516775729684,-0.206942501870265,-0.50335456846863769,0.24705909755834007,-0.03689542925132519,-0.096304671673139663,0.31390166282243315,-0.16491420737877505],[0.1503923324659506,-0.31944029818106995,-0.23584959565753907,0.35979678312871205,0.13835468662741751,0.062262831104912236,-0.21571369523737341,-0.22081457690944206,0.19996303435683382,0.33639541496400893,-0.25243776919516869,0.36819642510813289,0.17528181096187823,0.23726380570271807,-0.17829358203425519,0.05133708413410068,-0.44394304388243072,0.30010644349501209,-0.047545714776669593,-0.079354251388460778,0.32362260143907823,-0.23683832049351877],[0.22357025959123344,-0.10418904880398899,-0.15637184442068455,0.12598774264973669,-0.086443293638917618,-0.068975402875794831,-0.13332652593232314,-0.29031207906387557,0.019047845147348787,0.55007486624089474,-0.37256518084228579,0.47421538598089075,0.0089871802064556191,0.33567584900593966,-0.071302136463238436,-0.11086720045057863,-0.33867064962237287,0.28519155297124754,-0.15069255965760589,0.090691906525217206,0.38703441774620945,0.052342791120549445],[0.17578888066618856,0.29230970662415617,-0.31362360683888463,0.13973187755422614,-0.3077448823133066,0.21294282375521828,-0.34780476804840454,-0.31656631585496264,-0.0040482186806032787,0.53876403509491455,-0.15849593060328818,0.16135785229930871,0.23377605930923107,0.25643785869301394,-0.18757305003152744,-0.20740803645820635,-0.46621043336215762,0.063641889943989893,-0.039372063596730934,0.47018354788434591,0.29044056595299067,-0.04120996906578988],[-0.064367817669156183,0.24562681942788764,-0.45288512804543413,0.30461122197549134,-0.44783351993170939,0.01314641799616121,-0.41104912126056031,-0.32345705259929741,0.0045300772657847731,0.4233888615944012,-0.27702346861437127,0.12691036644625234,0.063981146962221666,0.18281299847150892,-0.24468120327684148,-0.10512054087641221,-0.49948823196250658,0.026349412902697131,-0.017280347887198087,0.50199153559117737,0.29734159208011057,-0.015617997618051008],[0.098085253155235572,0.20046447187450422,-0.55788649482730857,0.091962681640856164,-0.03268123723664592,-0.17242675345350175,-0.12446386387402307,-0.15029857047340248,-0.014171430951471452,0.064015858028874828,-0.39185108906816346,-0.12419650615048866,-0.019664086318018345,0.22203998743637834,-0.072735389954542609,0.026073506111920164,-0.54540150370315332,0.24610312874013293,0.03979056835048899,0.41703527622309272,0.20999288995107704,-0.24230912576103816],[0.23030063060294573,-0.13700713020864014,-0.32705089803433129,0.23533412879935525,0.51928565040482677,0.069858000871274445,0.23050548260514037,-0.13746845340027425,0.13704427154184076,0.063298111342077593,-0.15588895606970968,0.43329624277642759,0.08396933764372598,0.30069686227687875,0.0085982930033485418,-0.098525380236548318,-0.42185322506240747,0.14998868718068087,0.18277588002202219,-0.050934832507967216,0.37324019100438699,-0.25794799997586215],[0.41528413459542446,0.16098509871154534,-0.2910593790758168,0.15904635537030606,0.29955930708266088,0.22826611316241333,0.59216023206711421,-0.19455571822141376,0.22225555499484895,0.078548636192239313,-0.29821159195043845,0.45260934119825391,0.36235518248240733,0.13849554947259893,-0.1752139411047266,-0.30499438805658724,-0.41726566490711287,0.12326253394687656,0.1316212018733571,-0.046457016687251856,0.47058372534604881,-0.19033273947655388],[0.20962615098291243,0.10123331029229606,-0.28722522137597944,0.33934696470838993,0.34138587589071628,0.18373954285046398,0.46259486744049388,-0.14633833351953687,0.048390334694408975,0.076512440787650932,-0.077591473909944988,0.29704100830150465,0.050349997311141245,0.14615655844496825,-0.12823899829119209,-0.33405633466886359,-0.20840418670887217,0.3357479506763596,0.20840063575271645,-0.53337244827951313,0.15564697932820357,-0.18844727602396566],[0.51570988533022433,0.42102726625617204,0.084241097005836998,-0.28195249596342142,0.097376480756526884,0.088388582455266138,0.49778583120885833,0.28701088521465146,0.2174231452143229,0.10117224457464706,-0.65834937742091237,0.29675569491025894,-0.052092686889614902,0.52939176454660131,-0.30367254863197063,-0.060234250058305176,0.1996617402568977,0.13797093065120661,0.084569438765498162,-0.030652302183669673,0.24604122451912672,-0.36350248673782498],[-0.041536045157611112,0.22266460913861297,0.33691880872148217,0.39961802930538753,0.043090567289960809,0.24425484346200399,0.30760916180585496,0.18378336158367264,0.27249387332710601,0.085312037567540563,-0.54438909425946691,-0.10045737025248171,-0.22920074211628069,0.472428202302969,-0.49532533101663273,-0.49188706564107293,-0.14804611712314752,0.54931757773815315,-0.082490499298934816,0.10460794297006469,-0.41733947298054647,-0.069321594216661883],[-0.22935668906046366,-0.048109632700202007,0.62972688739089178,0.025367614266644963,0.055292619338932404,0.17123637688428325,0.63291248321250182,-0.019848034811286875,0.53162209719399633,0.15045808900836011,-0.47226416074024791,0.023944353691143568,-0.4089291058888132,0.49851052803336804,-0.066460686850637787,0.090327624597203421,-0.069717725684394841,0.70430503139342671,0.090223554360280039,-0.32046159812011166,-0.69419756359988904,0.2026230437974548],[-0.15936494655739475,-0.44126680095844362,-0.045390359994311909,0.010787091930347329,0.1000654053330116,-0.029660110798407406,0.59958570707939052,-0.28292247435422568,0.39854305413887464,0.11048183872487671,-0.1061845384217316,0.173007976400401,-0.35259660556084765,-0.0078907331798970647,0.10207625406075078,0.14523281170460542,-0.069553354875129939,0.41021706279886017,0.20248618300187743,-0.43384185594942248,-0.56187521256973083,0.1947916030944922],[-0.32809437562458621,0.16107790732593896,-0.11795905496128267,0.13349348537843395,-0.089166907783936239,-0.21315868592955078,-0.075447586533413005,-0.36094492039091752,0.11855637584196384,-0.04472919385947921,0.14669347067432498,0.19129311310321881,-0.17664038942016355,-0.20246814901455343,0.24259020990624103,0.32549235459579229,-0.18782349017328293,0.27523365298659097,0.13769322931062405,0.16344949985523088,-0.24612286031389399,0.049112270334796204],[-0.044920610587812528,-0.013395074514229633,0.0068477162430761272,-0.042173635358021225,-0.076539816153652102,-0.055265461864517626,-0.2641271827577128,-0.094496017171637928,-0.19174388342672874,-0.027717214473368043,0.027491298505653343,-0.049874338750027981,-0.15485791625301021,0.069969321147247826,0.012372994906510823,0.061877849191741816,-0.037580872185540085,0.095016582466225213,-0.014548346865140336,0.1469587482408885,-0.058410041186678238,-0.016943216017809352],[0.01819023835458615,0.075280830534765142,0.0035130448505715436,-0.11851849300668682,0.041958671391539713,-0.052281775506369976,-0.063935290306177284,-0.058992263194800783,-0.038780312253244013,0.011797639402882441,-0.12920839202326054,0.15816656501360823,-0.14330745692111782,0.18130582890944427,-0.13099736694626915,-0.024787148928092962,0.042957142829470878,-0.037664511665899479,0.075768278724685972,-0.09062352661198865,-0.12863527862246577,-0.01934423520312125],[0.034993042578127485,0.04170837761627972,-0.043630864068030371,0.043103469746240096,0.015706117192722364,0.086655311154693493,-0.0045579080159080972,-0.037848336881128299,-0.053465693551330989,0.031795432787759904,-0.023447370366580039,-0.01342679476097338,0.059058009185728573,-0.13550895600597629,6.0267848483348818e-05,0.054966477217807251,0.042001641379524148,-0.020215573091314935,0.085737311704029734,0.050159317912976335,-0.23447223067593279,-0.066555263504427933],[0.00081247123947862654,-0.075651253419907694,-0.05930233048420841,-0.030453892422793481,-0.028460045928121076,-0.031387507412667708,-0.049725481099844954,-0.079556014791965141,0.019060796748204878,-0.02139697727851388,-0.14046753000398904,-0.025665201764724126,-0.059728187030353465,-0.084550245837477417,0.008270355759926136,-0.072850031580718955,0.0030472300190842946,-0.065509022115025156,-0.038044397434825933,-0.069661180136457404,